  0.305151188546896E+000  0.143137205063363E+004  0.114573180751635E+002  0.656051856523990E+002 -0.591375878447880E+000  0.179943050105431E+001 -0.114467856624657E+002 -0.716279516969355E+003
  0.305151188546896E+000  0.143148865442959E+004  0.535484478912733E+001  0.688951759551320E+002 -0.833296760038205E+000  0.357836792707759E+001 -0.114467856624657E+002 -0.716337818867336E+003
  0.305151188546896E+000  0.142118498892826E+004  0.975688270499565E+001  0.671381818485195E+002 -0.535919175919893E+000  0.179350643757567E+001 -0.114467856624657E+002 -0.711185986116672E+003
  0.305151188546896E+000  0.142501474282287E+004  0.417168306930075E+001  0.707311781109950E+002 -0.502817718833816E+000  0.134526373570423E+001 -0.114467856624657E+002 -0.713100863063975E+003
  0.305151188546896E+000  0.142503665434289E+004  0.130051543958240E+002  0.647369240171333E+002 -0.617130502682559E+000  0.318105440407096E+001 -0.114467856624657E+002 -0.713111818823984E+003
  0.305151188546896E+000  0.143481657860624E+004  0.110709435507276E+001  0.632820511543389E+002 -0.566237166648841E+000  0.319060439685112E+001 -0.114467856624657E+002 -0.718001780955660E+003
  0.305151188546896E+000  0.142506422091547E+004  0.118608155645557E+002  0.715286390334792E+002 -0.757579358190704E+000  0.350808096144812E+001 -0.114467856624657E+002 -0.713125602110277E+003
  0.305151188546896E+000  0.142510282889751E+004  0.172736837141739E+002  0.693751035786272E+002 -0.448562937995232E+000  0.108838841195049E+001 -0.114467856624657E+002 -0.713144906101294E+003
  0.305151188546896E+000  0.143082992927115E+004  0.179250099629867E+002  0.635313760527410E+002 -0.514430992019865E+000  0.144188769689707E+001 -0.114467856624657E+002 -0.716008456288117E+003
  0.305151188546896E+000  0.142548027902255E+004 -0.380331042832827E+001  0.725780458273305E+002 -0.369656842929853E+000  0.944052529066405E+000 -0.114467856624657E+002 -0.713333631163816E+003
  0.305151188546896E+000  0.142993943259033E+004  0.528733387045426E+001  0.772337309099156E+002 -0.731410913027036E+000  0.327806705345346E+001 -0.114467856624657E+002 -0.715563207947703E+003
  0.305151188546896E+000  0.142985381271099E+004 -0.382700425408510E+001  0.697934871252952E+002 -0.288690486311636E+000  0.918446611470518E-001 -0.114467856624657E+002 -0.715520398008036E+003
  0.305151188546896E+000  0.142554076996682E+004 -0.194634488604563E+002  0.593558794389483E+002 -0.595495217809081E+000  0.280138369131074E+001 -0.114467856624657E+002 -0.713363876635949E+003
  0.305151188546896E+000  0.142594500326417E+004 -0.869268411399620E+000  0.774454925701970E+002 -0.676174628031571E+000  0.255289222437977E+001 -0.114467856624657E+002 -0.713565993284623E+003
  0.305151188546896E+000  0.142634924904669E+004  0.172002531302025E+002  0.638373946701151E+002 -0.542302201123434E+000  0.274591558041037E+001 -0.114467856624657E+002 -0.713768116175886E+003
  0.305151188546896E+000  0.142914034400279E+004 -0.140219220381030E+002  0.687713859101820E+002 -0.311778822401359E+000  0.418571124146866E+000 -0.114467856624657E+002 -0.715163663653935E+003
  0.305151188546896E+000  0.142853562664571E+004  0.754756955785375E+000  0.804103702937883E+002 -0.546012087679682E+000  0.213652503999883E+001 -0.114467856624657E+002 -0.714861304975395E+003
  0.305151188546896E+000  0.142836429270669E+004  0.124777070042114E+002  0.650452393412827E+002 -0.358279524400531E+000  0.985913679852111E+000 -0.114467856624657E+002 -0.714775638005883E+003
  0.305151188546896E+000  0.142792267169473E+004 -0.133658202828846E+002  0.654621722205897E+002 -0.361274796857802E+000  0.106293985258110E+001 -0.114467856624657E+002 -0.714554827499902E+003
  0.305151188546896E+000  0.142785873330512E+004 -0.174097245353202E+002  0.709193772984917E+002 -0.747545903337888E+000  0.368817356678341E+001 -0.114467856624657E+002 -0.714522858305102E+003
  0.305151188546896E+000  0.142733757132107E+004 -0.186198396487821E+002  0.688625802051610E+002 -0.733875842998061E+000  0.371690101021339E+001 -0.114467856624657E+002 -0.714262277313075E+003
  0.305151188546896E+000  0.142729824027604E+004 -0.162246663013011E+002  0.734932031894615E+002 -0.487760475212031E+000  0.115684818829812E+001 -0.114467856624657E+002 -0.714242611790557E+003
  0.305151188546896E+000  0.142642996424036E+004 -0.728983307863345E+001  0.729094264244903E+002 -0.572864294752798E+000  0.277892311973309E+001 -0.114467856624657E+002 -0.713808473772720E+003
  0.305151188546896E+000  0.142704921517879E+004 -0.644950158986717E+001  0.643183746139053E+002 -0.707436948968609E+000  0.370062011148116E+001 -0.114467856624657E+002 -0.714118099241933E+003
  0.305151188546896E+000  0.142686005475168E+004  0.272948557278092E+001  0.698401006444855E+002 -0.706782384063649E+000  0.357215022041257E+001 -0.114467856624657E+002 -0.714023519028380E+003
  0.305151188546896E+000  0.142685619046375E+004  0.545162633076361E+001  0.681674410165126E+002 -0.433320397396619E+000  0.966583160509849E+000 -0.114467856624657E+002 -0.714021586884416E+003
  0.305151188546896E+000  0.142656124125718E+004  0.754189890571537E+001  0.759578100419743E+002 -0.391299523291471E+000  0.111213632522532E+001 -0.114467856624657E+002 -0.713874112281129E+003
  0.305151188546896E+000  0.142123821594114E+004 -0.157895721316441E+002  0.707236995979270E+002 -0.709349698868778E+000  0.324146625716199E+001 -0.114467856624657E+002 -0.711212599623111E+003
  0.305151188546896E+000  0.142494682697403E+004 -0.412222456614859E+001  0.631388818360817E+002 -0.455568528800671E+000  0.183719649526776E+001 -0.114467856624657E+002 -0.713066905139555E+003
  0.305151188546896E+000  0.142484492992398E+004  0.777782513004523E+001  0.607693906399728E+002 -0.728117462258144E+000  0.349298158319565E+001 -0.114467856624657E+002 -0.713015956614532E+003
  0.305151188546896E+000  0.142469497417426E+004 -0.114465697541997E+001  0.755370624127489E+002 -0.603697424798030E+000  0.197829980079766E+001 -0.114467856624657E+002 -0.712940978739668E+003
  0.305151188546896E+000  0.142457375310255E+004  0.914234095367742E+001  0.714677917405917E+002 -0.695606018003369E+000  0.337095618552622E+001 -0.114467856624657E+002 -0.712880368203817E+003
  0.305151188546896E+000  0.142448048371585E+004  0.182192948107726E+002  0.749333757375928E+002 -0.684874283525149E+000  0.310141544022966E+001 -0.114467856624657E+002 -0.712833733510464E+003
  0.305151188546896E+000  0.142446798733096E+004 -0.716933260164774E+001  0.596110675742105E+002 -0.616440881418727E+000  0.280793427373616E+001 -0.114467856624657E+002 -0.712827485318018E+003
  0.305151188546896E+000  0.142436834930938E+004  0.114360668690497E+002  0.630792051824356E+002 -0.472275884538903E+000  0.197214923747738E+001 -0.114467856624657E+002 -0.712777666307230E+003
  0.305151188546896E+000  0.142430000293209E+004  0.163442907894626E+002  0.706839794327061E+002 -0.405521774735165E+000  0.949823630293985E+000 -0.114467856624657E+002 -0.712743493118586E+003
  0.305151188546896E+000  0.142429830227433E+004 -0.328182952882791E+001  0.695855833846929E+002 -0.404342561736822E+000  0.143984734889451E+001 -0.114467856624657E+002 -0.712742642789704E+003
  0.305151188546896E+000  0.142413182222979E+004  0.112742874984617E+002  0.695994883743911E+002 -0.431786486177258E+000  0.106729177454952E+001 -0.114467856624657E+002 -0.712659402767436E+003
  0.305151188546896E+000  0.142401434633307E+004 -0.362037653217573E+001  0.644705933088439E+002 -0.493160846444368E+000  0.157798660835642E+001 -0.114467856624657E+002 -0.712600664819073E+003
  0.305151188546896E+000  0.142393316298017E+004 -0.112863849577912E+002  0.736211181575693E+002 -0.730035079101850E+000  0.321556100179449E+001 -0.114467856624657E+002 -0.712560073142625E+003
  0.305151188546896E+000  0.142374027190166E+004 -0.244391484147598E+001  0.614063411549189E+002 -0.531863993583710E+000  0.211574154338215E+001 -0.114467856624657E+002 -0.712463627603369E+003
  0.305151188546896E+000  0.142371686582163E+004  0.192768933015308E+002  0.601143912068191E+002 -0.614405682993424E+000  0.278079933197095E+001 -0.114467856624657E+002 -0.712451924563355E+003
  0.305151188546896E+000  0.142368339421071E+004  0.103157270152973E+002  0.703471660970266E+002 -0.691566705880518E+000  0.261011930844969E+001 -0.114467856624657E+002 -0.712435188757896E+003
  0.305151188546896E+000  0.142354032085307E+004  0.113954101032059E+002  0.730757681053501E+002 -0.504714626424611E+000  0.220068200500041E+001 -0.114467856624657E+002 -0.712363652079076E+003
  0.305151188546896E+000  0.142352547155472E+004  0.142948665605318E+002  0.690837809427206E+002 -0.402355647046515E+000  0.129485382156968E+001 -0.114467856624657E+002 -0.712356227429900E+003
  0.305151188546896E+000  0.142350300324588E+004  0.327330498658814E+000  0.655895212689394E+002 -0.720633299341502E+000  0.357736337314260E+001 -0.114467856624657E+002 -0.712344993275479E+003
  0.305151188546896E+000  0.142348886348125E+004 -0.755805831756455E+001  0.695615547537655E+002 -0.691644275309678E+000  0.262598971604168E+001 -0.114467856624657E+002 -0.712337923393164E+003
  0.305151188546896E+000  0.142336462657480E+004 -0.327284790723185E+001  0.667272191531493E+002 -0.742904665134163E+000  0.312158389077996E+001 -0.114467856624657E+002 -0.712275804939939E+003
  0.305151188546896E+000  0.142312590300399E+004  0.138774421995019E+002  0.755305362587532E+002 -0.577273595028938E+000  0.250764550163290E+001 -0.114467856624657E+002 -0.712156443154537E+003
  0.305151188546896E+000  0.142124382182969E+004  0.909267939111755E+001  0.718714367127744E+002 -0.504757127969194E+000  0.153263461170503E+001 -0.114467856624657E+002 -0.711215402567383E+003
  0.305151188546896E+000  0.142291105570963E+004  0.867933566651894E+001  0.722002734336367E+002 -0.733739336795964E+000  0.310238265497939E+001 -0.114467856624657E+002 -0.712049019507356E+003
  0.305151188546896E+000  0.142287461109886E+004 -0.820002415803345E+001  0.630631528969045E+002 -0.493514734554073E+000  0.198395089307825E+001 -0.114467856624657E+002 -0.712030797201968E+003
  0.305151188546896E+000  0.142284801646644E+004 -0.119896688755410E+002  0.673199014730610E+002 -0.425023599884770E+000  0.147971780261959E+001 -0.114467856624657E+002 -0.712017499885761E+003
  0.305151188546896E+000  0.142281790886724E+004  0.640819778568114E+001  0.656399377318285E+002 -0.717679817115412E+000  0.352767978513770E+001 -0.114467856624657E+002 -0.712002446086162E+003
  0.305151188546896E+000  0.142274006263482E+004  0.472622211999031E+000  0.613548183282455E+002 -0.636947572211253E+000  0.269997736490824E+001 -0.114467856624657E+002 -0.711963522969950E+003
  0.305151188546896E+000  0.142262382107473E+004 -0.344718966381574E+001  0.664413593504104E+002 -0.470441034273033E+000  0.199527381617061E+001 -0.114467856624657E+002 -0.711905402189902E+003
  0.305151188546896E+000  0.142260717089364E+004 -0.191204194814140E+002  0.627581547114932E+002 -0.655362488324375E+000  0.322713514790825E+001 -0.114467856624657E+002 -0.711897077099359E+003
  0.305151188546896E+000  0.142260304990030E+004 -0.795751810416992E+001  0.742278029883415E+002 -0.694932750156826E+000  0.278844459466112E+001 -0.114467856624657E+002 -0.711895016602688E+003
  0.305151188546896E+000  0.142249829525471E+004  0.666956857414858E+001  0.636997410394962E+002 -0.687451074735528E+000  0.284686371888261E+001 -0.114467856624657E+002 -0.711842639279896E+003
  0.305151188546896E+000  0.142249253376200E+004 -0.172230795490771E+002  0.709820694118860E+002 -0.431501336084038E+000  0.117931490336712E+001 -0.114467856624657E+002 -0.711839758533539E+003
  0.305151188546896E+000  0.142242328165461E+004 -0.115994624330993E+002  0.613522648313013E+002 -0.653391109614974E+000  0.307636473518336E+001 -0.114467856624657E+002 -0.711805132479843E+003
  0.305151188546896E+000  0.142241494646068E+004  0.129009354785663E+002  0.722628880410278E+002 -0.603636674740606E+000  0.203844595426940E+001 -0.114467856624657E+002 -0.711800964882881E+003
  0.305151188546896E+000  0.142240910761299E+004  0.139506075332714E+002  0.743584213157959E+002 -0.682715585652879E+000  0.299459204624963E+001 -0.114467856624657E+002 -0.711798045459035E+003
  0.305151188546896E+000  0.142231478423375E+004  0.488257942107071E+001  0.667682957847544E+002 -0.729281465118940E+000  0.306262597681679E+001 -0.114467856624657E+002 -0.711750883769412E+003
  0.305151188546896E+000  0.142228029934553E+004  0.166587101343140E+002  0.718885775518331E+002 -0.424733715396316E+000  0.123985956479645E+001 -0.114467856624657E+002 -0.711733641325306E+003
  0.305151188546896E+000  0.142227762019004E+004  0.123494946006623E+002  0.711762203471024E+002 -0.427825295009035E+000  0.120877763499384E+001 -0.114467856624657E+002 -0.711732301747562E+003
  0.305151188546896E+000  0.142227605955144E+004  0.145658299062301E+002  0.631833414748299E+002 -0.564337793148290E+000  0.212325970459994E+001 -0.114467856624657E+002 -0.711731521428260E+003
  0.305151188546896E+000  0.142227268458398E+004  0.125143092953306E+002  0.717474710916387E+002 -0.725661117839929E+000  0.325216051886967E+001 -0.114467856624657E+002 -0.711729833944532E+003
  0.305151188546896E+000  0.142226859550614E+004  0.111909370957852E+002  0.714359337708727E+002 -0.509382815277520E+000  0.224275279006280E+001 -0.114467856624657E+002 -0.711727789405611E+003
  0.305151188546896E+000  0.142224561248862E+004  0.166171833560721E+002  0.634161477999330E+002 -0.515669549872076E+000  0.224285837840830E+001 -0.114467856624657E+002 -0.711716297896851E+003
  0.305151188546896E+000  0.142221955606231E+004 -0.144951155584088E+002  0.736213784848888E+002 -0.469615812579063E+000  0.179083896515882E+001 -0.114467856624657E+002 -0.711703269683695E+003
  0.305151188546896E+000  0.142215460968226E+004 -0.110466579473412E+002  0.667801372864721E+002 -0.443376564302070E+000  0.160975449771910E+001 -0.114467856624657E+002 -0.711670796493672E+003
  0.305151188546896E+000  0.142214613663974E+004  0.651676333451690E+000  0.629242531514022E+002 -0.608489284755188E+000  0.239397871697283E+001 -0.114467856624657E+002 -0.711666559972409E+003
  0.305151188546896E+000  0.142213926837868E+004 -0.912059293709096E+001  0.617951481399918E+002 -0.638895772408780E+000  0.271373852737148E+001 -0.114467856624657E+002 -0.711663125841879E+003
  0.305151188546896E+000  0.142213276036006E+004  0.431359395198272E+001  0.765568599251384E+002 -0.618914042862839E+000  0.250269482843661E+001 -0.114467856624657E+002 -0.711659871832571E+003
  0.305151188546896E+000  0.142211100645946E+004 -0.104149696762106E+002  0.685636208518764E+002 -0.473884907477373E+000  0.139772260264042E+001 -0.114467856624657E+002 -0.711648994882268E+003
  0.305151188546896E+000  0.142210500802813E+004  0.556689518263248E+001  0.707745432189562E+002 -0.663755705518166E+000  0.316840619905455E+001 -0.114467856624657E+002 -0.711645995666606E+003
  0.305151188546896E+000  0.142208112234618E+004 -0.748534718534304E+001  0.624362458577911E+002 -0.590901217445519E+000  0.235293092261064E+001 -0.114467856624657E+002 -0.711634052825628E+003
  0.305151188546896E+000  0.142207685442296E+004  0.451214796166091E+001  0.613324724530922E+002 -0.641405827040298E+000  0.292398318085079E+001 -0.114467856624657E+002 -0.711631918864019E+003
  0.305151188546896E+000  0.142202384878633E+004  0.375018300999272E+001  0.769510577901913E+002 -0.541264758882581E+000  0.194835139405709E+001 -0.114467856624657E+002 -0.711605416045702E+003
  0.305151188546896E+000  0.142198666044482E+004  0.621473010575810E+001  0.632980412859184E+002 -0.566923378851023E+000  0.266246397099181E+001 -0.114467856624657E+002 -0.711586821874949E+003
  0.305151188546896E+000  0.142196533267189E+004 -0.168168337474836E+001  0.618480846371870E+002 -0.640582887957674E+000  0.302483329541148E+001 -0.114467856624657E+002 -0.711576157988485E+003
  0.305151188546896E+000  0.142194025589468E+004  0.208556882327367E+001  0.670655764576031E+002 -0.492723581247044E+000  0.154997262326343E+001 -0.114467856624657E+002 -0.711563619599878E+003
  0.305151188546896E+000  0.142193755332013E+004 -0.751323696509083E+000  0.695981892980197E+002 -0.434428222705046E+000  0.128538773554587E+001 -0.114467856624657E+002 -0.711562268312604E+003
  0.305151188546896E+000  0.142132588765885E+004 -0.123075729188538E+002  0.625410821742868E+002 -0.677491261798390E+000  0.314057659514542E+001 -0.114467856624657E+002 -0.711256435481967E+003
  0.305151188546896E+000  0.142184726564680E+004  0.161228794791178E+000  0.641489718115017E+002 -0.496341379713454E+000  0.183746824552829E+001 -0.114467856624657E+002 -0.711517124475942E+003
  0.305151188546896E+000  0.142179296149059E+004  0.111242426379685E+001  0.645989355871882E+002 -0.659446947602390E+000  0.262646160443352E+001 -0.114467856624657E+002 -0.711489972397835E+003
  0.305151188546896E+000  0.142177765192348E+004 -0.688282036872299E+001  0.691262872144697E+002 -0.432630018172852E+000  0.146619012577577E+001 -0.114467856624657E+002 -0.711482317614282E+003
  0.305151188546896E+000  0.142174781099688E+004 -0.600089043926486E+001  0.727888065733238E+002 -0.689609448190959E+000  0.310495375755017E+001 -0.114467856624657E+002 -0.711467397150981E+003
  0.305151188546896E+000  0.142172573666881E+004 -0.376697017390476E+001  0.730814524693499E+002 -0.477869250461796E+000  0.139355687859920E+001 -0.114467856624657E+002 -0.711456359986946E+003
  0.305151188546896E+000  0.142172205546676E+004  0.634843259621425E+001  0.748043002893758E+002 -0.474091038787162E+000  0.147954024215473E+001 -0.114467856624657E+002 -0.711454519385920E+003
  0.305151188546896E+000  0.142167383134018E+004  0.633768537312332E+001  0.616497863248586E+002 -0.634280673622083E+000  0.287897453815963E+001 -0.114467856624657E+002 -0.711430407322628E+003
  0.305151188546896E+000  0.142167363029535E+004 -0.181810733503541E+002  0.707057912450494E+002 -0.624418063467768E+000  0.221340014217414E+001 -0.114467856624657E+002 -0.711430306800217E+003
  0.305151188546896E+000  0.142162364831986E+004 -0.109051207094728E+002  0.663527210311051E+002 -0.597995308107319E+000  0.291411830216154E+001 -0.114467856624657E+002 -0.711405315812470E+003
  0.305151188546896E+000  0.142160683249036E+004  0.135610889214521E+002  0.685066018861604E+002 -0.712828282510430E+000  0.291689141551847E+001 -0.114467856624657E+002 -0.711396907897718E+003
  0.305151188546896E+000  0.142160605874068E+004 -0.105959863877685E+002  0.681548377715440E+002 -0.632430295189091E+000  0.308441343798554E+001 -0.114467856624657E+002 -0.711396521022882E+003
  0.305151188546896E+000  0.142159665896982E+004  0.117934784253357E+002  0.671007642250942E+002 -0.681118206309408E+000  0.268713160362976E+001 -0.114467856624657E+002 -0.711391821137452E+003
  0.305151188546896E+000  0.142158315760498E+004  0.849083257715154E+000  0.678362269914872E+002 -0.613676036508704E+000  0.219796844363620E+001 -0.114467856624657E+002 -0.711385070455031E+003
  0.305151188546896E+000  0.142155363226509E+004 -0.992487905764606E+001  0.674210414182604E+002 -0.734059511803760E+000  0.316925773816559E+001 -0.114467856624657E+002 -0.711370307785086E+003
  0.305151188546896E+000  0.142150179085496E+004 -0.560520504639681E+001  0.735620195417923E+002 -0.569167313837378E+000  0.187831694622517E+001 -0.114467856624657E+002 -0.711344387080021E+003
  0.305151188546896E+000  0.142143674827226E+004 -0.143351857461775E+002  0.713366048048823E+002 -0.699260515316169E+000  0.280530313264725E+001 -0.114467856624657E+002 -0.711311865788672E+003
  0.305151188546896E+000  0.142142602653992E+004 -0.938089058497178E+001  0.746933812402723E+002 -0.479408043141059E+000  0.152585659583999E+001 -0.114467856624657E+002 -0.711306504922500E+003
  0.305151188546896E+000  0.142138840145513E+004  0.125993429559764E+002  0.733326172694174E+002 -0.690883704757292E+000  0.299885869643096E+001 -0.114467856624657E+002 -0.711287692380107E+003
  0.305151188546896E+000  0.142137553679355E+004 -0.115894457707488E+002  0.704067625866891E+002 -0.615674958234790E+000  0.217181259265073E+001 -0.114467856624657E+002 -0.711281260049314E+003
  0.305151188546896E+000  0.142115324240902E+004  0.146113701870735E+002  0.695844366706085E+002 -0.502060252833902E+000  0.217417874778453E+001 -0.114467856624657E+002 -0.711170112857047E+003
  0.305151188546896E+000  0.142114020797677E+004  0.115735843724542E+002  0.641102561364426E+002 -0.698283173338784E+000  0.331386880982604E+001 -0.114467856624657E+002 -0.711163595640927E+003
  0.305151188546896E+000  0.142109621443442E+004 -0.893091046244791E+001  0.628401843550776E+002 -0.637290666992580E+000  0.300736872623787E+001 -0.114467856624657E+002 -0.711141598869748E+003
  0.305151188546896E+000  0.142102332117547E+004 -0.456080464461934E+001  0.637882187981814E+002 -0.702267837198145E+000  0.313926750673863E+001 -0.114467856624657E+002 -0.711105152240274E+003
  0.305151188546896E+000  0.142101568469173E+004 -0.156247261352258E+001  0.662737391208860E+002 -0.471825094574752E+000  0.176578421899786E+001 -0.114467856624657E+002 -0.711101333998403E+003
  0.305151188546896E+000  0.142101412583903E+004  0.953163018381197E+001  0.710699445974468E+002 -0.505778081399193E+000  0.215225302359278E+001 -0.114467856624657E+002 -0.711100554572056E+003
  0.305151188546896E+000  0.142099695798728E+004  0.172261555344793E+002  0.746288133005487E+002 -0.615941529151349E+000  0.225084995733160E+001 -0.114467856624657E+002 -0.711091970646180E+003
  0.305151188546896E+000  0.142097383740734E+004  0.192704403571312E+002  0.631914840313034E+002 -0.638325180237999E+000  0.302766178984091E+001 -0.114467856624657E+002 -0.711080410356208E+003
  0.305151188546896E+000  0.142091424819890E+004 -0.190205824624752E+001  0.716324409529348E+002 -0.512023898174844E+000  0.158893991014100E+001 -0.114467856624657E+002 -0.711050615751991E+003
  0.305151188546896E+000  0.142091275031226E+004 -0.158924629318532E+001  0.757049296233695E+002 -0.615487914395523E+000  0.241019003305988E+001 -0.114467856624657E+002 -0.711049866808670E+003
  0.305151188546896E+000  0.142090877347223E+004 -0.111670432754694E+002  0.700029812842112E+002 -0.550104450602609E+000  0.251214955757944E+001 -0.114467856624657E+002 -0.711047878388654E+003
  0.305151188546896E+000  0.142088837968829E+004 -0.141027411898778E+001  0.728366179866512E+002 -0.501564575055127E+000  0.202080561663577E+001 -0.114467856624657E+002 -0.711037681496684E+003
  0.305151188546896E+000  0.142087712823179E+004 -0.188834397070518E+001  0.735361737236157E+002 -0.676894270919412E+000  0.274673209132887E+001 -0.114467856624657E+002 -0.711032055768433E+003
  0.305151188546896E+000  0.142087208877573E+004 -0.347247079925349E+001  0.701849398975591E+002 -0.587123729183058E+000  0.274226314534142E+001 -0.114467856624657E+002 -0.711029536040404E+003
  0.305151188546896E+000  0.142085435245816E+004 -0.141743144138891E+001  0.681638552930443E+002 -0.455513001387070E+000  0.159540791005939E+001 -0.114467856624657E+002 -0.711020667881622E+003
  0.305151188546896E+000  0.142080282163137E+004  0.579758950308037E+001  0.717667148210798E+002 -0.536849246455531E+000  0.234757301801093E+001 -0.114467856624657E+002 -0.710994902468223E+003
  0.305151188546896E+000  0.142079886098117E+004  0.585292297901477E+001  0.704012384375187E+002 -0.473886281210659E+000  0.186734040091674E+001 -0.114467856624657E+002 -0.710992922143124E+003
  0.305151188546896E+000  0.142079230874145E+004  0.113478533312017E+001  0.731144031867241E+002 -0.683123572441671E+000  0.294614153777312E+001 -0.114467856624657E+002 -0.710989646023267E+003
  0.305151188546896E+000  0.142076942664882E+004  0.160767259160633E+002  0.652554063881339E+002 -0.515125078887421E+000  0.185973437823695E+001 -0.114467856624657E+002 -0.710978204976950E+003
  0.305151188546896E+000  0.142074384502903E+004  0.822350957697671E+001  0.653920420962978E+002 -0.713967625397327E+000  0.332052017061676E+001 -0.114467856624657E+002 -0.710965414167054E+003
  0.305151188546896E+000  0.142071640721138E+004  0.177025019005861E+002  0.734612764282921E+002 -0.539562871814284E+000  0.226507628990866E+001 -0.114467856624657E+002 -0.710951695258227E+003
  0.305151188546896E+000  0.142070996565857E+004  0.741368249978675E+001  0.687180448415957E+002 -0.548554683943234E+000  0.183196832843367E+001 -0.114467856624657E+002 -0.710948474481825E+003
  0.305151188546896E+000  0.142070014930632E+004 -0.174388824547109E+002  0.728495382716352E+002 -0.505524499592207E+000  0.158535192414347E+001 -0.114467856624657E+002 -0.710943566305702E+003
  0.305151188546896E+000  0.142069612859907E+004  0.115707769265529E+002  0.727326070453463E+002 -0.607107135833568E+000  0.215311434566336E+001 -0.114467856624657E+002 -0.710941555952077E+003
  0.305151188546896E+000  0.142064086690392E+004 -0.194609932258315E+002  0.747273739272340E+002 -0.527465471211331E+000  0.205057611732556E+001 -0.114467856624657E+002 -0.710913925104498E+003
  0.305151188546896E+000  0.142063528816787E+004 -0.879300012982717E+001  0.668327096645301E+002 -0.475627728896165E+000  0.167776751914437E+001 -0.114467856624657E+002 -0.710911135736473E+003
  0.305151188546896E+000  0.142061382253300E+004  0.767658635863381E+000  0.662791243364071E+002 -0.669654102612092E+000  0.268954091332316E+001 -0.114467856624657E+002 -0.710900402919041E+003
  0.305151188546896E+000  0.142060517506131E+004 -0.183206730783405E+002  0.657556033984426E+002 -0.549551743897984E+000  0.197151888674632E+001 -0.114467856624657E+002 -0.710896079183195E+003
  0.305151188546896E+000  0.142060165716433E+004  0.107168751805969E+002  0.680185520061320E+002 -0.599896299250221E+000  0.285672381939829E+001 -0.114467856624657E+002 -0.710894320234706E+003
  0.305151188546896E+000  0.142054922456688E+004  0.138102807482382E+002  0.688728686242326E+002 -0.591189475374027E+000  0.208197206449539E+001 -0.114467856624657E+002 -0.710868103935980E+003
  0.305151188546896E+000  0.142053938622054E+004 -0.157674594810539E+002  0.676214979295120E+002 -0.702124185338045E+000  0.330200431668089E+001 -0.114467856624657E+002 -0.710863184762808E+003
  0.305151188546896E+000  0.142053422541947E+004 -0.147652166463039E+002  0.726520129950998E+002 -0.512591975579696E+000  0.162626253924110E+001 -0.114467856624657E+002 -0.710860604362275E+003
  0.305151188546896E+000  0.142053165985076E+004  0.330249731676087E+000  0.666338942913872E+002 -0.706913378746882E+000  0.300354707028257E+001 -0.114467856624657E+002 -0.710859321577918E+003
  0.305151188546896E+000  0.142053120933186E+004  0.115132132365785E+002  0.734318563015959E+002 -0.552465009275662E+000  0.184129046619160E+001 -0.114467856624657E+002 -0.710859096318469E+003
  0.305151188546896E+000  0.142052858704682E+004  0.100404566388992E+002  0.713537121936887E+002 -0.503322247476506E+000  0.157793437038130E+001 -0.114467856624657E+002 -0.710857785175950E+003
  0.305151188546896E+000  0.142042737693999E+004  0.170899416843750E+002  0.660116943686474E+002 -0.513621169157138E+000  0.220191001405630E+001 -0.114467856624657E+002 -0.710807180122537E+003
  0.305151188546896E+000  0.142042435575131E+004 -0.160809603007742E+002  0.755502511713971E+002 -0.570772535041170E+000  0.212309355862807E+001 -0.114467856624657E+002 -0.710805669528194E+003
  0.305151188546896E+000  0.142040298580563E+004  0.902959002375543E+001  0.672425874310319E+002 -0.673448138536740E+000  0.321624973339700E+001 -0.114467856624657E+002 -0.710794984555352E+003
  0.305151188546896E+000  0.142036723646852E+004 -0.179527818958908E+002  0.641872713391009E+002 -0.554124916258761E+000  0.245554687564471E+001 -0.114467856624657E+002 -0.710777109886799E+003
  0.305151188546896E+000  0.142033069914058E+004 -0.435198894252618E+000  0.742143412852199E+002 -0.503011738614863E+000  0.181958207919741E+001 -0.114467856624657E+002 -0.710758841222827E+003
  0.305151188546896E+000  0.142030143582491E+004  0.104406059159045E+002  0.745386017564857E+002 -0.525384836439024E+000  0.200746764738125E+001 -0.114467856624657E+002 -0.710744209564995E+003
  0.305151188546896E+000  0.142029991876959E+004  0.498499063262916E+001  0.663115457329042E+002 -0.715891172258353E+000  0.321660072125928E+001 -0.114467856624657E+002 -0.710743451037335E+003
  0.305151188546896E+000  0.142029542973043E+004 -0.255977029133264E+001  0.666109536759794E+002 -0.491382726678961E+000  0.174505602396564E+001 -0.114467856624657E+002 -0.710741206517754E+003
  0.305151188546896E+000  0.142029525407789E+004  0.700431775056737E+001  0.697543092527968E+002 -0.484634316486775E+000  0.194121820095718E+001 -0.114467856624657E+002 -0.710741118691486E+003
  0.305151188546896E+000  0.142024766467052E+004 -0.154240096905343E+002  0.735525281843131E+002 -0.602371502717659E+000  0.217062146591078E+001 -0.114467856624657E+002 -0.710717323987800E+003
  0.305151188546896E+000  0.142023642382424E+004  0.174123632371317E+002  0.638507467904428E+002 -0.639806140558003E+000  0.299988132482498E+001 -0.114467856624657E+002 -0.710711703564662E+003
  0.305151188546896E+000  0.142022530155927E+004 -0.129558154020671E+002  0.632627230936604E+002 -0.603845926287739E+000  0.253134882914873E+001 -0.114467856624657E+002 -0.710706142432177E+003
  0.305151188546896E+000  0.142021379129679E+004  0.794539351968588E+001  0.647744723203778E+002 -0.595809418407101E+000  0.278899476729941E+001 -0.114467856624657E+002 -0.710700387300936E+003
  0.305151188546896E+000  0.142019612431523E+004 -0.514275759764633E+001  0.634338940050596E+002 -0.590954435067278E+000  0.244259138142521E+001 -0.114467856624657E+002 -0.710691553810154E+003
  0.305151188546896E+000  0.142019532647081E+004  0.140426857560326E+002  0.741436165830466E+002 -0.539345586771771E+000  0.215908663555504E+001 -0.114467856624657E+002 -0.710691154887946E+003
  0.305151188546896E+000  0.142019283330764E+004  0.310721987769305E+001  0.706431529342991E+002 -0.635907533837888E+000  0.294684217509321E+001 -0.114467856624657E+002 -0.710689908306361E+003
  0.305151188546896E+000  0.142016776345072E+004 -0.135143515243560E+002  0.717004115561480E+002 -0.638853303135338E+000  0.290459261708568E+001 -0.114467856624657E+002 -0.710677373377899E+003
  0.305151188546896E+000  0.142016382280901E+004  0.131519857342911E+002  0.713933958424448E+002 -0.471742503343020E+000  0.154406357659471E+001 -0.114467856624657E+002 -0.710675403057044E+003
  0.305151188546896E+000  0.142014872224630E+004 -0.933608025603475E+001  0.646263361565544E+002 -0.546576350531814E+000  0.210233630612263E+001 -0.114467856624657E+002 -0.710667852775692E+003
  0.305151188546896E+000  0.142014091587809E+004  0.228076327344461E+001  0.632270647379648E+002 -0.625942390849897E+000  0.284400649704259E+001 -0.114467856624657E+002 -0.710663949591587E+003
  0.305151188546896E+000  0.142014047847661E+004  0.759828831147201E+001  0.696495937814760E+002 -0.510727083795327E+000  0.217181109696932E+001 -0.114467856624657E+002 -0.710663730890846E+003
  0.305151188546896E+000  0.142013765628730E+004  0.148562479193566E+002  0.701086809122154E+002 -0.465114660522178E+000  0.159426289093035E+001 -0.114467856624657E+002 -0.710662319796192E+003
  0.305151188546896E+000  0.142012802109296E+004 -0.114217231735198E+002  0.650013247486727E+002 -0.698666476425582E+000  0.319279146175287E+001 -0.114467856624657E+002 -0.710657502199018E+003
  0.305151188546896E+000  0.142011239340167E+004 -0.965908607871701E+001  0.739963228613665E+002 -0.514355795837922E+000  0.194527615950417E+001 -0.114467856624657E+002 -0.710649688353377E+003
  0.305151188546896E+000  0.142009730805685E+004 -0.757070140127109E+001  0.751735695050144E+002 -0.578808625299464E+000  0.225220391401810E+001 -0.114467856624657E+002 -0.710642145680967E+003
  0.305151188546896E+000  0.142000685717576E+004  0.169334238916937E+002  0.738762610041855E+002 -0.599239928267200E+000  0.254634651354344E+001 -0.114467856624657E+002 -0.710596920240418E+003
  0.305151188546896E+000  0.141999246543233E+004  0.126204752826404E+002  0.653616729877703E+002 -0.665297595200642E+000  0.314811163858645E+001 -0.114467856624657E+002 -0.710589724368705E+003
  0.305151188546896E+000  0.141998646014837E+004  0.135773842382125E+002  0.702245683229200E+002 -0.577733039704328E+000  0.200891188592485E+001 -0.114467856624657E+002 -0.710586721726724E+003
  0.305151188546896E+000  0.141997197187144E+004  0.713846830664085E+001  0.723983535388204E+002 -0.674527285995207E+000  0.292155556240341E+001 -0.114467856624657E+002 -0.710579477588262E+003
  0.305151188546896E+000  0.141996456075993E+004 -0.125705599202530E+002  0.681791514907117E+002 -0.479721555676118E+000  0.166745975311601E+001 -0.114467856624657E+002 -0.710575772032502E+003
  0.305151188546896E+000  0.141994185046815E+004 -0.738028455072514E+001  0.653433422642420E+002 -0.690061868425736E+000  0.298659534018868E+001 -0.114467856624657E+002 -0.710564416886613E+003
  0.305151188546896E+000  0.141994105365323E+004 -0.150775447285902E+002  0.652770516170793E+002 -0.524403280889124E+000  0.200048884746937E+001 -0.114467856624657E+002 -0.710564018479156E+003
  0.305151188546896E+000  0.141993839811300E+004  0.576508896129808E+001  0.727370730080134E+002 -0.531776033113188E+000  0.219266301892394E+001 -0.114467856624657E+002 -0.710562690709039E+003
  0.305151188546896E+000  0.141993448995342E+004  0.423969632119018E+000  0.705521548616941E+002 -0.625557631515073E+000  0.231456457118161E+001 -0.114467856624657E+002 -0.710560736629248E+003
  0.305151188546896E+000  0.141991683795309E+004 -0.264449936819216E+001  0.691673588636644E+002 -0.635966239125242E+000  0.298405092401180E+001 -0.114467856624657E+002 -0.710551910629085E+003
  0.305151188546896E+000  0.141990931471038E+004  0.171156714069409E+002  0.709000512236524E+002 -0.518838777689208E+000  0.169639494131004E+001 -0.114467856624657E+002 -0.710548149007729E+003
  0.305151188546896E+000  0.141990345237732E+004 -0.751752380888939E+001  0.710075850037543E+002 -0.536284296168728E+000  0.231536852796452E+001 -0.114467856624657E+002 -0.710545217841199E+003
  0.305151188546896E+000  0.141989687240739E+004 -0.137985101170164E+002  0.684698777738305E+002 -0.704071468388342E+000  0.320487082818928E+001 -0.114467856624657E+002 -0.710541927856236E+003
  0.305151188546896E+000  0.141982594175806E+004  0.306086985641548E+001  0.676527829058150E+002 -0.627589564064622E+000  0.238825434680535E+001 -0.114467856624657E+002 -0.710506462531567E+003
  0.305151188546896E+000  0.141981469805420E+004 -0.343864108293670E+001  0.673727399107524E+002 -0.642863274283897E+000  0.250342409774734E+001 -0.114467856624657E+002 -0.710500840679640E+003
  0.305151188546896E+000  0.141981062892918E+004 -0.468878221932833E+001  0.658614420866569E+002 -0.542460581925451E+000  0.200087545581964E+001 -0.114467856624657E+002 -0.710498806117130E+003
  0.305151188546896E+000  0.141979247739346E+004  0.672921891603741E+001  0.691141476935324E+002 -0.536293245711727E+000  0.181630792862733E+001 -0.114467856624657E+002 -0.710489730349271E+003
  0.305151188546896E+000  0.141976197157750E+004  0.128268681785251E+002  0.718053857910789E+002 -0.666814620937554E+000  0.295429711354322E+001 -0.114467856624657E+002 -0.710474477441289E+003
  0.305151188546896E+000  0.141975301780672E+004 -0.193408672870934E+002  0.647316873578120E+002 -0.540339894022903E+000  0.216036444180393E+001 -0.114467856624657E+002 -0.710470000555899E+003
  0.305151188546896E+000  0.141972636487406E+004  0.104606637475808E+002  0.659242241988297E+002 -0.586513667464022E+000  0.271922596150410E+001 -0.114467856624657E+002 -0.710456674089572E+003
  0.305151188546896E+000  0.141964742395422E+004  0.239365239210322E+001  0.702900501133816E+002 -0.695635237200210E+000  0.296923219496992E+001 -0.114467856624657E+002 -0.710417203629650E+003
  0.305151188546896E+000  0.141962753771425E+004 -0.172113982991931E+001  0.734940807491466E+002 -0.549831523892310E+000  0.190955130403030E+001 -0.114467856624657E+002 -0.710407260509665E+003
  0.305151188546896E+000  0.141959217913809E+004 -0.121459734847410E+001  0.734303391608326E+002 -0.512486832746835E+000  0.179065613047513E+001 -0.114467856624657E+002 -0.710389581221585E+003
  0.305151188546896E+000  0.141957865040311E+004 -0.155614832007926E+001  0.702971700016128E+002 -0.512785281581616E+000  0.170554069312664E+001 -0.114467856624657E+002 -0.710382816854094E+003
  0.305151188546896E+000  0.141957811060982E+004 -0.136709291693560E+002  0.683061186274307E+002 -0.587540828999308E+000  0.271590145376137E+001 -0.114467856624657E+002 -0.710382546957450E+003
  0.305151188546896E+000  0.141957184630576E+004 -0.100036787631231E+002  0.661127842638202E+002 -0.697050683835049E+000  0.311877356187360E+001 -0.114467856624657E+002 -0.710379414805418E+003
  0.305151188546896E+000  0.141954250413964E+004 -0.167169279098340E+002  0.655370510259984E+002 -0.524854902229453E+000  0.207555614492951E+001 -0.114467856624657E+002 -0.710364743722360E+003
  0.305151188546896E+000  0.141954162579088E+004  0.177358757045362E+002  0.672169583879392E+002 -0.511607900897335E+000  0.182685526655730E+001 -0.114467856624657E+002 -0.710364304547980E+003
  0.305151188546896E+000  0.141954154954087E+004  0.128178685021463E+002  0.681081042132002E+002 -0.686816774867417E+000  0.316480667366598E+001 -0.114467856624657E+002 -0.710364266422975E+003
  0.305151188546896E+000  0.141954153916530E+004  0.113125279803693E+002  0.697295254705699E+002 -0.642303643279114E+000  0.296904520834140E+001 -0.114467856624657E+002 -0.710364261235188E+003
  0.305151188546896E+000  0.141952837400141E+004 -0.981765801137242E+001  0.669286485374748E+002 -0.699158007138510E+000  0.305713431508160E+001 -0.114467856624657E+002 -0.710357678653245E+003
  0.305151188546896E+000  0.141951492124922E+004 -0.319403091004201E+001  0.656873187377985E+002 -0.638164180095155E+000  0.299530967083188E+001 -0.114467856624657E+002 -0.710350952277148E+003
  0.305151188546896E+000  0.141951227353766E+004  0.188304743974902E+001  0.679470561771507E+002 -0.501707214007489E+000  0.202757700743393E+001 -0.114467856624657E+002 -0.710349628421372E+003
  0.305151188546896E+000  0.141948049209006E+004 -0.983730784723647E+000  0.659600190974238E+002 -0.692871588093249E+000  0.311321094649499E+001 -0.114467856624657E+002 -0.710333737697572E+003
  0.305151188546896E+000  0.141945127502434E+004  0.599592903903508E+001  0.647036606179236E+002 -0.566861854266819E+000  0.248073421993824E+001 -0.114467856624657E+002 -0.710319129164711E+003
  0.305151188546896E+000  0.141943075669050E+004 -0.316275994910736E+000  0.659768729369431E+002 -0.585352389391731E+000  0.268769295536730E+001 -0.114467856624657E+002 -0.710308869997791E+003
  0.305151188546896E+000  0.141942429589476E+004  0.194968844241452E+002  0.685434377925033E+002 -0.487800031575420E+000  0.180837115671450E+001 -0.114467856624657E+002 -0.710305639599918E+003
  0.305151188546896E+000  0.141941961703583E+004 -0.182188150407234E+002  0.650524376389091E+002 -0.544130836281686E+000  0.217734169216591E+001 -0.114467856624657E+002 -0.710303300170455E+003
  0.305151188546896E+000  0.141941631567086E+004  0.139367084023280E+002  0.711185208653840E+002 -0.561157496917737E+000  0.245202149305393E+001 -0.114467856624657E+002 -0.710301649487971E+003
  0.305151188546896E+000  0.141940120513952E+004 -0.497366997282578E+001  0.681570045142740E+002 -0.491277316963937E+000  0.184572664923337E+001 -0.114467856624657E+002 -0.710294094222300E+003
  0.305151188546896E+000  0.141938836239724E+004  0.862959809175763E+001  0.645862438491250E+002 -0.665021631996241E+000  0.298928086698013E+001 -0.114467856624657E+002 -0.710287672851162E+003
  0.305151188546896E+000  0.141937822541341E+004 -0.630336541940011E+001  0.726645062388191E+002 -0.517048335317559E+000  0.177074559591254E+001 -0.114467856624657E+002 -0.710282604359247E+003
  0.305151188546896E+000  0.141937475387746E+004 -0.813822616467387E+001  0.669552872282376E+002 -0.504508073873488E+000  0.192246577525854E+001 -0.114467856624657E+002 -0.710280868591271E+003
  0.305151188546896E+000  0.141937128874565E+004 -0.163656573251412E+002  0.732838192261536E+002 -0.639492503315801E+000  0.256024388975825E+001 -0.114467856624657E+002 -0.710279136025365E+003
  0.305151188546896E+000  0.141931768705881E+004  0.102673465089158E+002  0.671718908742765E+002 -0.593008231218743E+000  0.222225644116028E+001 -0.114467856624657E+002 -0.710252335181945E+003
  0.305151188546896E+000  0.141931365452559E+004 -0.275747996604572E+000  0.670618394172288E+002 -0.683313429053455E+000  0.314358271272704E+001 -0.114467856624657E+002 -0.710250318915335E+003
  0.305151188546896E+000  0.141930579443345E+004  0.184726473046418E+002  0.688676635060149E+002 -0.631074152329631E+000  0.241418177647778E+001 -0.114467856624657E+002 -0.710246388869263E+003
  0.305151188546896E+000  0.141930410469944E+004  0.214288247989280E+001  0.680817754888287E+002 -0.680951305939130E+000  0.312820636125196E+001 -0.114467856624657E+002 -0.710245544002261E+003
  0.305151188546896E+000  0.141929282079331E+004 -0.251298996335533E+001  0.652787435005945E+002 -0.632104261079683E+000  0.293169185046016E+001 -0.114467856624657E+002 -0.710239902049193E+003
  0.305151188546896E+000  0.141927720000967E+004 -0.789805958384939E+001  0.702140663428553E+002 -0.487656230029839E+000  0.176699130609819E+001 -0.114467856624657E+002 -0.710232091657375E+003
  0.305151188546896E+000  0.141926764027885E+004  0.188624080085540E+002  0.727189188987978E+002 -0.540587251419181E+000  0.187449629196342E+001 -0.114467856624657E+002 -0.710227311791966E+003
  0.305151188546896E+000  0.141926436888530E+004  0.180102134804051E+002  0.732027842206026E+002 -0.569667018114345E+000  0.236144084021581E+001 -0.114467856624657E+002 -0.710225676095189E+003
  0.305151188546896E+000  0.141925734717680E+004  0.156175046935726E+002  0.700237137973958E+002 -0.685297991875592E+000  0.288013144247057E+001 -0.114467856624657E+002 -0.710222165240942E+003
  0.305151188546896E+000  0.141925456171763E+004  0.139412269098127E+002  0.680358780180431E+002 -0.542299187235875E+000  0.237734977878261E+001 -0.114467856624657E+002 -0.710220772511355E+003
  0.305151188546896E+000  0.141925341365787E+004 -0.159615659572122E+000  0.737749294521985E+002 -0.619668762612984E+000  0.247163051990018E+001 -0.114467856624657E+002 -0.710220198481476E+003
  0.305151188546896E+000  0.141921264364968E+004 -0.999369599245993E+001  0.699798582519113E+002 -0.518909200325065E+000  0.215009911125877E+001 -0.114467856624657E+002 -0.710199813477380E+003
  0.305151188546896E+000  0.141919852197088E+004  0.168350240715219E+002  0.672297815040611E+002 -0.580767740214150E+000  0.265241288859763E+001 -0.114467856624657E+002 -0.710192752637979E+003
  0.305151188546896E+000  0.141918553102876E+004 -0.150428450454324E+002  0.727267963152546E+002 -0.604175806492215E+000  0.224910630013083E+001 -0.114467856624657E+002 -0.710186257166922E+003
  0.305151188546896E+000  0.141917922346376E+004  0.922962461369347E+001  0.671480815676940E+002 -0.510440785582408E+000  0.190716621973865E+001 -0.114467856624657E+002 -0.710183103384419E+003
  0.305151188546896E+000  0.141915392581344E+004 -0.102232956049705E+002  0.645861613991338E+002 -0.583448942274768E+000  0.254850546956726E+001 -0.114467856624657E+002 -0.710170454559259E+003
  0.305151188546896E+000  0.141913630466417E+004 -0.988872234734764E+001  0.668466224473642E+002 -0.641102569811320E+000  0.298797340226916E+001 -0.114467856624657E+002 -0.710161643984625E+003
  0.305151188546896E+000  0.141911039364481E+004 -0.757576245871116E+001  0.713169940419381E+002 -0.672795170057737E+000  0.286319082964600E+001 -0.114467856624657E+002 -0.710148688474943E+003
  0.305151188546896E+000  0.141909984550690E+004  0.736351295518454E+001  0.734483848201703E+002 -0.539710715163932E+000  0.207067626510682E+001 -0.114467856624657E+002 -0.710143414405989E+003
  0.305151188546896E+000  0.141908828049723E+004  0.169367860534578E+002  0.727203893387416E+002 -0.646355714773248E+000  0.264545730929005E+001 -0.114467856624657E+002 -0.710137631901154E+003
  0.305151188546896E+000  0.141908560889905E+004  0.152027393898636E+002  0.724106193849901E+002 -0.652738194275005E+000  0.268008814061389E+001 -0.114467856624657E+002 -0.710136296102064E+003
  0.305151188546896E+000  0.141902075933621E+004  0.166670126519857E+002  0.735635329188753E+002 -0.613269383830676E+000  0.248407752898474E+001 -0.114467856624657E+002 -0.710103871320643E+003
  0.305151188546896E+000  0.141901379930288E+004  0.146870473769570E+001  0.655974663395970E+002 -0.616420064340055E+000  0.282960744896715E+001 -0.114467856624657E+002 -0.710100391303980E+003
  0.305151188546896E+000  0.141897551605902E+004  0.105867590391602E+002  0.671117329379326E+002 -0.615277324387418E+000  0.284435360455001E+001 -0.114467856624657E+002 -0.710081249682050E+003
  0.305151188546896E+000  0.141897235465367E+004 -0.130401009706163E+002  0.665789205052341E+002 -0.586256255986178E+000  0.266371362629046E+001 -0.114467856624657E+002 -0.710079668979377E+003
  0.305151188546896E+000  0.141892568227781E+004 -0.102477983234389E+002  0.654288056505472E+002 -0.665581398309146E+000  0.296630936590105E+001 -0.114467856624657E+002 -0.710056332791446E+003
  0.305151188546896E+000  0.141891808011121E+004  0.498381664038622E+001  0.688322031103854E+002 -0.666440056117572E+000  0.303263096270990E+001 -0.114467856624657E+002 -0.710052531708146E+003
  0.305151188546896E+000  0.141890863808718E+004 -0.798369014466382E+001  0.655273981160142E+002 -0.550695079969134E+000  0.227652601947154E+001 -0.114467856624657E+002 -0.710047810696131E+003
  0.305151188546896E+000  0.141890546072668E+004  0.221514999394561E+000  0.655564480873168E+002 -0.551716078241118E+000  0.230505980967851E+001 -0.114467856624657E+002 -0.710046222015881E+003
  0.305151188546896E+000  0.141888077795669E+004  0.190567515321103E+002  0.671835566240492E+002 -0.539052461114650E+000  0.199431975411484E+001 -0.114467856624657E+002 -0.710033880630884E+003
  0.305151188546896E+000  0.141886641673150E+004  0.598967925584914E+001  0.646993400414898E+002 -0.625671259395724E+000  0.277647562760441E+001 -0.114467856624657E+002 -0.710026700018290E+003
  0.305151188546896E+000  0.141884486887914E+004 -0.144345440728990E+002  0.681142329358938E+002 -0.560021823781161E+000  0.204035552947287E+001 -0.114467856624657E+002 -0.710015926092110E+003
  0.305151188546896E+000  0.141883456708048E+004 -0.876137617619840E+001  0.724730972026397E+002 -0.521786832048583E+000  0.192704633882793E+001 -0.114467856624657E+002 -0.710010775192781E+003
  0.305151188546896E+000  0.141883232189864E+004 -0.163550050833379E+001  0.659077421821929E+002 -0.652374232633341E+000  0.298308593015333E+001 -0.114467856624657E+002 -0.710009652601862E+003
  0.305151188546896E+000  0.141882896538202E+004 -0.207401086528643E+001  0.704217264406554E+002 -0.545078793482269E+000  0.191399379154925E+001 -0.114467856624657E+002 -0.710007974343548E+003
  0.305151188546896E+000  0.141880836348158E+004 -0.184940463985966E+001  0.682126408430968E+002 -0.680269297669550E+000  0.304697982191539E+001 -0.114467856624657E+002 -0.709997673393329E+003
  0.305151188546896E+000  0.141879649411063E+004 -0.185577228600701E+002  0.692349535003581E+002 -0.512631645378751E+000  0.204586435504537E+001 -0.114467856624657E+002 -0.709991738707853E+003
  0.305151188546896E+000  0.141876563054174E+004 -0.178720015366953E+002  0.665401239906261E+002 -0.629170623502951E+000  0.252921473873130E+001 -0.114467856624657E+002 -0.709976306923412E+003
  0.305151188546896E+000  0.141875928243495E+004 -0.133964932962132E+002  0.664480387812921E+002 -0.555688875384701E+000  0.240547243454603E+001 -0.114467856624657E+002 -0.709973132870014E+003
  0.305151188546896E+000  0.141874379781937E+004  0.103554865616796E+002  0.653094342036950E+002 -0.596262016530529E+000  0.265152975436447E+001 -0.114467856624657E+002 -0.709965390562226E+003
  0.305151188546896E+000  0.141874079394017E+004 -0.112512124276361E+001  0.678439723570081E+002 -0.682223424256200E+000  0.296553955817425E+001 -0.114467856624657E+002 -0.709963888622625E+003
  0.305151188546896E+000  0.141872580899797E+004 -0.178471872104761E+001  0.726602917535881E+002 -0.632304638177143E+000  0.260914155485585E+001 -0.114467856624657E+002 -0.709956396151525E+003
  0.305151188546896E+000  0.141872095466679E+004 -0.124473703003752E+002  0.686358541743886E+002 -0.650705632547578E+000  0.296869907418713E+001 -0.114467856624657E+002 -0.709953968985935E+003
  0.305151188546896E+000  0.141871520712758E+004  0.751558493557136E+001  0.712580500427799E+002 -0.634171658335204E+000  0.247870612924129E+001 -0.114467856624657E+002 -0.709951095216329E+003
  0.305151188546896E+000  0.141871336023415E+004  0.127836802160593E+002  0.730537854789819E+002 -0.593189592188128E+000  0.243838937448670E+001 -0.114467856624657E+002 -0.709950171769617E+003
  0.305151188546896E+000  0.141870421824992E+004 -0.190281241080199E+002  0.659973356266156E+002 -0.645700495093575E+000  0.294472141213404E+001 -0.114467856624657E+002 -0.709945600777500E+003
  0.305151188546896E+000  0.141869539100306E+004  0.577461228263157E+000  0.729322893159240E+002 -0.541619809796381E+000  0.201922131542224E+001 -0.114467856624657E+002 -0.709941187154069E+003
  0.305151188546896E+000  0.141869050406339E+004  0.178758177500650E+002  0.729304236898582E+002 -0.576603143371953E+000  0.235486420421330E+001 -0.114467856624657E+002 -0.709938743684233E+003
  0.305151188546896E+000  0.141868419045940E+004  0.126830082630962E+002  0.666127624711307E+002 -0.589121693024172E+000  0.265458888385022E+001 -0.114467856624657E+002 -0.709935586882240E+003
  0.305151188546896E+000  0.141866428953028E+004 -0.145682247523887E+002  0.674558771453448E+002 -0.653176459117164E+000  0.298898711418147E+001 -0.114467856624657E+002 -0.709925636417678E+003
  0.305151188546896E+000  0.141865272706405E+004  0.170782943951750E+001  0.693813244812982E+002 -0.610036024509276E+000  0.275555082017506E+001 -0.114467856624657E+002 -0.709919855184566E+003
  0.305151188546896E+000  0.141863713541521E+004  0.186725335934590E+001  0.660879512251097E+002 -0.664900029651715E+000  0.290538554994599E+001 -0.114467856624657E+002 -0.709912059360145E+003
  0.305151188546896E+000  0.141857548964622E+004  0.542503440217355E+001  0.729865931547631E+002 -0.600943611015122E+000  0.245132444636647E+001 -0.114467856624657E+002 -0.709881236475650E+003
  0.305151188546896E+000  0.141856786939143E+004  0.720513959615027E+001  0.716856603477779E+002 -0.627228725781011E+000  0.270941713012903E+001 -0.114467856624657E+002 -0.709877426348257E+003
  0.305151188546896E+000  0.141855219505928E+004  0.620537551802992E+001  0.678397299571233E+002 -0.623628551997762E+000  0.245096353032615E+001 -0.114467856624657E+002 -0.709869589182182E+003
  0.305151188546896E+000  0.141854866843160E+004  0.225289180196400E+001  0.703394065103718E+002 -0.600064942257788E+000  0.265736249071279E+001 -0.114467856624657E+002 -0.709867825868340E+003
  0.305151188546896E+000  0.141853694613618E+004 -0.100709998030445E+002  0.730991913457173E+002 -0.567101152885599E+000  0.216520818539568E+001 -0.114467856624657E+002 -0.709861964720628E+003
  0.305151188546896E+000  0.141851271590543E+004 -0.102150308052370E+001  0.692764513530073E+002 -0.599640435338159E+000  0.268845631468989E+001 -0.114467856624657E+002 -0.709849849605255E+003
  0.305151188546896E+000  0.141850789307882E+004 -0.903428321294161E+001  0.721421595521926E+002 -0.614956645338496E+000  0.261092136757499E+001 -0.114467856624657E+002 -0.709847438191948E+003
  0.305151188546896E+000  0.141848718038698E+004  0.840452575768642E+001  0.728013734496995E+002 -0.575208395006515E+000  0.216637108123894E+001 -0.114467856624657E+002 -0.709837081846028E+003
  0.305151188546896E+000  0.141848021739373E+004  0.119205134531931E+002  0.678937014726343E+002 -0.669098446603207E+000  0.283746269838562E+001 -0.114467856624657E+002 -0.709833600349404E+003
  0.305151188546896E+000  0.141844546691557E+004  0.835018781697826E+001  0.711648420350890E+002 -0.606456300813474E+000  0.263963678089005E+001 -0.114467856624657E+002 -0.709816225110323E+003
  0.305151188546896E+000  0.141835940444437E+004  0.193821751543544E+002  0.699350123108354E+002 -0.519516527147080E+000  0.201445318350949E+001 -0.114467856624657E+002 -0.709773193874725E+003
  0.305151188546896E+000  0.141835794036560E+004  0.915615051255714E+001  0.720794623731156E+002 -0.604754113471925E+000  0.232901740649181E+001 -0.114467856624657E+002 -0.709772461835341E+003
  0.305151188546896E+000  0.141835544743643E+004  0.434014616647285E+001  0.655619730230612E+002 -0.625617501201332E+000  0.266307712799100E+001 -0.114467856624657E+002 -0.709771215370754E+003
  0.305151188546896E+000  0.141833889804949E+004 -0.160212000301878E+002  0.672893769229291E+002 -0.658849721585760E+000  0.295333389824485E+001 -0.114467856624657E+002 -0.709762940677283E+003
  0.305151188546896E+000  0.141832871320951E+004  0.126490244082544E+001  0.667329121769534E+002 -0.552657311990740E+000  0.231102308571058E+001 -0.114467856624657E+002 -0.709757848257295E+003
  0.305151188546896E+000  0.141827971073324E+004 -0.137007180528755E+002  0.700845103714150E+002 -0.590507871511289E+000  0.221338614411806E+001 -0.114467856624657E+002 -0.709733347019160E+003
  0.305151188546896E+000  0.141826869315206E+004 -0.154993496268164E+002  0.715263527312465E+002 -0.563773926904840E+000  0.207461906054857E+001 -0.114467856624657E+002 -0.709727838228571E+003
  0.305151188546896E+000  0.141826078663062E+004  0.193552315478446E+002  0.678050242981454E+002 -0.629189591970263E+000  0.284444684512606E+001 -0.114467856624657E+002 -0.709723884967850E+003
  0.305151188546896E+000  0.141825360385650E+004  0.260587455847300E+001  0.718905049356752E+002 -0.580832489289006E+000  0.241859209332236E+001 -0.114467856624657E+002 -0.709720293580791E+003
  0.305151188546896E+000  0.141825096518255E+004  0.139308557046009E+002  0.695944013159755E+002 -0.548552980408572E+000  0.200382636765135E+001 -0.114467856624657E+002 -0.709718974243813E+003
  0.305151188546896E+000  0.141824395637869E+004  0.474995588064452E+000  0.701334176204568E+002 -0.572559387043768E+000  0.246577161149577E+001 -0.114467856624657E+002 -0.709715469841884E+003
  0.305151188546896E+000  0.141824370715072E+004  0.141337532799647E+002  0.681301230033548E+002 -0.657570424634572E+000  0.274906175038870E+001 -0.114467856624657E+002 -0.709715345227900E+003
  0.305151188546896E+000  0.141823101441051E+004 -0.749378848405838E+001  0.712949889995267E+002 -0.636688054699620E+000  0.271168155288139E+001 -0.114467856624657E+002 -0.709708998857795E+003
  0.305151188546896E+000  0.141822977478365E+004 -0.164537265692806E+002  0.705935850202417E+002 -0.628303214385096E+000  0.247849717932708E+001 -0.114467856624657E+002 -0.709708379044367E+003
  0.305151188546896E+000  0.141821658847501E+004 -0.876856097673204E+001  0.670670843498920E+002 -0.545246911276153E+000  0.218308146850986E+001 -0.114467856624657E+002 -0.709701785890043E+003
  0.305151188546896E+000  0.141821399877015E+004  0.110832653352455E+002  0.697155497663417E+002 -0.523343328742744E+000  0.196615048126539E+001 -0.114467856624657E+002 -0.709700491037614E+003
  0.305151188546896E+000  0.141819569802575E+004  0.340264737063649E+001  0.700266060030401E+002 -0.556196244584660E+000  0.203792765957654E+001 -0.114467856624657E+002 -0.709691340665415E+003
  0.305151188546896E+000  0.141818831926017E+004  0.124911824817479E+001  0.683798202238715E+002 -0.636217907089630E+000  0.285959983880662E+001 -0.114467856624657E+002 -0.709687651282622E+003
  0.305151188546896E+000  0.141814946551798E+004 -0.141079038483334E+002  0.708468739909587E+002 -0.535368278582963E+000  0.197910130876003E+001 -0.114467856624657E+002 -0.709668224411528E+003
  0.305151188546896E+000  0.141814412724527E+004  0.305561598484144E+001  0.712092485258738E+002 -0.581248282260058E+000  0.245720107337003E+001 -0.114467856624657E+002 -0.709665555275175E+003
  0.305151188546896E+000  0.141814018542086E+004 -0.100712791951390E+002  0.665595248445946E+002 -0.644722465704847E+000  0.275010436573723E+001 -0.114467856624657E+002 -0.709663584362971E+003
  0.305151188546896E+000  0.141811635484298E+004 -0.392947238391060E+001  0.710215258342613E+002 -0.540558761609120E+000  0.200053889218454E+001 -0.114467856624657E+002 -0.709651669074029E+003
  0.305151188546896E+000  0.141811437866211E+004  0.189598948753164E+002  0.668526162804871E+002 -0.585748295435409E+000  0.256486675217157E+001 -0.114467856624657E+002 -0.709650680983595E+003
  0.305151188546896E+000  0.141811237877048E+004  0.192466139579978E+002  0.678166907934935E+002 -0.654462198157458E+000  0.275721068529689E+001 -0.114467856624657E+002 -0.709649681037778E+003
  0.305151188546896E+000  0.141811056719079E+004  0.144081355348764E+002  0.703173226221421E+002 -0.638271219216084E+000  0.278063660348421E+001 -0.114467856624657E+002 -0.709648775247935E+003
  0.305151188546896E+000  0.141809422501554E+004 -0.318522774792483E+001  0.708068225599549E+002 -0.533187015646912E+000  0.200623043099113E+001 -0.114467856624657E+002 -0.709640604160311E+003
  0.305151188546896E+000  0.141806093879045E+004 -0.457518205400808E+001  0.703856640147354E+002 -0.549482802386494E+000  0.202723610661755E+001 -0.114467856624657E+002 -0.709623961047766E+003
  0.305151188546896E+000  0.141804183870177E+004  0.364414041629863E+001  0.681193056433817E+002 -0.636958611037351E+000  0.259637938719499E+001 -0.114467856624657E+002 -0.709614411003424E+003
  0.305151188546896E+000  0.141802550838579E+004  0.256530211664870E+001  0.685574959290249E+002 -0.608288348992044E+000  0.237831299214812E+001 -0.114467856624657E+002 -0.709606245845436E+003
  0.305151188546896E+000  0.141802493380647E+004  0.485317204056582E+001  0.718284522707001E+002 -0.561149140686350E+000  0.212960465134473E+001 -0.114467856624657E+002 -0.709605958555777E+003
  0.305151188546896E+000  0.141802143707222E+004  0.154350092362001E+002  0.674253044912598E+002 -0.548906173603049E+000  0.218507296944965E+001 -0.114467856624657E+002 -0.709604210188650E+003
  0.305151188546896E+000  0.141801772189395E+004 -0.412295608703542E+001  0.687987562505340E+002 -0.646113349805882E+000  0.266109710448995E+001 -0.114467856624657E+002 -0.709602352599517E+003
  0.305151188546896E+000  0.141801616586407E+004 -0.802125280707914E+001  0.708669889673767E+002 -0.549319978697045E+000  0.221876114850608E+001 -0.114467856624657E+002 -0.709601574584577E+003
  0.305151188546896E+000  0.141797999613884E+004 -0.110752704311071E+002  0.683909027208742E+002 -0.542442169407873E+000  0.208194599555828E+001 -0.114467856624657E+002 -0.709583489721961E+003
  0.305151188546896E+000  0.141795452036838E+004  0.192321587202339E+002  0.699022664703118E+002 -0.604212770824895E+000  0.233627952955768E+001 -0.114467856624657E+002 -0.709570751836729E+003
  0.305151188546896E+000  0.141792161232490E+004  0.181985035439932E+001  0.678707658983261E+002 -0.551341160466633E+000  0.226655883303845E+001 -0.114467856624657E+002 -0.709554297814992E+003
  0.305151188546896E+000  0.141791779082008E+004 -0.104542838957131E+002  0.717117418538073E+002 -0.561026222593094E+000  0.219552202074450E+001 -0.114467856624657E+002 -0.709552387062582E+003
  0.305151188546896E+000  0.141790704438112E+004 -0.615006643072325E+001  0.682325274983098E+002 -0.635446963587086E+000  0.281831514270343E+001 -0.114467856624657E+002 -0.709547013843100E+003
  0.305151188546896E+000  0.141789688669096E+004 -0.111982056233115E+002  0.704392609292741E+002 -0.615979755717212E+000  0.265914192353744E+001 -0.114467856624657E+002 -0.709541934998018E+003
  0.305151188546896E+000  0.141783971837397E+004  0.158907541420639E+002  0.706806522134661E+002 -0.598978113683399E+000  0.255186540716353E+001 -0.114467856624657E+002 -0.709513350839526E+003
  0.305151188546896E+000  0.141778325646315E+004 -0.331872643642273E+001  0.667324362138375E+002 -0.608284454956813E+000  0.252901899593289E+001 -0.114467856624657E+002 -0.709485119884114E+003
  0.305151188546896E+000  0.141774990758718E+004  0.592785914398362E+000  0.702060867252739E+002 -0.551745630618353E+000  0.221636620547427E+001 -0.114467856624657E+002 -0.709468445446132E+003
  0.305151188546896E+000  0.141773643361234E+004 -0.151355398103662E+002  0.676127431451409E+002 -0.589888995174657E+000  0.255182335005527E+001 -0.114467856624657E+002 -0.709461708458710E+003
  0.305151188546896E+000  0.141771837069670E+004 -0.186952006972455E+002  0.686343016993587E+002 -0.609272834472409E+000  0.266761841762541E+001 -0.114467856624657E+002 -0.709452677000889E+003
  0.305151188546896E+000  0.141771806734923E+004 -0.994460399380770E+001  0.703842093460713E+002 -0.631570490383728E+000  0.263192551827145E+001 -0.114467856624657E+002 -0.709452525327154E+003
  0.305151188546896E+000  0.141771276969284E+004 -0.826507380065202E+001  0.697068265278450E+002 -0.579203067954684E+000  0.245778701365071E+001 -0.114467856624657E+002 -0.709449876498959E+003
  0.305151188546896E+000  0.141764762299870E+004 -0.632083991315253E+001  0.674653622469045E+002 -0.607631077727090E+000  0.248326758967747E+001 -0.114467856624657E+002 -0.709417303151891E+003
  0.305151188546896E+000  0.141763274946700E+004 -0.508762330075140E+001  0.697731763847765E+002 -0.634097347161581E+000  0.265649441444036E+001 -0.114467856624657E+002 -0.709409866386042E+003
  0.305151188546896E+000  0.141762623720116E+004 -0.191819453774115E+002  0.708349143192943E+002 -0.567607480667887E+000  0.220835199547147E+001 -0.114467856624657E+002 -0.709406610253119E+003
  0.305151188546896E+000  0.141762104244497E+004  0.613418775274250E+001  0.686252391262278E+002 -0.634624349462145E+000  0.264637169561324E+001 -0.114467856624657E+002 -0.709404012875025E+003
  0.305151188546896E+000  0.141761103005802E+004 -0.170373329062622E+002  0.698416739034448E+002 -0.581204683177922E+000  0.244874499177730E+001 -0.114467856624657E+002 -0.709399006681551E+003
  0.305151188546896E+000  0.141757229898931E+004 -0.165804515127259E+002  0.691990439116512E+002 -0.629425943298120E+000  0.259909068739794E+001 -0.114467856624657E+002 -0.709379641147194E+003
  0.305151188546896E+000  0.141752572260149E+004  0.454666933947753E+001  0.682945515126914E+002 -0.584097414224157E+000  0.232278305956506E+001 -0.114467856624657E+002 -0.709356352953283E+003
  0.305151188546896E+000  0.141751501153950E+004 -0.179225542507275E+002  0.700955584619610E+002 -0.562688977201590E+000  0.222469908530396E+001 -0.114467856624657E+002 -0.709350997422289E+003
  0.305151188546896E+000  0.141749393618784E+004 -0.190686341414994E+002  0.678206251665141E+002 -0.605428196266251E+000  0.259774585013449E+001 -0.114467856624657E+002 -0.709340459746461E+003
  0.305151188546896E+000  0.141749351067637E+004  0.417916920488332E+001  0.689241987140266E+002 -0.574570410161487E+000  0.239740257741734E+001 -0.114467856624657E+002 -0.709340246990725E+003
  0.305151188546896E+000  0.141742942089487E+004 -0.607167216036329E+001  0.683708445914876E+002 -0.605099859645366E+000  0.246271560542547E+001 -0.114467856624657E+002 -0.709308202099975E+003
  0.305151188546896E+000  0.141791804974742E+004 -0.123844169334415E+002  0.699222881837325E+002 -0.582406409286249E+000  0.232040980779361E+001 -0.114467856624657E+002 -0.709282140004097E+003
