  0.253509511245717E+000  0.148349862303999E+004 -0.192877989805244E+002  0.721884338134309E+002 -0.432610844902156E+000  0.896826807386509E+000 -0.114467856624657E+002 -0.742431383329159E+003
  0.253509511245717E+000  0.148419467251755E+004 -0.193306129623046E+002  0.709599302437605E+002 -0.700515195363598E+000  0.347877757170297E+001 -0.114467856624657E+002 -0.742779408067939E+003
  0.253509511245717E+000  0.147783476213392E+004 -0.192280114502309E+002  0.747720242082104E+002 -0.608012281700098E+000  0.198343484046774E+001 -0.114467856624657E+002 -0.739599452876124E+003
  0.253509511245717E+000  0.148454072256527E+004 -0.192994759695513E+002  0.717615801977624E+002 -0.432020138450522E+000  0.794891903899231E+000 -0.114467856624657E+002 -0.742952433091801E+003
  0.253509511245717E+000  0.148596768832011E+004 -0.192747587479554E+002  0.717346481818714E+002 -0.393323132846155E+000  0.820203716680283E+000 -0.114467856624657E+002 -0.743665915969223E+003
  0.253509511245717E+000  0.147797749271761E+004 -0.191864983285129E+002  0.760964542033922E+002 -0.671273182640067E+000  0.284141309688915E+001 -0.114467856624657E+002 -0.739670818167973E+003
  0.253509511245717E+000  0.148217256206818E+004 -0.192319010377652E+002  0.732937472845615E+002 -0.456618501287514E+000  0.217407503885237E+001 -0.114467856624657E+002 -0.741768352843256E+003
  0.253509511245717E+000  0.147418873079726E+004 -0.192325188060832E+002  0.735913343713177E+002 -0.561714736855096E+000  0.242460461921608E+001 -0.114467856624657E+002 -0.737776437207796E+003
  0.253509511245717E+000  0.147819281514573E+004 -0.191704992295780E+002  0.758729720248915E+002 -0.522942901189274E+000  0.210416197206134E+001 -0.114467856624657E+002 -0.739778479382032E+003
  0.253509511245717E+000  0.148166630896752E+004 -0.192173182311244E+002  0.753581901631977E+002 -0.658968589564697E+000  0.252529008699853E+001 -0.114467856624657E+002 -0.741515226292928E+003
  0.253509511245717E+000  0.147433217478447E+004 -0.192653671435414E+002  0.726146677698675E+002 -0.596477036147219E+000  0.279411397434155E+001 -0.114467856624657E+002 -0.737848159201403E+003
  0.253509511245717E+000  0.148159073957834E+004 -0.192258679547839E+002  0.751329650622137E+002 -0.778861929250923E+000  0.311291060224107E+001 -0.114467856624657E+002 -0.741477441598337E+003
  0.253509511245717E+000  0.147434936460745E+004 -0.192587289048147E+002  0.728109329254223E+002 -0.448538783372615E+000  0.110752970022411E+001 -0.114467856624657E+002 -0.737856754112892E+003
  0.253509511245717E+000  0.148125616294252E+004 -0.192821963539522E+002  0.718444043150566E+002 -0.584579712539488E+000  0.253523237722177E+001 -0.114467856624657E+002 -0.741310153280427E+003
  0.253509511245717E+000  0.148121392774849E+004 -0.192694445152840E+002  0.723589922715765E+002 -0.375824613552741E+000  0.104675569619596E+001 -0.114467856624657E+002 -0.741289035683410E+003
  0.253509511245717E+000  0.147876720915606E+004 -0.192261877005091E+002  0.740828772655666E+002 -0.466529045481842E+000  0.100470287923479E+001 -0.114467856624657E+002 -0.740065676387198E+003
  0.253509511245717E+000  0.148066061512415E+004 -0.192599675699418E+002  0.734965038778248E+002 -0.764094156107782E+000  0.333403820437539E+001 -0.114467856624657E+002 -0.741012379371242E+003
  0.253509511245717E+000  0.148064527405109E+004 -0.192234768518650E+002  0.739933283935637E+002 -0.559491244908199E+000  0.278455945745495E+001 -0.114467856624657E+002 -0.741004708834709E+003
  0.253509511245717E+000  0.147882671811524E+004 -0.192348039779274E+002  0.743770370527281E+002 -0.748651664718204E+000  0.318783549291378E+001 -0.114467856624657E+002 -0.740095430866786E+003
  0.253509511245717E+000  0.147441403476528E+004 -0.192378171825083E+002  0.736710713572274E+002 -0.605737284155853E+000  0.237404508473231E+001 -0.114467856624657E+002 -0.737889089191804E+003
  0.253509511245717E+000  0.147443205476763E+004 -0.192300615413119E+002  0.740674565723161E+002 -0.508060365597264E+000  0.139208143349199E+001 -0.114467856624657E+002 -0.737898099192981E+003
  0.253509511245717E+000  0.147891971157517E+004 -0.192759276512177E+002  0.717567259714271E+002 -0.460396251169050E+000  0.202117300251589E+001 -0.114467856624657E+002 -0.740141927596753E+003
  0.253509511245717E+000  0.147913910498538E+004 -0.191966038427993E+002  0.755458273801198E+002 -0.545472487476221E+000  0.156351617985478E+001 -0.114467856624657E+002 -0.740251624301858E+003
  0.253509511245717E+000  0.148007831870946E+004 -0.193038897479244E+002  0.715138425427011E+002 -0.441053630002929E+000  0.122695982806275E+001 -0.114467856624657E+002 -0.740721231163897E+003
  0.253509511245717E+000  0.147940549522912E+004 -0.193019661874046E+002  0.711843618938313E+002 -0.485405585011254E+000  0.153061086718351E+001 -0.114467856624657E+002 -0.740384819423726E+003
  0.253509511245717E+000  0.147949598466960E+004 -0.192528645578595E+002  0.736616526496547E+002 -0.740928278920953E+000  0.315513098056709E+001 -0.114467856624657E+002 -0.740430064143965E+003
  0.253509511245717E+000  0.147959538724211E+004 -0.192033981353905E+002  0.745582011922328E+002 -0.485965244039831E+000  0.217630549549470E+001 -0.114467856624657E+002 -0.740479765430220E+003
  0.253509511245717E+000  0.147748485779405E+004 -0.193186938198197E+002  0.707210862911907E+002 -0.452353455935440E+000  0.157924968873490E+001 -0.114467856624657E+002 -0.739424500706189E+003
  0.253509511245717E+000  0.147742131616187E+004 -0.192773175386468E+002  0.719279896663396E+002 -0.392299371376083E+000  0.805321496466983E+000 -0.114467856624657E+002 -0.739392729890102E+003
  0.253509511245717E+000  0.147739861327591E+004 -0.193283397917810E+002  0.709686521457717E+002 -0.668129798166084E+000  0.286179987232248E+001 -0.114467856624657E+002 -0.739381378447120E+003
  0.253509511245717E+000  0.147730692084013E+004 -0.192373570012205E+002  0.731374967324756E+002 -0.367489794259080E+000  0.679504820816367E+000 -0.114467856624657E+002 -0.739335532229229E+003
  0.253509511245717E+000  0.147725210795061E+004 -0.192836564588586E+002  0.729106980002335E+002 -0.762456310190595E+000  0.323661170504453E+001 -0.114467856624657E+002 -0.739308125784472E+003
  0.253509511245717E+000  0.147723958272002E+004 -0.192165910374693E+002  0.741379429884674E+002 -0.535431062973827E+000  0.251028560793589E+001 -0.114467856624657E+002 -0.739301863169176E+003
  0.253509511245717E+000  0.147714266422790E+004 -0.192036560054060E+002  0.755831536719877E+002 -0.671460967568029E+000  0.243967637256677E+001 -0.114467856624657E+002 -0.739253403923117E+003
  0.253509511245717E+000  0.147707233206929E+004 -0.192229703205026E+002  0.737381020128991E+002 -0.358291530250874E+000  0.651873842890696E+000 -0.114467856624657E+002 -0.739218237843809E+003
  0.253509511245717E+000  0.147702471987257E+004 -0.192898933550964E+002  0.718813829846327E+002 -0.605167250532964E+000  0.238866679070189E+001 -0.114467856624657E+002 -0.739194431745450E+003
  0.253509511245717E+000  0.147701143419722E+004 -0.193198861167271E+002  0.711840615449977E+002 -0.581412137670732E+000  0.251552201693485E+001 -0.114467856624657E+002 -0.739187788907774E+003
  0.253509511245717E+000  0.147445788942883E+004 -0.192773750399668E+002  0.729875393147080E+002 -0.610100278075904E+000  0.230071771512417E+001 -0.114467856624657E+002 -0.737911016523581E+003
  0.253509511245717E+000  0.147696538681402E+004 -0.192749918902423E+002  0.729439275805070E+002 -0.742580256296565E+000  0.328988727375895E+001 -0.114467856624657E+002 -0.739164765216174E+003
  0.253509511245717E+000  0.147692987796424E+004 -0.192615285981408E+002  0.721967911047802E+002 -0.393196171197040E+000  0.138880517620447E+001 -0.114467856624657E+002 -0.739147010791286E+003
  0.253509511245717E+000  0.147683791166652E+004 -0.192781952573970E+002  0.720070749819558E+002 -0.569674907208531E+000  0.264143966694792E+001 -0.114467856624657E+002 -0.739101027642427E+003
  0.253509511245717E+000  0.147671688857973E+004 -0.192980050520685E+002  0.721552642034547E+002 -0.704858497627832E+000  0.333707442769809E+001 -0.114467856624657E+002 -0.739040516099031E+003
  0.253509511245717E+000  0.147668109322461E+004 -0.192890260445405E+002  0.719441400412364E+002 -0.628703007173421E+000  0.304379570284814E+001 -0.114467856624657E+002 -0.739022618421471E+003
  0.253509511245717E+000  0.147668017681762E+004 -0.193073937926587E+002  0.713792776697054E+002 -0.497515858367429E+000  0.191545065033918E+001 -0.114467856624657E+002 -0.739022160217975E+003
  0.253509511245717E+000  0.147449607203023E+004 -0.191976768014659E+002  0.747920198522127E+002 -0.457676331384987E+000  0.140017374918292E+001 -0.114467856624657E+002 -0.737930107824280E+003
  0.253509511245717E+000  0.147653774587561E+004 -0.192039149793134E+002  0.746766579486174E+002 -0.506763387409686E+000  0.155253199461352E+001 -0.114467856624657E+002 -0.738950944746970E+003
  0.253509511245717E+000  0.147652081628527E+004 -0.193120019266697E+002  0.714945923107322E+002 -0.559045004138429E+000  0.179022602334456E+001 -0.114467856624657E+002 -0.738942479951800E+003
  0.253509511245717E+000  0.147460789717408E+004 -0.192530497629161E+002  0.726841559118790E+002 -0.455198608604855E+000  0.187888525898905E+001 -0.114467856624657E+002 -0.737986020396205E+003
  0.253509511245717E+000  0.147639780003172E+004 -0.192478190382189E+002  0.737165899591097E+002 -0.528949244606729E+000  0.191592616047709E+001 -0.114467856624657E+002 -0.738880971825026E+003
  0.253509511245717E+000  0.147461393460110E+004 -0.191863656106993E+002  0.757412902335842E+002 -0.563419921281865E+000  0.204697377263371E+001 -0.114467856624657E+002 -0.737989039109715E+003
  0.253509511245717E+000  0.147631867421547E+004 -0.191906572866930E+002  0.759450277839632E+002 -0.673661566351770E+000  0.278217235475078E+001 -0.114467856624657E+002 -0.738841408916900E+003
  0.253509511245717E+000  0.147630043211416E+004 -0.193263566823705E+002  0.708508488709224E+002 -0.608843671218253E+000  0.245131324770181E+001 -0.114467856624657E+002 -0.738832287866245E+003
  0.253509511245717E+000  0.147624819153733E+004 -0.192826327328609E+002  0.725835163116598E+002 -0.724223844108627E+000  0.331593723129096E+001 -0.114467856624657E+002 -0.738806167577833E+003
  0.253509511245717E+000  0.147463516747844E+004 -0.192835061993453E+002  0.729721664028652E+002 -0.696712630801404E+000  0.289838004981897E+001 -0.114467856624657E+002 -0.737999655548385E+003
  0.253509511245717E+000  0.147468201885201E+004 -0.192143729994478E+002  0.742804435951070E+002 -0.536004564517787E+000  0.191929820038769E+001 -0.114467856624657E+002 -0.738023081235172E+003
  0.253509511245717E+000  0.147475900989800E+004 -0.192831902905340E+002  0.720247854759318E+002 -0.470461776252523E+000  0.128549092265469E+001 -0.114467856624657E+002 -0.738061576758168E+003
  0.253509511245717E+000  0.147607399287683E+004 -0.192347782622685E+002  0.739781241634959E+002 -0.683739954283651E+000  0.309534388695776E+001 -0.114467856624657E+002 -0.738719068247583E+003
  0.253509511245717E+000  0.147476799290581E+004 -0.192705424749882E+002  0.728035406521518E+002 -0.557557002532776E+000  0.239256305731798E+001 -0.114467856624657E+002 -0.738066068262070E+003
  0.253509511245717E+000  0.147477387428128E+004 -0.192329706174185E+002  0.744242849624727E+002 -0.700131774234424E+000  0.276271763440876E+001 -0.114467856624657E+002 -0.738069008949806E+003
  0.253509511245717E+000  0.147478690157711E+004 -0.192106821735610E+002  0.747576878511796E+002 -0.484618033458607E+000  0.143910683251016E+001 -0.114467856624657E+002 -0.738075522597721E+003
  0.253509511245717E+000  0.147584796521287E+004 -0.193052081534807E+002  0.718697004495514E+002 -0.569267749814871E+000  0.189290375528284E+001 -0.114467856624657E+002 -0.738606054415600E+003
  0.253509511245717E+000  0.147580519180139E+004 -0.192875584716051E+002  0.728416577630679E+002 -0.697720863456455E+000  0.296185067586146E+001 -0.114467856624657E+002 -0.738584667709861E+003
  0.253509511245717E+000  0.147578038523851E+004 -0.192325165132314E+002  0.745132615870059E+002 -0.588520533976626E+000  0.196400697950073E+001 -0.114467856624657E+002 -0.738572264428420E+003
  0.253509511245717E+000  0.147571644611072E+004 -0.192284895327732E+002  0.745684728574110E+002 -0.622478127551194E+000  0.264224700667205E+001 -0.114467856624657E+002 -0.738540294864526E+003
  0.253509511245717E+000  0.147569191335156E+004 -0.192837962075680E+002  0.723491676807727E+002 -0.685408174706319E+000  0.321044454570058E+001 -0.114467856624657E+002 -0.738528028484944E+003
  0.253509511245717E+000  0.147560974404402E+004 -0.193085706301914E+002  0.714196746510669E+002 -0.632710834131734E+000  0.263255218991726E+001 -0.114467856624657E+002 -0.738486943831178E+003
  0.253509511245717E+000  0.147553001402716E+004 -0.192683874863047E+002  0.736058028728764E+002 -0.712519953042366E+000  0.283550527975393E+001 -0.114467856624657E+002 -0.738447078822747E+003
  0.253509511245717E+000  0.147552769220118E+004 -0.192108638715728E+002  0.743326510770777E+002 -0.450546632408260E+000  0.170229053956988E+001 -0.114467856624657E+002 -0.738445917909757E+003
  0.253509511245717E+000  0.147551338471240E+004 -0.192686941337366E+002  0.731688857049084E+002 -0.623725686360775E+000  0.271982785713997E+001 -0.114467856624657E+002 -0.738438764165368E+003
  0.253509511245717E+000  0.147550081439655E+004 -0.192955891275722E+002  0.720144718824332E+002 -0.598447506377044E+000  0.270298585455706E+001 -0.114467856624657E+002 -0.738432479007442E+003
  0.253509511245717E+000  0.147549011441782E+004 -0.192627087244134E+002  0.729414564344631E+002 -0.547061184287472E+000  0.165296959873931E+001 -0.114467856624657E+002 -0.738427129018076E+003
  0.253509511245717E+000  0.147521608364971E+004 -0.192920078907542E+002  0.722942803610157E+002 -0.656195982697305E+000  0.244272478670585E+001 -0.114467856624657E+002 -0.738290113634022E+003
  0.253509511245717E+000  0.147518037476170E+004 -0.193154969596034E+002  0.715268050137526E+002 -0.605870568115013E+000  0.244699135900139E+001 -0.114467856624657E+002 -0.738272259190016E+003
  0.253509511245717E+000  0.147515429669389E+004 -0.192699705333256E+002  0.730922350136172E+002 -0.626398158222827E+000  0.210705090912534E+001 -0.114467856624657E+002 -0.738259220156113E+003
  0.253509511245717E+000  0.147511901389990E+004 -0.192191134797876E+002  0.742588424915248E+002 -0.477286689883278E+000  0.181926027326322E+001 -0.114467856624657E+002 -0.738241578759117E+003
  0.253509511245717E+000  0.147511031088376E+004 -0.193105260622836E+002  0.711302021228744E+002 -0.497400373093069E+000  0.162974578467325E+001 -0.114467856624657E+002 -0.738237227251045E+003
  0.253509511245717E+000  0.147504241916386E+004 -0.192395001866740E+002  0.744072675348206E+002 -0.678417880217910E+000  0.287360251260912E+001 -0.114467856624657E+002 -0.738203281391097E+003
  0.253509511245717E+000  0.147496980922178E+004 -0.192405458009683E+002  0.735857422036672E+002 -0.565577814740249E+000  0.264192434348126E+001 -0.114467856624657E+002 -0.738166976420054E+003
  0.253509511245717E+000  0.147487851267704E+004 -0.192386001978453E+002  0.731918393948458E+002 -0.409801716121386E+000  0.143337128467948E+001 -0.114467856624657E+002 -0.738121328147685E+003
  0.253509511245717E+000  0.147495294646613E+004 -0.192878932880546E+002  0.721135319638964E+002 -0.569835149579360E+000  0.190091458940667E+001 -0.114467856624657E+002 -0.738158545042231E+003
  0.253509511245717E+000  0.147494604857659E+004 -0.192843804343517E+002  0.718556328142664E+002 -0.563202127073103E+000  0.239430198349096E+001 -0.114467856624657E+002 -0.738155096097460E+003
  0.253509511245717E+000  0.147494296155461E+004 -0.192579192036395E+002  0.734037559813705E+002 -0.713894204905552E+000  0.331081641475068E+001 -0.114467856624657E+002 -0.738153552586469E+003
  0.253509511245717E+000  0.147418679974272E+004 -0.192721674273300E+002  0.727690557846110E+002 -0.684620279661162E+000  0.305980698151168E+001 -0.114467856624657E+002 -0.737775471680528E+003
  0.253509511245717E+000  0.147415899070046E+004 -0.192644798273590E+002  0.735660049867328E+002 -0.740483152825517E+000  0.311061851424830E+001 -0.114467856624657E+002 -0.737761567159398E+003
  0.253509511245717E+000  0.147412032719694E+004 -0.192555939111458E+002  0.726421671932069E+002 -0.493051562365254E+000  0.212656416711405E+001 -0.114467856624657E+002 -0.737742235407636E+003
  0.253509511245717E+000  0.147407786578661E+004 -0.193036712849313E+002  0.717228640827306E+002 -0.663247878540554E+000  0.298436551765986E+001 -0.114467856624657E+002 -0.737721004702470E+003
  0.253509511245717E+000  0.147400224530074E+004 -0.192876629911017E+002  0.716681562396979E+002 -0.446539112387864E+000  0.161880551696151E+001 -0.114467856624657E+002 -0.737683194459538E+003
  0.253509511245717E+000  0.147398632974717E+004 -0.192626382257874E+002  0.736440922254640E+002 -0.733907794415632E+000  0.319846520007971E+001 -0.114467856624657E+002 -0.737675236682752E+003
  0.253509511245717E+000  0.147388470333419E+004 -0.192937860748645E+002  0.719043758849575E+002 -0.635347577772839E+000  0.293772848164085E+001 -0.114467856624657E+002 -0.737624423476262E+003
  0.253509511245717E+000  0.147385264702308E+004 -0.192000002965305E+002  0.754626916624473E+002 -0.597591120918175E+000  0.215047352307782E+001 -0.114467856624657E+002 -0.737608395320707E+003
  0.253509511245717E+000  0.147381901378673E+004 -0.192869491916812E+002  0.724241260264259E+002 -0.676222461495772E+000  0.272285599141384E+001 -0.114467856624657E+002 -0.737591578702533E+003
  0.253509511245717E+000  0.147380664069340E+004 -0.192372082417397E+002  0.740851085256633E+002 -0.676376105287337E+000  0.271108197235099E+001 -0.114467856624657E+002 -0.737585392155864E+003
  0.253509511245717E+000  0.147368589834448E+004 -0.192595576842854E+002  0.728659845352326E+002 -0.438740811592233E+000  0.125083650806158E+001 -0.114467856624657E+002 -0.737525020981405E+003
  0.253509511245717E+000  0.147363839656548E+004 -0.192347087994128E+002  0.734687419849184E+002 -0.416439283613790E+000  0.104906124967212E+001 -0.114467856624657E+002 -0.737501270091906E+003
  0.253509511245717E+000  0.147363003137200E+004 -0.192310859106566E+002  0.736910705340253E+002 -0.527755197490086E+000  0.185646812685438E+001 -0.114467856624657E+002 -0.737497087495164E+003
  0.253509511245717E+000  0.147361164293733E+004 -0.192753515392750E+002  0.721094778525348E+002 -0.494470068952078E+000  0.211952061307429E+001 -0.114467856624657E+002 -0.737487893277831E+003
  0.253509511245717E+000  0.147359739033104E+004 -0.192645340240011E+002  0.724470613068794E+002 -0.414339102898904E+000  0.109221381863274E+001 -0.114467856624657E+002 -0.737480766974684E+003
  0.253509511245717E+000  0.147359300482191E+004 -0.192349202417279E+002  0.739677735032696E+002 -0.539667546170413E+000  0.161013115786907E+001 -0.114467856624657E+002 -0.737478574220120E+003
  0.253509511245717E+000  0.147358821749419E+004 -0.193094684018477E+002  0.716115814919629E+002 -0.654943858959646E+000  0.271448801249120E+001 -0.114467856624657E+002 -0.737476180556263E+003
  0.253509511245717E+000  0.147356178983481E+004 -0.192939686761610E+002  0.719102175527476E+002 -0.602883739493805E+000  0.228648132207709E+001 -0.114467856624657E+002 -0.737462966726573E+003
  0.253509511245717E+000  0.147352627214323E+004 -0.192095952036455E+002  0.751797601657208E+002 -0.632760216856309E+000  0.261307054570726E+001 -0.114467856624657E+002 -0.737445207880781E+003
  0.253509511245717E+000  0.147350284978163E+004 -0.192109445495587E+002  0.752213597780452E+002 -0.628748605327089E+000  0.234847495050578E+001 -0.114467856624657E+002 -0.737433496699981E+003
  0.253509511245717E+000  0.147347698837712E+004 -0.192642318774550E+002  0.723974205994087E+002 -0.420973656682778E+000  0.141171076758369E+001 -0.114467856624657E+002 -0.737420565997725E+003
  0.253509511245717E+000  0.147345237407137E+004 -0.192965736391455E+002  0.722053083895979E+002 -0.697184739360905E+000  0.295645664112712E+001 -0.114467856624657E+002 -0.737408258844853E+003
  0.253509511245717E+000  0.147340081946867E+004 -0.192446128359159E+002  0.741070550605017E+002 -0.618896085376391E+000  0.214494741601296E+001 -0.114467856624657E+002 -0.737382481543503E+003
  0.253509511245717E+000  0.147338610337252E+004 -0.193023526375151E+002  0.718656443656918E+002 -0.580735187557819E+000  0.201366051792721E+001 -0.114467856624657E+002 -0.737375123495425E+003
  0.253509511245717E+000  0.147336484127980E+004 -0.193036095899343E+002  0.715125380087212E+002 -0.506651881255377E+000  0.180882240708119E+001 -0.114467856624657E+002 -0.737364492449068E+003
  0.253509511245717E+000  0.147334609880328E+004 -0.192702987004557E+002  0.730945276480593E+002 -0.705626130589587E+000  0.323511932661876E+001 -0.114467856624657E+002 -0.737355121210804E+003
  0.253509511245717E+000  0.147332709626801E+004 -0.192373241372553E+002  0.736021672829942E+002 -0.492375883154650E+000  0.141326809520450E+001 -0.114467856624657E+002 -0.737345619943172E+003
  0.253509511245717E+000  0.147329454896982E+004 -0.192386522878313E+002  0.737748462036928E+002 -0.575672574357338E+000  0.194713667238957E+001 -0.114467856624657E+002 -0.737329346294074E+003
  0.253509511245717E+000  0.147316241947805E+004 -0.192306068403623E+002  0.740515169341570E+002 -0.488921212578181E+000  0.161841644715458E+001 -0.114467856624657E+002 -0.737263281548191E+003
  0.253509511245717E+000  0.147315404851707E+004 -0.192827524902296E+002  0.729040152724046E+002 -0.717861191938572E+000  0.301231813386973E+001 -0.114467856624657E+002 -0.737259096067699E+003
  0.253509511245717E+000  0.147313716056903E+004 -0.192749063896760E+002  0.728041368309837E+002 -0.551598145742477E+000  0.201505824440509E+001 -0.114467856624657E+002 -0.737250652093682E+003
  0.253509511245717E+000  0.147312498814122E+004 -0.192310099911237E+002  0.739582552845138E+002 -0.512842873774552E+000  0.150022138197625E+001 -0.114467856624657E+002 -0.737244565879778E+003
  0.253509511245717E+000  0.147311727505771E+004 -0.192673394236023E+002  0.727329545887530E+002 -0.615122371239272E+000  0.288963092647215E+001 -0.114467856624657E+002 -0.737240709338020E+003
  0.253509511245717E+000  0.147311594961636E+004 -0.192078474996605E+002  0.745150427028952E+002 -0.544140131627258E+000  0.219491532598738E+001 -0.114467856624657E+002 -0.737240046617347E+003
  0.253509511245717E+000  0.147311577121948E+004 -0.192226520500908E+002  0.747352723735597E+002 -0.610560221585696E+000  0.243158732188804E+001 -0.114467856624657E+002 -0.737239957418904E+003
  0.253509511245717E+000  0.147309065461396E+004 -0.192798746515790E+002  0.727997309046575E+002 -0.705121039943197E+000  0.318884838168478E+001 -0.114467856624657E+002 -0.737227399116145E+003
  0.253509511245717E+000  0.147303561152980E+004 -0.192255423137531E+002  0.740845724460857E+002 -0.557080735036897E+000  0.248086732565920E+001 -0.114467856624657E+002 -0.737199877574068E+003
  0.253509511245717E+000  0.147303171862363E+004 -0.192742495415103E+002  0.725767480069344E+002 -0.651034445018909E+000  0.287637598446175E+001 -0.114467856624657E+002 -0.737197931120980E+003
  0.253509511245717E+000  0.147302634757189E+004 -0.192352175604066E+002  0.735437037016535E+002 -0.425062534326357E+000  0.121490579870514E+001 -0.114467856624657E+002 -0.737195245595113E+003
  0.253509511245717E+000  0.147299757511968E+004 -0.192716424054261E+002  0.730239739272200E+002 -0.578657400705827E+000  0.191546254721330E+001 -0.114467856624657E+002 -0.737180859369009E+003
  0.253509511245717E+000  0.147297753000970E+004 -0.192478505049626E+002  0.728890384383599E+002 -0.478062144982122E+000  0.188572787500625E+001 -0.114467856624657E+002 -0.737170836814015E+003
  0.253509511245717E+000  0.147294755272341E+004 -0.192988500094858E+002  0.718413373902646E+002 -0.560516748519120E+000  0.190359317003792E+001 -0.114467856624657E+002 -0.737155848170873E+003
  0.253509511245717E+000  0.147284609764524E+004 -0.192812342161412E+002  0.726699967898642E+002 -0.595754127710878E+000  0.201549449635977E+001 -0.114467856624657E+002 -0.737105120631787E+003
  0.253509511245717E+000  0.147275059222186E+004 -0.192772266950192E+002  0.728728403709717E+002 -0.628163311056120E+000  0.265622886541922E+001 -0.114467856624657E+002 -0.737057367920095E+003
  0.253509511245717E+000  0.147274876845450E+004 -0.192720789657270E+002  0.732365086409660E+002 -0.654288385712343E+000  0.259871348627439E+001 -0.114467856624657E+002 -0.737056456036414E+003
  0.253509511245717E+000  0.147274691835328E+004 -0.192311676730061E+002  0.742564889961806E+002 -0.578890790203952E+000  0.188045577949978E+001 -0.114467856624657E+002 -0.737055530985806E+003
  0.253509511245717E+000  0.147273942293263E+004 -0.193112757103513E+002  0.716303754960903E+002 -0.637865890340809E+000  0.262833392365118E+001 -0.114467856624657E+002 -0.737051783275481E+003
  0.253509511245717E+000  0.147273569069002E+004 -0.192234882772661E+002  0.742643868210367E+002 -0.612671047551649E+000  0.278164187675499E+001 -0.114467856624657E+002 -0.737049917154177E+003
  0.253509511245717E+000  0.147273423791308E+004 -0.192476593597776E+002  0.739953271111247E+002 -0.621843021267868E+000  0.237241625477889E+001 -0.114467856624657E+002 -0.737049190765708E+003
  0.253509511245717E+000  0.147273306592763E+004 -0.192964937500615E+002  0.717375857410042E+002 -0.598268988759612E+000  0.267721871307783E+001 -0.114467856624657E+002 -0.737048604772984E+003
  0.253509511245717E+000  0.147271284329507E+004 -0.193008092495273E+002  0.721601133312002E+002 -0.677628041771587E+000  0.280431207564290E+001 -0.114467856624657E+002 -0.737038493456702E+003
  0.253509511245717E+000  0.147270459226276E+004 -0.192957023251410E+002  0.718977705026878E+002 -0.521672384453781E+000  0.175230905852092E+001 -0.114467856624657E+002 -0.737034367940547E+003
  0.253509511245717E+000  0.147268677460659E+004 -0.192030262244519E+002  0.750729509862819E+002 -0.558749832117486E+000  0.220962723348732E+001 -0.114467856624657E+002 -0.737025459112460E+003
  0.253509511245717E+000  0.147264328268091E+004 -0.193026182562228E+002  0.716517709043122E+002 -0.619461603450174E+000  0.273838276604533E+001 -0.114467856624657E+002 -0.737003713149623E+003
  0.253509511245717E+000  0.147255441537386E+004 -0.191977356551825E+002  0.753944746737172E+002 -0.592467293866307E+000  0.222442454950611E+001 -0.114467856624657E+002 -0.736959279496096E+003
  0.253509511245717E+000  0.147251811250437E+004 -0.192441776983167E+002  0.731327483555501E+002 -0.422049612957216E+000  0.127532527662729E+001 -0.114467856624657E+002 -0.736941128061350E+003
  0.253509511245717E+000  0.147250336988320E+004 -0.192521009097829E+002  0.729934884434712E+002 -0.432746833624304E+000  0.120262256920280E+001 -0.114467856624657E+002 -0.736933756750766E+003
  0.253509511245717E+000  0.147250019886192E+004 -0.192322962396753E+002  0.734815945468063E+002 -0.431696913272811E+000  0.141869033260171E+001 -0.114467856624657E+002 -0.736932171240124E+003
  0.253509511245717E+000  0.147248996846413E+004 -0.192374444371361E+002  0.737550852116098E+002 -0.532349246809753E+000  0.222224259190652E+001 -0.114467856624657E+002 -0.736927056041229E+003
  0.253509511245717E+000  0.147247552962951E+004 -0.192171784894487E+002  0.746615645694509E+002 -0.532166601290468E+000  0.178765484148333E+001 -0.114467856624657E+002 -0.736919836623923E+003
  0.253509511245717E+000  0.147240281305853E+004 -0.192757882734628E+002  0.730850038833196E+002 -0.678227993243936E+000  0.286609465827921E+001 -0.114467856624657E+002 -0.736883478338431E+003
  0.253509511245717E+000  0.147236841478363E+004 -0.192491310427829E+002  0.731327590065288E+002 -0.485272485058055E+000  0.144872944873185E+001 -0.114467856624657E+002 -0.736866279200982E+003
  0.253509511245717E+000  0.147234494105480E+004 -0.192249103851162E+002  0.737658313557424E+002 -0.441205954050883E+000  0.144648271141914E+001 -0.114467856624657E+002 -0.736854542336565E+003
  0.253509511245717E+000  0.147234366342787E+004 -0.192921678398229E+002  0.721547275448195E+002 -0.614893157357755E+000  0.227338759829736E+001 -0.114467856624657E+002 -0.736853903523103E+003
  0.253509511245717E+000  0.147233688196927E+004 -0.192895646120295E+002  0.719163100911993E+002 -0.505781968714312E+000  0.194684887180256E+001 -0.114467856624657E+002 -0.736850512793801E+003
  0.253509511245717E+000  0.147233552528110E+004 -0.192636755724027E+002  0.724812633941333E+002 -0.460392541376174E+000  0.144772425665410E+001 -0.114467856624657E+002 -0.736849834449714E+003
  0.253509511245717E+000  0.147226810649086E+004 -0.192267094586377E+002  0.747418879422803E+002 -0.658079438248694E+000  0.255664649541924E+001 -0.114467856624657E+002 -0.736816125054599E+003
  0.253509511245717E+000  0.147222582055528E+004 -0.192562398234744E+002  0.730554997147821E+002 -0.495646864874795E+000  0.143528113487844E+001 -0.114467856624657E+002 -0.736794982086806E+003
  0.253509511245717E+000  0.147221605194406E+004 -0.192267747024821E+002  0.741415000117045E+002 -0.534135803871800E+000  0.218153346361630E+001 -0.114467856624657E+002 -0.736790097781195E+003
  0.253509511245717E+000  0.147220668591500E+004 -0.192266762407408E+002  0.737358291510562E+002 -0.507350027943653E+000  0.203200160560240E+001 -0.114467856624657E+002 -0.736785414766665E+003
  0.253509511245717E+000  0.147219195684721E+004 -0.192219703840466E+002  0.744614893284825E+002 -0.584930967380957E+000  0.201694097998627E+001 -0.114467856624657E+002 -0.736778050232769E+003
  0.253509511245717E+000  0.147218308933308E+004 -0.192102298016294E+002  0.745849647546545E+002 -0.483976529370252E+000  0.157271265360052E+001 -0.114467856624657E+002 -0.736773616475706E+003
  0.253509511245717E+000  0.147217001009070E+004 -0.192886311314541E+002  0.718751658228560E+002 -0.490476585680246E+000  0.158469964770688E+001 -0.114467856624657E+002 -0.736767076854518E+003
  0.253509511245717E+000  0.147215019490764E+004 -0.192497411900383E+002  0.736960493282042E+002 -0.688781090261062E+000  0.310552969089209E+001 -0.114467856624657E+002 -0.736757169262986E+003
  0.253509511245717E+000  0.147214798012715E+004 -0.192741463414849E+002  0.727506920918751E+002 -0.584630738287980E+000  0.248536951973028E+001 -0.114467856624657E+002 -0.736756061872743E+003
  0.253509511245717E+000  0.147214779069634E+004 -0.192206170520531E+002  0.740411803647291E+002 -0.458543106280715E+000  0.139149236737907E+001 -0.114467856624657E+002 -0.736755967157335E+003
  0.253509511245717E+000  0.147209312532409E+004 -0.192844632483668E+002  0.719038796404474E+002 -0.509204704630106E+000  0.209858805102367E+001 -0.114467856624657E+002 -0.736728634471212E+003
  0.253509511245717E+000  0.147208487278863E+004 -0.192093688220065E+002  0.746898986344733E+002 -0.582306431817087E+000  0.226831202830171E+001 -0.114467856624657E+002 -0.736724508203480E+003
  0.253509511245717E+000  0.147205332337823E+004 -0.192441191193199E+002  0.731532841898369E+002 -0.431406223949871E+000  0.134943659278090E+001 -0.114467856624657E+002 -0.736708733498282E+003
  0.253509511245717E+000  0.147203262782128E+004 -0.192552094359420E+002  0.730027993637184E+002 -0.461869072354636E+000  0.129828623991735E+001 -0.114467856624657E+002 -0.736698385719806E+003
  0.253509511245717E+000  0.147203201989156E+004 -0.192985566700777E+002  0.719432025981259E+002 -0.597015060122921E+000  0.218127096414905E+001 -0.114467856624657E+002 -0.736698081754944E+003
  0.253509511245717E+000  0.147202508101082E+004 -0.192428450435950E+002  0.739256908961171E+002 -0.681596332451755E+000  0.306784046550587E+001 -0.114467856624657E+002 -0.736694612314578E+003
  0.253509511245717E+000  0.147198930727232E+004 -0.192062664175782E+002  0.751597083840966E+002 -0.593514918095723E+000  0.220245623181842E+001 -0.114467856624657E+002 -0.736676725445326E+003
  0.253509511245717E+000  0.147198103424608E+004 -0.192242705508219E+002  0.741185788344949E+002 -0.481263203635785E+000  0.142033620248739E+001 -0.114467856624657E+002 -0.736672588932207E+003
  0.253509511245717E+000  0.147196474534151E+004 -0.192637301086518E+002  0.735139888823838E+002 -0.702483411922958E+000  0.285472377843822E+001 -0.114467856624657E+002 -0.736664444479922E+003
  0.253509511245717E+000  0.147192722923436E+004 -0.192489199167463E+002  0.734076905246166E+002 -0.634952939092947E+000  0.269905214954324E+001 -0.114467856624657E+002 -0.736645686426348E+003
  0.253509511245717E+000  0.147192544287716E+004 -0.192501064092761E+002  0.729968170142470E+002 -0.480464567523373E+000  0.192794889561190E+001 -0.114467856624657E+002 -0.736644793247747E+003
  0.253509511245717E+000  0.147190848734984E+004 -0.192618610219246E+002  0.732208748022734E+002 -0.633737695007402E+000  0.234813988441476E+001 -0.114467856624657E+002 -0.736636315484086E+003
  0.253509511245717E+000  0.147190525999049E+004 -0.192493043805760E+002  0.733931309931855E+002 -0.633113657888189E+000  0.267064614351013E+001 -0.114467856624657E+002 -0.736634701804413E+003
  0.253509511245717E+000  0.147189233975969E+004 -0.192644685618812E+002  0.728787287220223E+002 -0.626804122029602E+000  0.258299122570521E+001 -0.114467856624657E+002 -0.736628241689013E+003
  0.253509511245717E+000  0.147189037744613E+004 -0.192911901526064E+002  0.720195477418722E+002 -0.615434808448285E+000  0.248289636938840E+001 -0.114467856624657E+002 -0.736627260532232E+003
  0.253509511245717E+000  0.147186958021095E+004 -0.192077073308783E+002  0.745777630277331E+002 -0.513581729590470E+000  0.182180876923038E+001 -0.114467856624657E+002 -0.736616861914640E+003
  0.253509511245717E+000  0.147186430571848E+004 -0.192070960739209E+002  0.748094600703389E+002 -0.524938314023607E+000  0.174798215158584E+001 -0.114467856624657E+002 -0.736614224668405E+003
  0.253509511245717E+000  0.147185371859372E+004 -0.192155269285547E+002  0.746669838764802E+002 -0.535376340616500E+000  0.191890588574950E+001 -0.114467856624657E+002 -0.736608931106026E+003
  0.253509511245717E+000  0.147184251107493E+004 -0.192593685275427E+002  0.728626584416365E+002 -0.521289834990119E+000  0.170847486271657E+001 -0.114467856624657E+002 -0.736603327346631E+003
  0.253509511245717E+000  0.147183879419548E+004 -0.192546206330146E+002  0.737182282297478E+002 -0.622588714322406E+000  0.241818168750959E+001 -0.114467856624657E+002 -0.736601468906906E+003
  0.253509511245717E+000  0.147183822724071E+004 -0.192800967708659E+002  0.727336895955696E+002 -0.591913664204373E+000  0.221637696495451E+001 -0.114467856624657E+002 -0.736601185429520E+003
  0.253509511245717E+000  0.147182611439572E+004 -0.192442209460334E+002  0.731067714276209E+002 -0.461612729296121E+000  0.174210410949327E+001 -0.114467856624657E+002 -0.736595129007025E+003
  0.253509511245717E+000  0.147180987218860E+004 -0.192264470716884E+002  0.744133747378023E+002 -0.611180780093578E+000  0.218591378286312E+001 -0.114467856624657E+002 -0.736587007903464E+003
  0.253509511245717E+000  0.147173006755855E+004 -0.192441980756558E+002  0.738663387410147E+002 -0.603504976087776E+000  0.253986122397200E+001 -0.114467856624657E+002 -0.736547105588439E+003
  0.253509511245717E+000  0.147165881424938E+004 -0.192667065391049E+002  0.732008232749349E+002 -0.646390830287507E+000  0.281701682781071E+001 -0.114467856624657E+002 -0.736511478933855E+003
  0.253509511245717E+000  0.147161977249788E+004 -0.192230810895932E+002  0.738834055758514E+002 -0.484388006678804E+000  0.182882489563826E+001 -0.114467856624657E+002 -0.736491958058106E+003
  0.253509511245717E+000  0.147160705426291E+004 -0.192125354669206E+002  0.749027891173720E+002 -0.598250449781675E+000  0.215453491607803E+001 -0.114467856624657E+002 -0.736485598940623E+003
  0.253509511245717E+000  0.147160672405518E+004 -0.192468836773489E+002  0.733860088131795E+002 -0.474779974658049E+000  0.149810674974165E+001 -0.114467856624657E+002 -0.736485433836758E+003
  0.253509511245717E+000  0.147160160863211E+004 -0.192234705752377E+002  0.743724246710948E+002 -0.530064102712208E+000  0.192733818712257E+001 -0.114467856624657E+002 -0.736482876125220E+003
  0.253509511245717E+000  0.147157198995310E+004 -0.192894171403261E+002  0.723534595077399E+002 -0.609588957252778E+000  0.251182336356916E+001 -0.114467856624657E+002 -0.736468066785715E+003
  0.253509511245717E+000  0.147153822688796E+004 -0.192714787864611E+002  0.725675477353722E+002 -0.614458215167104E+000  0.271378990268276E+001 -0.114467856624657E+002 -0.736451185253145E+003
  0.253509511245717E+000  0.147152815026312E+004 -0.192051869378051E+002  0.748646810623295E+002 -0.537751992177380E+000  0.205113607041908E+001 -0.114467856624657E+002 -0.736446146940727E+003
  0.253509511245717E+000  0.147151290244323E+004 -0.192488021842899E+002  0.730261532985995E+002 -0.485638221268140E+000  0.194935879090462E+001 -0.114467856624657E+002 -0.736438523030782E+003
  0.253509511245717E+000  0.147144183590084E+004 -0.192306251904654E+002  0.740457668461185E+002 -0.545074516517595E+000  0.223167660177479E+001 -0.114467856624657E+002 -0.736402989759584E+003
  0.253509511245717E+000  0.147143756661310E+004 -0.192372150089601E+002  0.735724837444229E+002 -0.460688735379211E+000  0.151197036768661E+001 -0.114467856624657E+002 -0.736400855115716E+003
  0.253509511245717E+000  0.147140613259018E+004 -0.192626947022045E+002  0.727819746365537E+002 -0.490556172375797E+000  0.184503122735598E+001 -0.114467856624657E+002 -0.736385138104259E+003
  0.253509511245717E+000  0.147140590717908E+004 -0.192491626962737E+002  0.733704467026691E+002 -0.600154928071809E+000  0.230961019968849E+001 -0.114467856624657E+002 -0.736385025398708E+003
  0.253509511245717E+000  0.147138194391310E+004 -0.192736657055048E+002  0.730122598246592E+002 -0.646792381332415E+000  0.241721232119418E+001 -0.114467856624657E+002 -0.736373043765718E+003
  0.253509511245717E+000  0.147136864065343E+004 -0.193032659183386E+002  0.717935233242392E+002 -0.606457434304098E+000  0.243409795057319E+001 -0.114467856624657E+002 -0.736366392135883E+003
  0.253509511245717E+000  0.147136861612112E+004 -0.192290466674139E+002  0.742842751124441E+002 -0.617938478094227E+000  0.228718796289585E+001 -0.114467856624657E+002 -0.736366379869728E+003
  0.253509511245717E+000  0.147136288518421E+004 -0.192177907406368E+002  0.742654204305964E+002 -0.538653909632207E+000  0.223585026144491E+001 -0.114467856624657E+002 -0.736363514401272E+003
  0.253509511245717E+000  0.147132935073781E+004 -0.192301816005813E+002  0.739148903267821E+002 -0.481805745969489E+000  0.146005522472832E+001 -0.114467856624657E+002 -0.736346747178073E+003
  0.253509511245717E+000  0.147132420993008E+004 -0.192358359800934E+002  0.734294289137186E+002 -0.485089470553773E+000  0.187963601852961E+001 -0.114467856624657E+002 -0.736344176774204E+003
  0.253509511245717E+000  0.147131514554797E+004 -0.192292062111196E+002  0.742494560150933E+002 -0.536938206100416E+000  0.183699809550572E+001 -0.114467856624657E+002 -0.736339644583153E+003
  0.253509511245717E+000  0.147129154853825E+004 -0.192576950409134E+002  0.728337492943493E+002 -0.536862841966117E+000  0.233295828672629E+001 -0.114467856624657E+002 -0.736327846078292E+003
  0.253509511245717E+000  0.147127102249158E+004 -0.192725248929901E+002  0.724899456996189E+002 -0.498387547045927E+000  0.186063596345855E+001 -0.114467856624657E+002 -0.736317583054958E+003
  0.253509511245717E+000  0.147126874853257E+004 -0.192643869771997E+002  0.724717354413557E+002 -0.483168280535411E+000  0.186941590758254E+001 -0.114467856624657E+002 -0.736316446075452E+003
  0.253509511245717E+000  0.147126552386036E+004 -0.192783457970056E+002  0.729127198215003E+002 -0.677411854132598E+000  0.271164789399227E+001 -0.114467856624657E+002 -0.736314833739348E+003
  0.253509511245717E+000  0.147125423234023E+004 -0.192327510123592E+002  0.737099012700109E+002 -0.530230284295753E+000  0.189431200290537E+001 -0.114467856624657E+002 -0.736309187979279E+003
  0.253509511245717E+000  0.147122923291577E+004 -0.192617542950371E+002  0.725658687544630E+002 -0.485328878795189E+000  0.172547917738729E+001 -0.114467856624657E+002 -0.736296688267054E+003
  0.253509511245717E+000  0.147122200236387E+004 -0.192937704297056E+002  0.723040833754648E+002 -0.649549301518341E+000  0.265565392261940E+001 -0.114467856624657E+002 -0.736293072991102E+003
  0.253509511245717E+000  0.147121685288419E+004 -0.192297768249072E+002  0.738591435764368E+002 -0.564797240016723E+000  0.222523446614598E+001 -0.114467856624657E+002 -0.736290498251260E+003
  0.253509511245717E+000  0.147121439554279E+004 -0.192354455167263E+002  0.735126409318969E+002 -0.526812173226555E+000  0.215394717890250E+001 -0.114467856624657E+002 -0.736289269580562E+003
  0.253509511245717E+000  0.147119620394668E+004 -0.192255201312977E+002  0.744366709672393E+002 -0.580265035980362E+000  0.230977093593911E+001 -0.114467856624657E+002 -0.736280173782509E+003
  0.253509511245717E+000  0.147115774941026E+004 -0.192838695646267E+002  0.725799609187557E+002 -0.597570236206427E+000  0.219656556634965E+001 -0.114467856624657E+002 -0.736260946514298E+003
  0.253509511245717E+000  0.147113893532158E+004 -0.192836448833852E+002  0.722854452288801E+002 -0.557602432421803E+000  0.229460897004330E+001 -0.114467856624657E+002 -0.736251539469956E+003
  0.253509511245717E+000  0.147112036282223E+004 -0.192187442140606E+002  0.745527410862069E+002 -0.623241027693576E+000  0.268046703368302E+001 -0.114467856624657E+002 -0.736242253220282E+003
  0.253509511245717E+000  0.147110447228188E+004 -0.192419144250644E+002  0.735303392581942E+002 -0.571710142396056E+000  0.253651224311170E+001 -0.114467856624657E+002 -0.736234307950107E+003
  0.253509511245717E+000  0.147108953087598E+004 -0.192596472071524E+002  0.729726444376990E+002 -0.597460755495276E+000  0.236653919642588E+001 -0.114467856624657E+002 -0.736226837247155E+003
  0.253509511245717E+000  0.147104836534753E+004 -0.192470592102500E+002  0.738151850489563E+002 -0.629853935846953E+000  0.269853302298504E+001 -0.114467856624657E+002 -0.736206254482929E+003
  0.253509511245717E+000  0.147104474514166E+004 -0.192363102958696E+002  0.736231110540993E+002 -0.470393379686255E+000  0.158924566022820E+001 -0.114467856624657E+002 -0.736204444379995E+003
  0.253509511245717E+000  0.147102645282301E+004 -0.192616257886225E+002  0.726918410187330E+002 -0.475262326946717E+000  0.149623257372059E+001 -0.114467856624657E+002 -0.736195298220669E+003
  0.253509511245717E+000  0.147100211892338E+004 -0.192621902551487E+002  0.726220160800218E+002 -0.498998970134698E+000  0.201614787629863E+001 -0.114467856624657E+002 -0.736183131270858E+003
  0.253509511245717E+000  0.147098634432819E+004 -0.192583556276315E+002  0.730081333988860E+002 -0.489337065751550E+000  0.167660830252922E+001 -0.114467856624657E+002 -0.736175243973259E+003
  0.253509511245717E+000  0.147096119203744E+004 -0.192434377540298E+002  0.737500941455149E+002 -0.538124444921037E+000  0.173586098656203E+001 -0.114467856624657E+002 -0.736162667827884E+003
  0.253509511245717E+000  0.147095256911057E+004 -0.192631928806266E+002  0.729676007812942E+002 -0.546915394283931E+000  0.179140713111288E+001 -0.114467856624657E+002 -0.736158356364451E+003
  0.253509511245717E+000  0.147093251578974E+004 -0.192561595456138E+002  0.735328270528591E+002 -0.639632233969469E+000  0.275377965069129E+001 -0.114467856624657E+002 -0.736148329704038E+003
  0.253509511245717E+000  0.147092688176444E+004 -0.192255397425348E+002  0.741868860908485E+002 -0.513818642236088E+000  0.164269721028309E+001 -0.114467856624657E+002 -0.736145512691387E+003
  0.253509511245717E+000  0.147090884403513E+004 -0.192848488885538E+002  0.723883691820642E+002 -0.615930098762852E+000  0.233271406535151E+001 -0.114467856624657E+002 -0.736136493826732E+003
  0.253509511245717E+000  0.147090028507476E+004 -0.192481128341871E+002  0.730432095587768E+002 -0.465909383887000E+000  0.168421025252991E+001 -0.114467856624657E+002 -0.736132214346547E+003
  0.253509511245717E+000  0.147089909903444E+004 -0.192932855763531E+002  0.720655096013488E+002 -0.612737847719299E+000  0.262646124176305E+001 -0.114467856624657E+002 -0.736131621326386E+003
  0.253509511245717E+000  0.147089316547068E+004 -0.192586089982131E+002  0.729158470203321E+002 -0.527081566563288E+000  0.177648161144993E+001 -0.114467856624657E+002 -0.736128654544506E+003
  0.253509511245717E+000  0.147087894974543E+004 -0.192734433894124E+002  0.727229695525654E+002 -0.651594328946641E+000  0.286721529800638E+001 -0.114467856624657E+002 -0.736121546681883E+003
  0.253509511245717E+000  0.147085887158530E+004 -0.192835144577436E+002  0.725177695714401E+002 -0.636734687852837E+000  0.276691987532148E+001 -0.114467856624657E+002 -0.736111507601817E+003
  0.253509511245717E+000  0.147084898027499E+004 -0.192650136089406E+002  0.729298550914497E+002 -0.626529053354753E+000  0.282589130338699E+001 -0.114467856624657E+002 -0.736106561946660E+003
  0.253509511245717E+000  0.147084351903876E+004 -0.192603175214911E+002  0.729435178265508E+002 -0.605246560074088E+000  0.269103765938979E+001 -0.114467856624657E+002 -0.736103831328547E+003
  0.253509511245717E+000  0.147083539327661E+004 -0.192921332779528E+002  0.722804041832133E+002 -0.630409252050008E+000  0.245540479229129E+001 -0.114467856624657E+002 -0.736099768447472E+003
  0.253509511245717E+000  0.147082711680109E+004 -0.192769882518128E+002  0.728528946203632E+002 -0.645757381598720E+000  0.246565166116978E+001 -0.114467856624657E+002 -0.736095630209710E+003
  0.253509511245717E+000  0.147081910092395E+004 -0.192821044462812E+002  0.725289182370444E+002 -0.580565839359205E+000  0.227450046197539E+001 -0.114467856624657E+002 -0.736091622271142E+003
  0.253509511245717E+000  0.147078275314971E+004 -0.192687562914269E+002  0.732527703073586E+002 -0.654313588481162E+000  0.254131586538831E+001 -0.114467856624657E+002 -0.736073448384023E+003
  0.253509511245717E+000  0.147078226932423E+004 -0.192452814037674E+002  0.738830740509163E+002 -0.590786114700510E+000  0.206339172559216E+001 -0.114467856624657E+002 -0.736073206471282E+003
  0.253509511245717E+000  0.147074816652023E+004 -0.192862486741619E+002  0.719301280707266E+002 -0.520425765526846E+000  0.202432171415584E+001 -0.114467856624657E+002 -0.736056155069281E+003
  0.253509511245717E+000  0.147074762976537E+004 -0.192966053782532E+002  0.718774216732228E+002 -0.571373862288155E+000  0.215548074748401E+001 -0.114467856624657E+002 -0.736055886691851E+003
  0.253509511245717E+000  0.147074217125701E+004 -0.192737007981342E+002  0.727245676715734E+002 -0.635359611296478E+000  0.254051406293702E+001 -0.114467856624657E+002 -0.736053157437671E+003
  0.253509511245717E+000  0.147073326732651E+004 -0.192785971417098E+002  0.721970449370462E+002 -0.495477977091487E+000  0.168246042133877E+001 -0.114467856624657E+002 -0.736048705472420E+003
  0.253509511245717E+000  0.147072156965055E+004 -0.192510293362859E+002  0.731878784048682E+002 -0.497010054790439E+000  0.154477342844226E+001 -0.114467856624657E+002 -0.736042856634440E+003
  0.253509511245717E+000  0.147069707929041E+004 -0.192635276103447E+002  0.731990730411072E+002 -0.673283714595638E+000  0.286065949361848E+001 -0.114467856624657E+002 -0.736030611454371E+003
  0.253509511245717E+000  0.147069532022403E+004 -0.192685383792902E+002  0.730725090612977E+002 -0.640797799953159E+000  0.243051613045542E+001 -0.114467856624657E+002 -0.736029731921182E+003
  0.253509511245717E+000  0.147069045017719E+004 -0.192674345175735E+002  0.731019337557301E+002 -0.665843084466622E+000  0.294264000155601E+001 -0.114467856624657E+002 -0.736027296897760E+003
  0.253509511245717E+000  0.147067690363072E+004 -0.192664413548255E+002  0.729863749459343E+002 -0.557245972479920E+000  0.185758275466238E+001 -0.114467856624657E+002 -0.736020523624528E+003
  0.253509511245717E+000  0.147067088370048E+004 -0.192254289674456E+002  0.744593324687080E+002 -0.594917013123094E+000  0.239916798238928E+001 -0.114467856624657E+002 -0.736017513659408E+003
  0.253509511245717E+000  0.147066960286793E+004 -0.192854494265769E+002  0.720615104755081E+002 -0.570340643452969E+000  0.226672830683775E+001 -0.114467856624657E+002 -0.736016873243132E+003
  0.253509511245717E+000  0.147066140292414E+004 -0.192444863515157E+002  0.731807278304367E+002 -0.493916206284950E+000  0.192693668154667E+001 -0.114467856624657E+002 -0.736012773271238E+003
  0.253509511245717E+000  0.147065638640618E+004 -0.192413849567315E+002  0.737088882476750E+002 -0.562881265171181E+000  0.191791342918766E+001 -0.114467856624657E+002 -0.736010265012256E+003
  0.253509511245717E+000  0.147065374700178E+004 -0.192528816014289E+002  0.728903173338724E+002 -0.494156400840445E+000  0.192697303431878E+001 -0.114467856624657E+002 -0.736008945310056E+003
  0.253509511245717E+000  0.147062484081110E+004 -0.192230073899289E+002  0.746022150909782E+002 -0.649624769209640E+000  0.267286851111619E+001 -0.114467856624657E+002 -0.735994492214717E+003
  0.253509511245717E+000  0.147061969326268E+004 -0.192870333103516E+002  0.723939947479706E+002 -0.651367373544915E+000  0.279964486403152E+001 -0.114467856624657E+002 -0.735991918440507E+003
  0.253509511245717E+000  0.147061626189561E+004 -0.192110004902416E+002  0.746690434215957E+002 -0.546077249024858E+000  0.198682655770725E+001 -0.114467856624657E+002 -0.735990202756972E+003
  0.253509511245717E+000  0.147058254930951E+004 -0.192172666345147E+002  0.744562684628597E+002 -0.542325890693465E+000  0.212770580602647E+001 -0.114467856624657E+002 -0.735973346463922E+003
  0.253509511245717E+000  0.147057157791488E+004 -0.192942672714069E+002  0.718438896109364E+002 -0.549474085197688E+000  0.210251575900640E+001 -0.114467856624657E+002 -0.735967860766607E+003
  0.253509511245717E+000  0.147053967775694E+004 -0.192486815178500E+002  0.734363842350946E+002 -0.564586467950628E+000  0.195033398604927E+001 -0.114467856624657E+002 -0.735951910687636E+003
  0.253509511245717E+000  0.147053855382750E+004 -0.192222565706528E+002  0.745158179916904E+002 -0.631815961511107E+000  0.267781993954141E+001 -0.114467856624657E+002 -0.735951348722918E+003
  0.253509511245717E+000  0.147052723745305E+004 -0.192444167339182E+002  0.740392638254871E+002 -0.649768003116938E+000  0.248878534119892E+001 -0.114467856624657E+002 -0.735945690535689E+003
  0.253509511245717E+000  0.147048613830795E+004 -0.192622450181170E+002  0.726908671544908E+002 -0.530041277185844E+000  0.222262949960961E+001 -0.114467856624657E+002 -0.735925140963143E+003
  0.253509511245717E+000  0.147048402103332E+004 -0.192419396486528E+002  0.735883483103723E+002 -0.571673077872565E+000  0.209415392713015E+001 -0.114467856624657E+002 -0.735924082325825E+003
  0.253509511245717E+000  0.147042841169403E+004 -0.192466343339149E+002  0.737795413881603E+002 -0.663584760572571E+000  0.290337280939348E+001 -0.114467856624657E+002 -0.735896277656180E+003
  0.253509511245717E+000  0.147042175786902E+004 -0.192207626063874E+002  0.744539685723354E+002 -0.542464446091548E+000  0.187990580861607E+001 -0.114467856624657E+002 -0.735892950743678E+003
  0.253509511245717E+000  0.147042114431398E+004 -0.192905559319629E+002  0.719447956424620E+002 -0.556793980744419E+000  0.211760107189654E+001 -0.114467856624657E+002 -0.735892643966158E+003
  0.253509511245717E+000  0.147042055521692E+004 -0.192192151730539E+002  0.746684197423449E+002 -0.589216113645282E+000  0.216873889402895E+001 -0.114467856624657E+002 -0.735892349417624E+003
  0.253509511245717E+000  0.147040376600733E+004 -0.192458110815866E+002  0.737262884234386E+002 -0.563873403150409E+000  0.215197695343716E+001 -0.114467856624657E+002 -0.735883954812833E+003
  0.253509511245717E+000  0.147038771755468E+004 -0.192630192354979E+002  0.728722718645023E+002 -0.506746647352353E+000  0.183859627875933E+001 -0.114467856624657E+002 -0.735875930586506E+003
  0.253509511245717E+000  0.147036214488666E+004 -0.192398612318435E+002  0.734442204848588E+002 -0.526874621924247E+000  0.195035405838572E+001 -0.114467856624657E+002 -0.735863144252494E+003
  0.253509511245717E+000  0.147035560672291E+004 -0.192315673012332E+002  0.737209125130865E+002 -0.529130750282313E+000  0.203763395875860E+001 -0.114467856624657E+002 -0.735859875170623E+003
  0.253509511245717E+000  0.147035235704853E+004 -0.192423670936640E+002  0.738323814714684E+002 -0.617993644579328E+000  0.268516201521559E+001 -0.114467856624657E+002 -0.735858250333429E+003
  0.253509511245717E+000  0.147032899083295E+004 -0.192464742145587E+002  0.731714168888645E+002 -0.479389640810755E+000  0.175567526422816E+001 -0.114467856624657E+002 -0.735846567225643E+003
  0.253509511245717E+000  0.147029593494903E+004 -0.192887451687651E+002  0.721810056988460E+002 -0.615635054131187E+000  0.249356610134310E+001 -0.114467856624657E+002 -0.735830039283683E+003
  0.253509511245717E+000  0.147028723946032E+004 -0.192668948460255E+002  0.728319296654348E+002 -0.616788528281479E+000  0.273375930792007E+001 -0.114467856624657E+002 -0.735825691539326E+003
  0.253509511245717E+000  0.147028523713013E+004 -0.192498451633199E+002  0.734289601636694E+002 -0.541074410879517E+000  0.212039125538237E+001 -0.114467856624657E+002 -0.735824690374232E+003
  0.253509511245717E+000  0.147028122168402E+004 -0.192735436203227E+002  0.727628888365254E+002 -0.565195988174113E+000  0.196052081618050E+001 -0.114467856624657E+002 -0.735822682651174E+003
  0.253509511245717E+000  0.147022916286698E+004 -0.192318524837922E+002  0.741986195682105E+002 -0.643106273712201E+000  0.275301233287945E+001 -0.114467856624657E+002 -0.735796653242656E+003
  0.253509511245717E+000  0.147022111675785E+004 -0.192618763968642E+002  0.734361446756844E+002 -0.665390825840228E+000  0.264644154032563E+001 -0.114467856624657E+002 -0.735792630188091E+003
  0.253509511245717E+000  0.147020147880081E+004 -0.192422299136356E+002  0.736781823589743E+002 -0.607818772271569E+000  0.237603604330656E+001 -0.114467856624657E+002 -0.735782811209570E+003
  0.253509511245717E+000  0.147019283472178E+004 -0.192593567595886E+002  0.731403206134912E+002 -0.563565590549407E+000  0.192653163193851E+001 -0.114467856624657E+002 -0.735778489170055E+003
  0.253509511245717E+000  0.147010860546546E+004 -0.192773179989280E+002  0.727130242085796E+002 -0.654950767848947E+000  0.274290132907383E+001 -0.114467856624657E+002 -0.735736374541897E+003
  0.253509511245717E+000  0.147010820885790E+004 -0.192749918501724E+002  0.726372595434574E+002 -0.573295172391632E+000  0.235645038582880E+001 -0.114467856624657E+002 -0.735736176238117E+003
  0.253509511245717E+000  0.147007970954689E+004 -0.192418502361049E+002  0.734728595300021E+002 -0.541096390144235E+000  0.226785559582280E+001 -0.114467856624657E+002 -0.735721926582612E+003
  0.253509511245717E+000  0.147004215879347E+004 -0.192680461987284E+002  0.730750889941621E+002 -0.661812274217966E+000  0.286144890281405E+001 -0.114467856624657E+002 -0.735703151205901E+003
  0.253509511245717E+000  0.147002190581526E+004 -0.192774925889110E+002  0.726654451744578E+002 -0.603302767752564E+000  0.250906276612294E+001 -0.114467856624657E+002 -0.735693024716794E+003
  0.253509511245717E+000  0.147001838344839E+004 -0.192491315627756E+002  0.736238554086394E+002 -0.631415999833651E+000  0.243853143929764E+001 -0.114467856624657E+002 -0.735691263533363E+003
  0.253509511245717E+000  0.146998601791006E+004 -0.192411076339357E+002  0.735077142989188E+002 -0.567311060592326E+000  0.226639371791474E+001 -0.114467856624657E+002 -0.735675080764195E+003
  0.253509511245717E+000  0.146995542208449E+004 -0.192315811840201E+002  0.739908209657859E+002 -0.602287683523837E+000  0.254560380333865E+001 -0.114467856624657E+002 -0.735659782851409E+003
  0.253509511245717E+000  0.146995175575082E+004 -0.192711679191330E+002  0.729093277442816E+002 -0.640303357335036E+000  0.253589511691053E+001 -0.114467856624657E+002 -0.735657949684578E+003
  0.253509511245717E+000  0.146993875076535E+004 -0.192725856939651E+002  0.726659082003634E+002 -0.600427113036855E+000  0.261265535692454E+001 -0.114467856624657E+002 -0.735651447191839E+003
  0.253509511245717E+000  0.146990955763006E+004 -0.192653224120387E+002  0.727139055381237E+002 -0.497131625951915E+000  0.170973688005136E+001 -0.114467856624657E+002 -0.735636850624194E+003
  0.253509511245717E+000  0.146988194875320E+004 -0.192711302086600E+002  0.724145055111109E+002 -0.506033756791520E+000  0.185637250473213E+001 -0.114467856624657E+002 -0.735623046185769E+003
  0.253509511245717E+000  0.146988133548030E+004 -0.192620783521849E+002  0.729345632881512E+002 -0.525435037038284E+000  0.200244641427118E+001 -0.114467856624657E+002 -0.735622739549316E+003
  0.253509511245717E+000  0.146987679210574E+004 -0.192881302256328E+002  0.722550543937657E+002 -0.596478809024202E+000  0.229785550001455E+001 -0.114467856624657E+002 -0.735620467862038E+003
  0.253509511245717E+000  0.146987528700949E+004 -0.192441997569838E+002  0.738121703933172E+002 -0.605417437009665E+000  0.252049962101126E+001 -0.114467856624657E+002 -0.735619715313909E+003
  0.253509511245717E+000  0.146985993779401E+004 -0.192840764407129E+002  0.723206831938265E+002 -0.568399370184799E+000  0.224391323547967E+001 -0.114467856624657E+002 -0.735612040706171E+003
  0.253509511245717E+000  0.146984829944494E+004 -0.192294448510280E+002  0.739895531804910E+002 -0.511990056597760E+000  0.181378147568313E+001 -0.114467856624657E+002 -0.735606221531635E+003
  0.253509511245717E+000  0.146981731639238E+004 -0.192794706395370E+002  0.725390032388017E+002 -0.631088977061596E+000  0.269984574163042E+001 -0.114467856624657E+002 -0.735590730005358E+003
  0.253509511245717E+000  0.146981013462441E+004 -0.192750611370978E+002  0.729063001827373E+002 -0.632638569244453E+000  0.253048761360995E+001 -0.114467856624657E+002 -0.735587139121374E+003
  0.253509511245717E+000  0.146980923157434E+004 -0.192661995385997E+002  0.726359983005085E+002 -0.499819878680341E+000  0.182541673446523E+001 -0.114467856624657E+002 -0.735586687596334E+003
  0.253509511245717E+000  0.146979671977425E+004 -0.192698797910269E+002  0.728844499809390E+002 -0.621337420514029E+000  0.240402806544507E+001 -0.114467856624657E+002 -0.735580431696290E+003
  0.253509511245717E+000  0.146976727124967E+004 -0.192297029714573E+002  0.739827676706045E+002 -0.575099864652675E+000  0.226571935440960E+001 -0.114467856624657E+002 -0.735565707434000E+003
  0.253509511245717E+000  0.146974427415351E+004 -0.192741384541930E+002  0.723696009760843E+002 -0.544388947679057E+000  0.214754469620490E+001 -0.114467856624657E+002 -0.735554208885922E+003
  0.253509511245717E+000  0.146966355587754E+004 -0.192730118165384E+002  0.729634955038062E+002 -0.638994182070905E+000  0.261447450234788E+001 -0.114467856624657E+002 -0.735513849747937E+003
  0.253509511245717E+000  0.146960682453223E+004 -0.192374441680198E+002  0.736434165042037E+002 -0.548884609292048E+000  0.206430104922736E+001 -0.114467856624657E+002 -0.735485484075279E+003
  0.253509511245717E+000  0.146960335431453E+004 -0.192705672415793E+002  0.728276517631307E+002 -0.567463962010313E+000  0.221011179082328E+001 -0.114467856624657E+002 -0.735483748966432E+003
  0.253509511245717E+000  0.146960076551558E+004 -0.192546689819723E+002  0.735061947769383E+002 -0.638393963560966E+000  0.248493158698599E+001 -0.114467856624657E+002 -0.735482454566957E+003
  0.253509511245717E+000  0.146959168921152E+004 -0.192422644881090E+002  0.739557476869575E+002 -0.625947621900512E+000  0.237352428532921E+001 -0.114467856624657E+002 -0.735477916414925E+003
  0.253509511245717E+000  0.147092753228558E+004 -0.192540275136655E+002  0.733666451052769E+002 -0.545905975870604E+000  0.194962922656518E+001 -0.114467856624657E+002 -0.735463766142791E+003
  0.253509511245717E+000  0.147092228279054E+004 -0.192367847673873E+002  0.736896394269535E+002 -0.504500652487744E+000  0.174741739031086E+001 -0.114467856624657E+002 -0.735461141395270E+003
  0.253509511245717E+000  0.147091877654975E+004 -0.192462960077251E+002  0.735745797856504E+002 -0.537553723556487E+000  0.183199873003610E+001 -0.114467856624657E+002 -0.735459388274877E+003
  0.253509511245717E+000  0.147091825696889E+004 -0.192460365580896E+002  0.735233302222687E+002 -0.529303418542696E+000  0.177841645749228E+001 -0.114467856624657E+002 -0.735459128484446E+003
  0.253509511245717E+000  0.147090121844240E+004 -0.192520402118867E+002  0.733971206794751E+002 -0.554554218393362E+000  0.190046038585899E+001 -0.114467856624657E+002 -0.735450609221201E+003
  0.253509511245717E+000  0.147086026201503E+004 -0.192364152612313E+002  0.738099454506642E+002 -0.529474473245022E+000  0.198557261294105E+001 -0.114467856624657E+002 -0.735430131007515E+003
  0.253509511245717E+000  0.147084705340225E+004 -0.192762066616437E+002  0.724497180656096E+002 -0.533307632157088E+000  0.198565406773620E+001 -0.114467856624657E+002 -0.735423526701127E+003
  0.253509511245717E+000  0.147073619493284E+004 -0.192427202967708E+002  0.736317353560092E+002 -0.526279704759393E+000  0.185081720514649E+001 -0.114467856624657E+002 -0.735368097466422E+003
  0.253509511245717E+000  0.147065783053537E+004 -0.192584820585887E+002  0.729596941655751E+002 -0.508376453119856E+000  0.178131312649139E+001 -0.114467856624657E+002 -0.735328915267687E+003
  0.253509511245717E+000  0.147064185950513E+004 -0.192614613288868E+002  0.727758013203558E+002 -0.513283843483313E+000  0.193330626400755E+001 -0.114467856624657E+002 -0.735320929752567E+003
  0.253509511245717E+000  0.147057126810345E+004 -0.192444016081206E+002  0.737188048670802E+002 -0.560558791784720E+000  0.206991881215285E+001 -0.114467856624657E+002 -0.735285634051727E+003
  0.253509511245717E+000  0.147032065245433E+004 -0.192483095544162E+002  0.734386896182388E+002 -0.546458814472540E+000  0.192378086840352E+001 -0.114467856624657E+002 -0.735160326227167E+003
  0.253509511245717E+000  0.147016302660734E+004 -0.192443948290320E+002  0.735601363938031E+002 -0.555887792141269E+000  0.201540356397412E+001 -0.114467856624657E+002 -0.735081513303668E+003
  0.253509511245717E+000  0.147008073387503E+004 -0.192446315341638E+002  0.734306755723150E+002 -0.529906656222916E+000  0.197216105205168E+001 -0.114467856624657E+002 -0.735040366937516E+003
  0.253509511245717E+000  0.146987036449113E+004 -0.192446804672213E+002  0.735938794716255E+002 -0.558151440224682E+000  0.205408571440471E+001 -0.114467856624657E+002 -0.734935182245566E+003
  0.253509511245717E+000  0.146981258653017E+004 -0.192567360601113E+002  0.731733450463311E+002 -0.552191281446309E+000  0.206457457109161E+001 -0.114467856624657E+002 -0.734906293265083E+003
