  0.672833717787919E-002  0.141243058455505E+004  0.985766240582785E+001  0.681490153083381E+002 -0.359423136454124E+000  0.337550452119410E+000  0.554407908881878E-001 -0.144425179360197E+002 -0.707266455195281E+003
  0.672833717787919E-002  0.141399380317616E+004  0.905294764896056E+001  0.679650244324765E+002 -0.351036131890778E+000  0.363489334658643E+000  0.157141997957400E-001 -0.144425179360197E+002 -0.708048064505838E+003
  0.672833717787919E-002  0.142243110354566E+004  0.926677238116186E+001  0.651100403273333E+002 -0.165810816604750E+000  0.163735111376910E+000 -0.719445044362562E+000 -0.144425179360197E+002 -0.713674164080399E+003
  0.672833717787919E-002  0.142814745788500E+004  0.471867732885884E+001  0.622269812153349E+002 -0.107059355511271E+000  0.346764811977030E+000 -0.162822461061496E+001 -0.144425179360197E+002 -0.716532341250065E+003
  0.672833717787919E-002  0.144131862428245E+004 -0.671465158586245E+001  0.765378989135882E+002 -0.765331107620466E+000  0.323282029074370E+001  0.976894575599975E+001 -0.144425179360197E+002 -0.723952135982518E+003
  0.672833717787919E-002  0.141626688991097E+004  0.810704346097238E+001  0.671796216161929E+002 -0.274941269817681E+000  0.227384810964509E+000 -0.579421951028660E-001 -0.144425179360197E+002 -0.710592057263054E+003
  0.672833717787919E-002  0.141628512755321E+004  0.655996372554484E+001  0.712933725737927E+002 -0.263902793758463E+000  0.241322692265983E+000 -0.185472576968861E+000 -0.144425179360197E+002 -0.710601176084172E+003
  0.672833717787919E-002  0.142842912349014E+004  0.495852240614285E+001  0.612126451477700E+002 -0.159328963946812E+000  0.400496332670865E+000 -0.128282829658727E+001 -0.144425179360197E+002 -0.716673174052638E+003
  0.672833717787919E-002  0.141626649743381E+004  0.392982852403755E+001  0.613513944115509E+002 -0.212525744536354E+000  0.299344510288398E+000 -0.300638018659885E+000 -0.144425179360197E+002 -0.710591861024472E+003
  0.672833717787919E-002  0.141327569585735E+004  0.513984008027932E+001  0.613760864628952E+002 -0.344214770329371E+000  0.334213952425588E+000  0.415074079320004E-001 -0.144425179360197E+002 -0.708460063242613E+003
  0.672833717787919E-002  0.142254004191603E+004  0.722454500952788E+001  0.590073467353619E+002 -0.169152850531529E+000  0.223116548677789E+000 -0.387591509867406E+000 -0.144425179360197E+002 -0.713728633265582E+003
  0.672833717787919E-002  0.143890844353950E+004 -0.416490529992043E+001  0.649465494495385E+002 -0.459343307031286E+000  0.246701908793536E+001  0.913272815981789E+001 -0.144425179360197E+002 -0.722747045611044E+003
  0.672833717787919E-002  0.141636274630365E+004 -0.189063189421862E+002  0.734181598808371E+002 -0.324808167954229E+000  0.305403573531969E+000 -0.530454398539604E-004 -0.144425179360197E+002 -0.710639985459394E+003
  0.672833717787919E-002  0.142003393641919E+004 -0.178511246407778E+002  0.618143851117914E+002 -0.158795270659404E+000  0.289177088405977E+000 -0.924608898453984E+000 -0.144425179360197E+002 -0.712475580517160E+003
  0.672833717787919E-002  0.142941860253391E+004 -0.128669999742829E+002  0.749384983122482E+002 -0.224995362752365E+000  0.216127721044030E+000 -0.225993575066390E+000 -0.144425179360197E+002 -0.717167913574521E+003
  0.672833717787919E-002  0.142262977082946E+004 -0.177612186636295E+002  0.662330590986817E+002 -0.181258897284852E+000  0.152113892690457E+000 -0.418540070695743E+000 -0.144425179360197E+002 -0.713773497722296E+003
  0.672833717787919E-002  0.141327888322301E+004  0.963601446458833E+001  0.661958347427408E+002 -0.301080859309336E+000  0.295314353966417E+000 -0.406259467608514E-001 -0.144425179360197E+002 -0.708461656925445E+003
  0.672833717787919E-002  0.143468770916430E+004 -0.178371594311554E+002  0.781758240943990E+002 -0.854916772938969E+000  0.433458762900430E+001  0.520293529799379E+001 -0.144425179360197E+002 -0.720636678423444E+003
  0.672833717787919E-002  0.141625012411666E+004  0.618205022865006E+001  0.692821879243262E+002 -0.294728087773853E+000  0.235923564904798E+000 -0.350505614437289E-001 -0.144425179360197E+002 -0.710583674365898E+003
  0.672833717787919E-002  0.141640657698551E+004  0.497768799662209E+001  0.692693405674581E+002 -0.265492152735833E+000  0.221728931751411E+000 -0.707252609232931E-001 -0.144425179360197E+002 -0.710661900800321E+003
  0.672833717787919E-002  0.141624430619537E+004 -0.121958835054261E+002  0.623846812576652E+002 -0.238553566401396E+000  0.241296462996575E+000 -0.230828900320173E+000 -0.144425179360197E+002 -0.710580765405252E+003
  0.672833717787919E-002  0.141744108872389E+004 -0.468035974083766E+001  0.589352576672893E+002 -0.176470091121756E+000  0.318995181564567E+000 -0.468088010666236E+000 -0.144425179360197E+002 -0.711179156669513E+003
  0.672833717787919E-002  0.143130552284288E+004 -0.146879059767676E+002  0.704815929957975E+002 -0.835156174057230E+000  0.454435424030979E+001  0.703158828311606E+001 -0.144425179360197E+002 -0.718945585262735E+003
  0.672833717787919E-002  0.141643310464460E+004  0.242453914609293E+000  0.667338087066690E+002 -0.216353084706107E+000  0.274828535257833E+000 -0.423474203283000E+000 -0.144425179360197E+002 -0.710675164629869E+003
  0.672833717787919E-002  0.142285167965209E+004 -0.111758307930573E+002  0.554389656517180E+002 -0.202498777188185E+000  0.302619512883979E+000 -0.307668522548122E+000 -0.144425179360197E+002 -0.713884452133614E+003
  0.672833717787919E-002  0.142287848891308E+004  0.618040254528580E+001  0.686169851520290E+002 -0.267549924320757E+000  0.112914854924052E+000 -0.105024306566285E+000 -0.144425179360197E+002 -0.713897856764108E+003
  0.672833717787919E-002  0.142015282192785E+004 -0.151965097532000E+002  0.745081835214247E+002 -0.305308552374941E+000  0.262559901235816E+000  0.169813422276128E-001 -0.144425179360197E+002 -0.712535023271493E+003
  0.672833717787919E-002  0.141376243700670E+004  0.334847875732455E+001  0.649027429291788E+002 -0.284379921029073E+000  0.317929214808669E+000 -0.988534606860885E-001 -0.144425179360197E+002 -0.708703433817288E+003
  0.672833717787919E-002  0.141645862270058E+004  0.353785794078183E+001  0.544322155020679E+002 -0.196123789871020E+000  0.335359872239678E+000 -0.941256818941252E-001 -0.144425179360197E+002 -0.710687923657859E+003
  0.672833717787919E-002  0.141616107306931E+004  0.786613710276135E+001  0.657268002888513E+002 -0.285098791712558E+000  0.281608408317640E+000 -0.161002692879018E+000 -0.144425179360197E+002 -0.710539148842224E+003
  0.672833717787919E-002  0.141646458228323E+004  0.729764423625746E+001  0.656220977819516E+002 -0.225645094961823E+000  0.300204159859354E+000 -0.238856109507260E+000 -0.144425179360197E+002 -0.710690903449181E+003
  0.672833717787919E-002  0.141652016413574E+004  0.543312009231509E+001  0.623246655194851E+002 -0.209868110256559E+000  0.324909085472225E+000 -0.590287736599686E+000 -0.144425179360197E+002 -0.710718694375438E+003
  0.672833717787919E-002  0.142914615926505E+004  0.450310108556536E+000  0.692517396022965E+002 -0.703038562647091E+000  0.359709237256381E+001  0.637348962641417E+001 -0.144425179360197E+002 -0.717865903473822E+003
  0.672833717787919E-002  0.141746596736489E+004 -0.930475062134435E+001  0.628721054595089E+002 -0.150077762016819E+000  0.302771553428856E+000 -0.631178090065777E+000 -0.144425179360197E+002 -0.711191595990014E+003
  0.672833717787919E-002  0.141660045612140E+004  0.487243140237170E+001  0.660653582613286E+002 -0.256586624023962E+000  0.288558337564501E+000 -0.200191194535986E+000 -0.144425179360197E+002 -0.710758840368269E+003
  0.672833717787919E-002  0.141615634977478E+004 -0.166762406393778E+002  0.647614697744167E+002 -0.292046742126609E+000  0.263538474609372E+000 -0.105048199933131E+000 -0.144425179360197E+002 -0.710536787194957E+003
  0.672833717787919E-002  0.141400710171370E+004  0.890538347901528E+001  0.578328999998480E+002 -0.219958689646292E+000  0.357787234010688E+000 -0.133978017586461E+000 -0.144425179360197E+002 -0.708825766170792E+003
  0.672833717787919E-002  0.141673138008601E+004  0.542168664838987E+001  0.607406226485651E+002 -0.170906465423609E+000  0.309021438588334E+000 -0.640777818568864E+000 -0.144425179360197E+002 -0.710824302350572E+003
  0.672833717787919E-002  0.141438820888946E+004  0.216286218508603E+001  0.557536389719227E+002 -0.275647817005690E+000  0.358956307720202E+000 -0.677496584818584E-001 -0.144425179360197E+002 -0.709016319758667E+003
  0.672833717787919E-002  0.141474749839602E+004  0.934722752175430E+001  0.691753388678346E+002 -0.355950277573593E+000  0.314318881083078E+000  0.504833237135500E-001 -0.144425179360197E+002 -0.709195964511949E+003
  0.672833717787919E-002  0.141483759006559E+004  0.517455570508798E+001  0.561940201382550E+002 -0.277631609937318E+000  0.356775976837282E+000 -0.590299508768908E-001 -0.144425179360197E+002 -0.709241010346733E+003
  0.672833717787919E-002  0.141510525741925E+004  0.103874769466042E+002  0.618090252183191E+002 -0.226073906145392E+000  0.289462699029564E+000 -0.465145854926352E+000 -0.144425179360197E+002 -0.709374844023563E+003
  0.672833717787919E-002  0.141614847403874E+004  0.115828816315269E+002  0.590847451139698E+002 -0.208916786821572E+000  0.306190472922613E+000 -0.542571054798447E+000 -0.144425179360197E+002 -0.710532849326935E+003
  0.672833717787919E-002  0.141694696364852E+004 -0.348635871987933E+001  0.686419592929882E+002 -0.235790074333535E+000  0.259877424187173E+000 -0.168401446558160E+000 -0.144425179360197E+002 -0.710932094131825E+003
  0.672833717787919E-002  0.142319878911611E+004  0.704813731340685E+001  0.602687190127540E+002 -0.108944513938923E+000  0.290343096933894E+000 -0.942253620387941E+000 -0.144425179360197E+002 -0.714058006865623E+003
  0.672833717787919E-002  0.141695922796462E+004 -0.139534090502452E+002  0.633406439655094E+002 -0.289661314143992E+000  0.236954064508002E+000 -0.674612951686058E-001 -0.144425179360197E+002 -0.710938226289879E+003
  0.672833717787919E-002  0.141777595981727E+004 -0.652055233064463E+001  0.622566850804009E+002 -0.133008796055839E+000  0.312465754413118E+000 -0.698012601334613E+000 -0.144425179360197E+002 -0.711346592216204E+003
  0.672833717787919E-002  0.142945364737067E+004  0.176183133250603E+002  0.742990186440505E+002 -0.776124790075765E+000  0.359666799988589E+001  0.660931603168759E+001 -0.144425179360197E+002 -0.718019647526631E+003
  0.672833717787919E-002  0.142948765128501E+004  0.191871674022178E+002  0.736350070426972E+002 -0.637171627174264E+000  0.345432526541748E+001  0.748638466198862E+001 -0.144425179360197E+002 -0.718036649483801E+003
  0.672833717787919E-002  0.142030634857986E+004  0.260691974599566E+001  0.634067971652035E+002 -0.309803466842174E+000  0.283801409553218E+000 -0.118612460440858E+000 -0.144425179360197E+002 -0.712611786597496E+003
  0.672833717787919E-002  0.141703766706532E+004  0.108204663329817E+002  0.673540448934584E+002 -0.249684150395260E+000  0.215359010871046E+000 -0.213220503753696E+000 -0.144425179360197E+002 -0.710977445840228E+003
  0.672833717787919E-002  0.142033213068468E+004 -0.153720769218523E+002  0.742588386226480E+002 -0.281580037270984E+000  0.240591300725425E+000 -0.412789846212327E-001 -0.144425179360197E+002 -0.712624677649906E+003
  0.672833717787919E-002  0.141706675127927E+004 -0.945746502811834E+001  0.667695852109387E+002 -0.315245873641025E+000  0.231334333336816E+000 -0.170850994087921E-001 -0.144425179360197E+002 -0.710991987947202E+003
  0.672833717787919E-002  0.142370675202874E+004 -0.775483095716097E+001  0.586075052584464E+002 -0.109028093599712E+000  0.320460527086615E+000 -0.141195049820058E+001 -0.144425179360197E+002 -0.714311988321938E+003
  0.672833717787919E-002  0.141543138318313E+004  0.368289081674872E+001  0.632979670489586E+002 -0.351592405819163E+000  0.337155239557491E+000  0.187521556847834E-001 -0.144425179360197E+002 -0.709537906905505E+003
  0.672833717787919E-002  0.142386401703801E+004  0.175863008117845E+001  0.713303209406874E+002 -0.216721327190152E+000  0.117736563997466E+000 -0.293578326331714E+000 -0.144425179360197E+002 -0.714390620826574E+003
  0.672833717787919E-002  0.142963106136319E+004  0.141981614887900E+000  0.645350333322041E+002 -0.166718920233425E+000 -0.126753968632718E-001 -0.101588803212269E+001 -0.144425179360197E+002 -0.718108354522892E+003
  0.672833717787919E-002  0.141779286989130E+004 -0.182875202514361E+002  0.727201520116200E+002 -0.321044032614123E+000  0.261363042291515E+000  0.326464338548469E-001 -0.144425179360197E+002 -0.711355047253218E+003
  0.672833717787919E-002  0.141707743947624E+004 -0.163679535724115E+002  0.643999760767095E+002 -0.287276039224959E+000  0.328280408645152E+000 -0.984082725692144E-001 -0.144425179360197E+002 -0.710997332045687E+003
  0.672833717787919E-002  0.141712183488963E+004  0.613187337375882E+001  0.636913505483471E+002 -0.182880565730357E+000  0.273804442461247E+000 -0.338672813167518E+000 -0.144425179360197E+002 -0.711019529752381E+003
  0.672833717787919E-002  0.141715067446822E+004  0.750244845830500E+001  0.552754375916288E+002 -0.204878375060934E+000  0.333128228971345E+000 -0.814328410667926E-001 -0.144425179360197E+002 -0.711033949541675E+003
  0.672833717787919E-002  0.141593941662456E+004  0.814856786570637E+001  0.545638615322632E+002 -0.198989100651118E+000  0.341267484218965E+000 -0.107950458876386E+000 -0.144425179360197E+002 -0.709791923626220E+003
  0.672833717787919E-002  0.141716501260035E+004 -0.863815741741414E+001  0.709940213030058E+002 -0.268675260703209E+000  0.275689855313349E+000 -0.359319145780432E-001 -0.144425179360197E+002 -0.711041118607743E+003
  0.672833717787919E-002  0.142432096798264E+004 -0.315140209801260E+000  0.561710182877504E+002 -0.130597762936818E+000  0.316519309084907E+000 -0.606112690614786E+000 -0.144425179360197E+002 -0.714619096298888E+003
  0.672833717787919E-002  0.141606380574848E+004  0.488510870468873E+001  0.661233188602157E+002 -0.255582461473423E+000  0.260571840991415E+000 -0.232409447933332E+000 -0.144425179360197E+002 -0.709854118188179E+003
  0.672833717787919E-002  0.141618458484739E+004  0.108232181999536E+002  0.690440948876345E+002 -0.310298850657034E+000  0.303406134193773E+000  0.809570455100328E-004 -0.144425179360197E+002 -0.709914507737633E+003
  0.672833717787919E-002  0.141629665034333E+004  0.412403483990643E+001  0.618875708610201E+002 -0.279609478832132E+000  0.299780361487473E+000 -0.566910278626391E-001 -0.144425179360197E+002 -0.709970540485607E+003
  0.672833717787919E-002  0.142038978328848E+004  0.156457466043651E+001  0.722185763393186E+002 -0.315245839050433E+000  0.178680383934870E+000 -0.131213615877002E-002 -0.144425179360197E+002 -0.712653503951806E+003
  0.672833717787919E-002  0.142444897224973E+004 -0.422182907141906E+001  0.587301998238974E+002 -0.161020055208175E+000  0.250050897132081E+000 -0.383467078075578E+000 -0.144425179360197E+002 -0.714683098432431E+003
  0.672833717787919E-002  0.141719177226007E+004 -0.134979565920422E+002  0.578603526890290E+002 -0.300673270735658E+000  0.325030132317917E+000  0.256668289932183E-001 -0.144425179360197E+002 -0.711054498437602E+003
  0.672833717787919E-002  0.141724893970439E+004  0.302877264349737E+001  0.573933931267123E+002 -0.215489739119919E+000  0.335841728890895E+000 -0.105420374980723E+000 -0.144425179360197E+002 -0.711083082159761E+003
  0.672833717787919E-002  0.142451527630243E+004  0.972824520812888E+001  0.673525909075394E+002 -0.199777708649910E+000  0.934253862158982E-001 -0.569018256523318E+000 -0.144425179360197E+002 -0.714716250458784E+003
  0.672833717787919E-002  0.142994548462694E+004 -0.233263910527979E+001  0.780477139926450E+002 -0.598705322496332E+000  0.307735837867026E+001  0.799106252312197E+001 -0.144425179360197E+002 -0.718265566154764E+003
  0.672833717787919E-002  0.143077058667981E+004 -0.111560565846240E+002  0.721063555839424E+002 -0.570058991573182E+000  0.228838815030141E+001  0.780828876570198E+001 -0.144425179360197E+002 -0.718678117181201E+003
  0.672833717787919E-002  0.141609844822413E+004 -0.960667094994466E+001  0.733017057781188E+002 -0.312370562949760E+000  0.296597258329843E+000 -0.207792185904925E-001 -0.144425179360197E+002 -0.710507836419631E+003
  0.672833717787919E-002  0.141734463217381E+004 -0.308045199107304E+001  0.691871774978047E+002 -0.255848998485485E+000  0.278205680044334E+000 -0.183234295740949E+000 -0.144425179360197E+002 -0.711130928394471E+003
  0.672833717787919E-002  0.141873316208793E+004 -0.144276275999221E+002  0.599794943945633E+002 -0.162328343543396E+000  0.310864474927664E+000 -0.312470834758550E+000 -0.144425179360197E+002 -0.711825193351532E+003
  0.672833717787919E-002  0.141858163896452E+004 -0.716698097604979E+001  0.574057843974638E+002 -0.252690932272936E+000  0.392299607398915E+000 -0.153054146937921E+000 -0.144425179360197E+002 -0.711749431789826E+003
  0.672833717787919E-002  0.143024604091638E+004 -0.131387092243064E+002  0.766353197879513E+002 -0.475427913733029E+000  0.188905308606532E+001  0.624946744015147E+001 -0.144425179360197E+002 -0.718415844299485E+003
  0.672833717787919E-002  0.142480501198183E+004 -0.190458142516675E+002  0.623178608734966E+002 -0.196620471003428E+000  0.372147323824469E+000 -0.919847150214126E+000 -0.144425179360197E+002 -0.714861118298481E+003
  0.672833717787919E-002  0.142529005036187E+004  0.513872240519543E+001  0.768390779305140E+002 -0.279569685692497E+000  0.344589720148818E+000 -0.531229422294146E-001 -0.144425179360197E+002 -0.715103637488501E+003
  0.672833717787919E-002  0.143046091355111E+004  0.144107891367808E+002  0.678830144448124E+002 -0.739877633126876E+000  0.370836803399128E+001  0.628563233886785E+001 -0.144425179360197E+002 -0.718523280616849E+003
  0.672833717787919E-002  0.141903378174449E+004  0.533258038041769E+000  0.571766917611393E+002 -0.155204468847821E+000  0.328038423112663E+000 -0.523972034386285E+000 -0.144425179360197E+002 -0.711975503179810E+003
  0.672833717787919E-002  0.141781003018892E+004 -0.852528683382186E+001  0.667161581986176E+002 -0.280868043865681E+000  0.245586998721594E+000 -0.234890972215993E+000 -0.144425179360197E+002 -0.711363627402027E+003
  0.672833717787919E-002  0.141781867685264E+004 -0.129093086948895E+002  0.575016514779744E+002 -0.180368882491959E+000  0.329955115409040E+000 -0.436602232877719E+000 -0.144425179360197E+002 -0.711367950733890E+003
  0.672833717787919E-002  0.141906898344796E+004 -0.186424807923340E+002  0.661871621846312E+002 -0.203865396927662E+000  0.238267833789213E+000 -0.392037215114582E+000 -0.144425179360197E+002 -0.711993104031547E+003
  0.672833717787919E-002  0.141913261333309E+004 -0.359439048866633E+001  0.609044488162470E+002 -0.198478896204369E+000  0.274449768183981E+000 -0.558627171353919E+000 -0.144425179360197E+002 -0.712024918974113E+003
  0.672833717787919E-002  0.141919509427732E+004 -0.295421852797584E+001  0.635047401820581E+002 -0.199989601750594E+000  0.220535223578560E+000 -0.552693678499175E+000 -0.144425179360197E+002 -0.712056159446227E+003
  0.672833717787919E-002  0.142581449740095E+004 -0.179857789664571E+002  0.667579561042148E+002 -0.150071956467174E+000  0.122759329397808E+000 -0.615087816904266E+000 -0.144425179360197E+002 -0.715365861008044E+003
  0.672833717787919E-002  0.142039093593237E+004 -0.167940065759567E+002  0.611046919290538E+002 -0.278754107404801E+000  0.331253416808257E+000 -0.153503107454609E+000 -0.144425179360197E+002 -0.712654080273752E+003
  0.672833717787919E-002  0.142238012427832E+004 -0.121612251229460E+002  0.715709365963703E+002 -0.230226837372900E+000  0.244160570571154E+000 -0.381993778081382E+000 -0.144425179360197E+002 -0.713648674446728E+003
  0.672833717787919E-002  0.141930189419765E+004 -0.157416714203406E+002  0.643731727977797E+002 -0.293959381747526E+000  0.294701490081356E+000 -0.191125067112544E+000 -0.144425179360197E+002 -0.712109559406391E+003
  0.672833717787919E-002  0.141589927205059E+004 -0.751001273310971E+001  0.687900860566864E+002 -0.254848646197070E+000  0.217845541111395E+000 -0.955800734455519E-001 -0.144425179360197E+002 -0.710408248332862E+003
  0.672833717787919E-002  0.142043703187648E+004  0.845443820156445E+001  0.574796405767289E+002 -0.148646274969864E+000  0.286888222810170E+000 -0.354500583851751E+000 -0.144425179360197E+002 -0.712677128245805E+003
  0.672833717787919E-002  0.141942532192788E+004 -0.703464147321698E+001  0.687547942580756E+002 -0.215251676076344E+000  0.200800372649982E+000 -0.265818180577700E+000 -0.144425179360197E+002 -0.712171273271509E+003
  0.672833717787919E-002  0.142224195696810E+004 -0.175361486591932E+001  0.612025088284593E+002 -0.112469582451699E+000  0.319146202307694E+000 -0.556489009074863E+000 -0.144425179360197E+002 -0.713579590791620E+003
  0.672833717787919E-002  0.142214934375275E+004 -0.453491756416671E+001  0.710629986596150E+002 -0.313412185236552E+000  0.158601233665102E+000  0.299204009984386E-001 -0.144425179360197E+002 -0.713533284183943E+003
  0.672833717787919E-002  0.141828620366457E+004 -0.142427744080412E+002  0.633982617892130E+002 -0.177998149475643E+000  0.267375767820587E+000 -0.397902073206232E+000 -0.144425179360197E+002 -0.711601714139854E+003
  0.672833717787919E-002  0.142046060870705E+004  0.294882503494443E+001  0.688903880709738E+002 -0.232013957908491E+000  0.160025881918605E+000 -0.283190659786182E+000 -0.144425179360197E+002 -0.712688916661090E+003
  0.672833717787919E-002  0.141945281636235E+004 -0.194702789096666E+002  0.565355924413236E+002 -0.110687290821657E+000  0.338504532133811E+000 -0.559459468459259E+000 -0.144425179360197E+002 -0.712185020488740E+003
  0.672833717787919E-002  0.141855526916476E+004 -0.141939836320329E+002  0.672198851319780E+002 -0.221978123501591E+000  0.238873593931413E+000 -0.419835328577017E+000 -0.144425179360197E+002 -0.711736246889947E+003
  0.672833717787919E-002  0.142200052504796E+004 -0.145254346810733E+002  0.634187586164052E+002 -0.165247347956847E+000  0.284305003339808E+000 -0.102819069219099E+001 -0.144425179360197E+002 -0.713458874831546E+003
  0.672833717787919E-002  0.142193884007403E+004  0.109657370722828E+001  0.707527170417118E+002 -0.230403894121930E+000  0.152462736739698E+000 -0.346017114205932E+000 -0.144425179360197E+002 -0.713428032344583E+003
  0.672833717787919E-002  0.141829000649409E+004 -0.119743200937398E+002  0.740657987284035E+002 -0.319065258013698E+000  0.266080968346271E+000 -0.159386405430499E-001 -0.144425179360197E+002 -0.711603615554612E+003
  0.672833717787919E-002  0.141554977824795E+004 -0.142275691246304E+002  0.626903266268130E+002 -0.177390881186788E+000  0.306908308420226E+000 -0.375355359463159E+000 -0.144425179360197E+002 -0.710233501431543E+003
  0.672833717787919E-002  0.142174384860435E+004 -0.138444254981869E+002  0.711693404749295E+002 -0.234621336373864E+000  0.210195937555845E+000 -0.298312035668880E+000 -0.144425179360197E+002 -0.713330536609740E+003
  0.672833717787919E-002  0.142170685390702E+004  0.741174066452349E+001  0.572019758693228E+002 -0.215034720217504E+000  0.331207880007626E+000 -0.245590590869494E+000 -0.144425179360197E+002 -0.713312039261079E+003
  0.672833717787919E-002  0.141558142629740E+004 -0.863745685111456E+001  0.656879854913939E+002 -0.300343331727126E+000  0.303782279240031E+000 -0.745088584227798E-001 -0.144425179360197E+002 -0.710249325456269E+003
  0.672833717787919E-002  0.141558526694405E+004 -0.126461422786014E+002  0.551202792225703E+002 -0.243221260976899E+000  0.331456354418513E+000 -0.503088775765725E-001 -0.144425179360197E+002 -0.710251245779594E+003
  0.672833717787919E-002  0.142052828382377E+004  0.951492277908460E+001  0.608513254705009E+002 -0.133989797826244E+000  0.291316159870567E+000 -0.854386806665410E+000 -0.144425179360197E+002 -0.712722754219452E+003
  0.672833717787919E-002  0.141585293507064E+004 -0.101590547152835E+002  0.542480173592163E+002 -0.293768878888772E+000  0.358305090052377E+000 -0.626753490486518E-001 -0.144425179360197E+002 -0.710385079842889E+003
  0.672833717787919E-002  0.141956269947021E+004  0.166741759396957E+001  0.565924476702069E+002 -0.236994426266829E+000  0.319497229320488E+000 -0.115814017297030E+000 -0.144425179360197E+002 -0.712239962042671E+003
  0.672833717787919E-002  0.141957856801429E+004 -0.100578557377962E+002  0.725204143081798E+002 -0.310852477195124E+000  0.203817123468113E+000 -0.106949527939808E+000 -0.144425179360197E+002 -0.712247896314711E+003
  0.672833717787919E-002  0.141584249076995E+004 -0.158431865976290E+002  0.564072343699771E+002 -0.281540564236870E+000  0.329490784738366E+000 -0.733515964552112E-002 -0.144425179360197E+002 -0.710379857692542E+003
  0.672833717787919E-002  0.141855310837884E+004 -0.174274407755897E+002  0.672704749274206E+002 -0.192099763047728E+000  0.253531347637068E+000 -0.445456524286023E+000 -0.144425179360197E+002 -0.711735166496985E+003
  0.672833717787919E-002  0.142148221384320E+004  0.760154020104856E+001  0.713996921138607E+002 -0.330864313828424E+000  0.217683576570707E+000 -0.900244733727611E-001 -0.144425179360197E+002 -0.713199719229168E+003
  0.672833717787919E-002  0.142145932908418E+004 -0.101372138644128E+002  0.575102694848826E+002 -0.188294286601691E+000  0.407990435295064E+000 -0.245547355784547E+000 -0.144425179360197E+002 -0.713188276849659E+003
  0.672833717787919E-002  0.141562810765011E+004 -0.871647592980430E+000  0.640941033901628E+002 -0.281133833749894E+000  0.270596711874354E+000 -0.172950682594648E+000 -0.144425179360197E+002 -0.710272666132623E+003
  0.672833717787919E-002  0.141579586154899E+004  0.545262740119600E+000  0.628763962194363E+002 -0.169866336311906E+000  0.273358055904007E+000 -0.319373524387334E+000 -0.144425179360197E+002 -0.710356543082062E+003
  0.672833717787919E-002  0.141984577043334E+004  0.950629453426442E+001  0.670570512335103E+002 -0.336846212185590E+000  0.310954504525164E+000 -0.443813573449869E-001 -0.144425179360197E+002 -0.712381497524237E+003
  0.672833717787919E-002  0.141986326011540E+004 -0.999582104038975E+001  0.657614746748032E+002 -0.146372435939088E+000  0.290586167650938E+000 -0.470635599941923E+000 -0.144425179360197E+002 -0.712390242365269E+003
  0.672833717787919E-002  0.141848327090549E+004  0.347406399698650E+001  0.718929761471917E+002 -0.271963923946294E+000  0.291020093614662E+000 -0.126229026083694E+000 -0.144425179360197E+002 -0.711700247760313E+003
  0.672833717787919E-002  0.141577369098618E+004 -0.892773940818195E+001  0.573126121152636E+002 -0.330223068831822E+000  0.359114971525550E+000 -0.484975392657283E-002 -0.144425179360197E+002 -0.710345457800658E+003
  0.672833717787919E-002  0.141997230508640E+004  0.447787639581804E+000  0.664957377965820E+002 -0.244444133667541E+000  0.272340431268494E+000 -0.353726723536429E+000 -0.144425179360197E+002 -0.712444764850765E+003
  0.672833717787919E-002  0.141992104772245E+004  0.167678416616905E+001  0.610122161807782E+002 -0.182467595689298E+000  0.249035112278251E+000 -0.715484737222225E+000 -0.144425179360197E+002 -0.712419136168793E+003
  0.672833717787919E-002  0.141993204149214E+004 -0.116433886035429E+001  0.729784569068299E+002 -0.346535983052370E+000  0.216502031339437E+000  0.461503938385661E-001 -0.144425179360197E+002 -0.712424633053638E+003
  0.672833717787919E-002  0.141058193594235E+004  0.100274945656200E+002  0.660516789825798E+002 -0.326913870783428E+000  0.350213891301285E+000 -0.149611013043423E-001 -0.144425179360197E+002 -0.706342130888930E+003
  0.672833717787919E-002  0.141047471402387E+004  0.808780145059965E+001  0.666594011243257E+002 -0.336483689093887E+000  0.335645070666173E+000  0.189098985977747E-001 -0.144425179360197E+002 -0.706288519929690E+003
  0.672833717787919E-002  0.140897335576238E+004  0.800244329853956E+001  0.653148529180990E+002 -0.284534100257732E+000  0.343965233543018E+000 -0.376434660583751E-001 -0.144425179360197E+002 -0.705537840798947E+003
  0.672833717787919E-002  0.140888000714282E+004  0.889565444414695E+001  0.633277030553468E+002 -0.340323921886792E+000  0.354416590468607E+000  0.368524869253761E-003 -0.144425179360197E+002 -0.705491166489165E+003
  0.672833717787919E-002  0.140880178538970E+004  0.981301237804146E+001  0.637208411009802E+002 -0.244849487047273E+000  0.353298421006584E+000 -0.937559572339257E-001 -0.144425179360197E+002 -0.705452055612609E+003
  0.672833717787919E-002  0.140813042219811E+004  0.754349571812427E+001  0.644289702551817E+002 -0.290948767888542E+000  0.349674078681048E+000 -0.426701061478152E-001 -0.144425179360197E+002 -0.705116374016810E+003
  0.672833717787919E-002  0.140809371946259E+004  0.866202135970677E+001  0.636716239239283E+002 -0.292677501707346E+000  0.340049748734080E+000 -0.320941065445250E-001 -0.144425179360197E+002 -0.705098022649054E+003
  0.672833717787919E-002  0.140714373813472E+004  0.968230939740638E+001  0.627262247241673E+002 -0.230977287477054E+000  0.350156217196154E+000 -0.102114766539362E+000 -0.144425179360197E+002 -0.704623031985119E+003
  0.672833717787919E-002  0.140702345469366E+004  0.973739461448860E+001  0.625074233348987E+002 -0.241730037681939E+000  0.341239667611096E+000 -0.766954635431532E-001 -0.144425179360197E+002 -0.704562890264585E+003
  0.672833717787919E-002  0.140678818227267E+004  0.114231559920366E+002  0.647479631370151E+002 -0.308713929976618E+000  0.349240957694793E+000 -0.295069304437767E-001 -0.144425179360197E+002 -0.704445254054094E+003
  0.672833717787919E-002  0.140517798528314E+004  0.100255597591052E+002  0.626546849792244E+002 -0.233496837990339E+000  0.350362011344356E+000 -0.100305195453323E+000 -0.144425179360197E+002 -0.703640155559328E+003
