  0.213127104916870E-001  0.141039147683833E+004  0.605718211716848E+001  0.603716828045360E+002 -0.238643557429143E+000  0.361862336664433E+000 -0.113294522101597E+000 -0.144425179360197E+002 -0.706273101389359E+003
  0.213127104916870E-001  0.141183328491106E+004  0.141085464822249E+002  0.575833018250537E+002 -0.211709664153480E+000  0.363562234294959E+000 -0.145861798554193E+000 -0.144425179360197E+002 -0.706994005425723E+003
  0.213127104916870E-001  0.141186750941665E+004  0.421047018476981E+001  0.639646013338508E+002 -0.345803921665571E+000  0.357813445699870E+000  0.849767149411562E-002 -0.144425179360197E+002 -0.707011117678516E+003
  0.213127104916870E-001  0.142939645269746E+004  0.471867732885884E+001  0.622269812153349E+002 -0.107059355511271E+000  0.346764811977030E+000 -0.162822461061496E+001 -0.144425179360197E+002 -0.716532341250065E+003
  0.213127104916870E-001  0.141493986680124E+004  0.583172662339449E+001  0.623326303598150E+002 -0.248532249307723E+000  0.333049736308712E+000 -0.742318754995868E-001 -0.144425179360197E+002 -0.708667651308327E+003
  0.213127104916870E-001  0.143240389008542E+004  0.999358655061952E+001  0.742176205770884E+002 -0.461235867354834E+000  0.145129528515566E+001  0.482539479973719E+001 -0.144425179360197E+002 -0.718870271477772E+003
  0.213127104916870E-001  0.142966501848006E+004 -0.111491030967444E+002  0.706820357558310E+002 -0.180247206860441E+000  0.146042195260199E+000 -0.963836672739820E+000 -0.144425179360197E+002 -0.716666624141369E+003
  0.213127104916870E-001  0.142967811830260E+004  0.495852240614285E+001  0.612126451477700E+002 -0.159328963946812E+000  0.400496332670865E+000 -0.128282829658727E+001 -0.144425179360197E+002 -0.716673174052638E+003
  0.213127104916870E-001  0.143686092904928E+004  0.101023728427004E+002  0.820958305772308E+002 -0.766610341626886E+000  0.352440221274570E+001  0.988117792790498E+001 -0.144425179360197E+002 -0.721098790959703E+003
  0.213127104916870E-001  0.141501143181916E+004  0.334847875732455E+001  0.649027429291788E+002 -0.284379921029073E+000  0.317929214808669E+000 -0.988534606860885E-001 -0.144425179360197E+002 -0.708703433817288E+003
  0.213127104916870E-001  0.142378903672849E+004  0.722454500952788E+001  0.590073467353619E+002 -0.169152850531529E+000  0.223116548677789E+000 -0.387591509867406E+000 -0.144425179360197E+002 -0.713728633265582E+003
  0.213127104916870E-001  0.144015743835196E+004 -0.416490529992043E+001  0.649465494495385E+002 -0.459343307031286E+000  0.246701908793536E+001  0.913272815981789E+001 -0.144425179360197E+002 -0.722747045611044E+003
  0.213127104916870E-001  0.141510944677869E+004  0.840831268816982E+001  0.630433132393343E+002 -0.214381330073546E+000  0.275056545639881E+000 -0.269652141092338E+000 -0.144425179360197E+002 -0.708752441297057E+003
  0.213127104916870E-001  0.141214072940822E+004  0.120562869497788E+002  0.554005913363758E+002 -0.252311032726014E+000  0.359853828129446E+000 -0.104271187579915E+000 -0.144425179360197E+002 -0.707147727674305E+003
  0.213127104916870E-001  0.143066759734637E+004 -0.128669999742829E+002  0.749384983122482E+002 -0.224995362752365E+000  0.216127721044030E+000 -0.225993575066390E+000 -0.144425179360197E+002 -0.717167913574521E+003
  0.213127104916870E-001  0.141526321689311E+004  0.803088887360311E+001  0.558199232870033E+002 -0.201719662070221E+000  0.339247762930661E+000 -0.992128188537649E-001 -0.144425179360197E+002 -0.708829326354266E+003
  0.213127104916870E-001  0.141069272002764E+004  0.246236038709077E+001  0.717313750540704E+002 -0.337335274403699E+000  0.353802043194367E+000 -0.338168850940690E-002 -0.144425179360197E+002 -0.706423722984015E+003
  0.213127104916870E-001  0.141563720370192E+004  0.216286218508603E+001  0.557536389719227E+002 -0.275647817005690E+000  0.358956307720202E+000 -0.677496584818584E-001 -0.144425179360197E+002 -0.709016319758667E+003
  0.213127104916870E-001  0.143252059231156E+004  0.184604760743839E+002  0.700698876473084E+002 -0.513340442407400E+000  0.261616573847589E+001  0.726285956608295E+001 -0.144425179360197E+002 -0.718928622590846E+003
  0.213127104916870E-001  0.142133576063418E+004  0.173068713346132E+001  0.661078333801711E+002 -0.227471826598237E+000  0.242248463512452E+000 -0.541795578391588E+000 -0.144425179360197E+002 -0.712501995218429E+003
  0.213127104916870E-001  0.141076534748484E+004  0.379670373106283E+001  0.699989826659263E+002 -0.287308944514779E+000  0.343683592224996E+000 -0.421970530970768E-001 -0.144425179360197E+002 -0.706460036712612E+003
  0.213127104916870E-001  0.141869008353635E+004 -0.468035974083766E+001  0.589352576672893E+002 -0.176470091121756E+000  0.318995181564567E+000 -0.468088010666236E+000 -0.144425179360197E+002 -0.711179156669513E+003
  0.213127104916870E-001  0.141621673688286E+004  0.769409719756406E+001  0.647629344008180E+002 -0.240027675645090E+000  0.286267651332922E+000 -0.269493727204228E+000 -0.144425179360197E+002 -0.709306086349141E+003
  0.213127104916870E-001  0.142133700558892E+004 -0.158511670617312E+002  0.669896735849102E+002 -0.206215124304651E+000  0.323000284832505E+000 -0.363231848599934E+000 -0.144425179360197E+002 -0.712502617695798E+003
  0.213127104916870E-001  0.141240141806652E+004  0.603849286742361E+001  0.602239713604701E+002 -0.292052481331862E+000  0.325006317902244E+000 -0.518295693467508E-003 -0.144425179360197E+002 -0.707278072003454E+003
  0.213127104916870E-001  0.142412748372554E+004  0.618040254528580E+001  0.686169851520290E+002 -0.267549924320757E+000  0.112914854924052E+000 -0.105024306566285E+000 -0.144425179360197E+002 -0.713897856764108E+003
  0.213127104916870E-001  0.142140181674031E+004 -0.151965097532000E+002  0.745081835214247E+002 -0.305308552374941E+000  0.262559901235816E+000  0.169813422276128E-001 -0.144425179360197E+002 -0.712535023271493E+003
  0.213127104916870E-001  0.141668037799559E+004  0.368289081674872E+001  0.632979670489586E+002 -0.351592405819163E+000  0.337155239557491E+000  0.187521556847834E-001 -0.144425179360197E+002 -0.709537906905505E+003
  0.213127104916870E-001  0.141095611088253E+004  0.143559529209314E+002  0.562580419173691E+002 -0.236496807797553E+000  0.370339878188551E+000 -0.135721961797984E+000 -0.144425179360197E+002 -0.706555418411456E+003
  0.213127104916870E-001  0.143032185345523E+004  0.158392983812627E+002  0.677791041328562E+002 -0.735753238209488E+000  0.405161507735885E+001  0.886672628124787E+001 -0.144425179360197E+002 -0.717829253162679E+003
  0.213127104916870E-001  0.143263964758857E+004  0.171744519230358E+002  0.744536671874678E+002 -0.877727314370165E+000  0.465734079044088E+001  0.737551505206542E+001 -0.144425179360197E+002 -0.718988150229351E+003
  0.213127104916870E-001  0.141257294890045E+004  0.117613692777564E+002  0.597632306856990E+002 -0.256037667449812E+000  0.370045726576931E+000 -0.109640358959270E+000 -0.144425179360197E+002 -0.707363837420420E+003
  0.213127104916870E-001  0.141718841143702E+004  0.814856786570637E+001  0.545638615322632E+002 -0.198989100651118E+000  0.341267484218965E+000 -0.107950458876386E+000 -0.144425179360197E+002 -0.709791923626220E+003
  0.213127104916870E-001  0.141871496217735E+004 -0.930475062134435E+001  0.628721054595089E+002 -0.150077762016819E+000  0.302771553428856E+000 -0.631178090065777E+000 -0.144425179360197E+002 -0.711191595990014E+003
  0.213127104916870E-001  0.141731280056094E+004  0.488510870468873E+001  0.661233188602157E+002 -0.255582461473423E+000  0.260571840991415E+000 -0.232409447933332E+000 -0.144425179360197E+002 -0.709854118188179E+003
  0.213127104916870E-001  0.143265367361862E+004 -0.141060186746252E+002  0.786031281187655E+002 -0.590188219496478E+000  0.213714955113309E+001  0.473629771698884E+001 -0.144425179360197E+002 -0.718995163244375E+003
  0.213127104916870E-001  0.141268739048333E+004  0.279901516564860E+001  0.565075530896012E+002 -0.260287502572133E+000  0.353725236069328E+000 -0.782660281174525E-001 -0.144425179360197E+002 -0.707421058211860E+003
  0.213127104916870E-001  0.141283416608631E+004  0.269884508957346E+001  0.590744754180431E+002 -0.255874753403276E+000  0.349957122845481E+000 -0.649967799677746E-001 -0.144425179360197E+002 -0.707494446013348E+003
  0.213127104916870E-001  0.142146001068962E+004 -0.950379971072535E+001  0.684420514366294E+002 -0.304720802877112E+000  0.351720180220879E+000 -0.688842238928107E-001 -0.144425179360197E+002 -0.712564120246148E+003
  0.213127104916870E-001  0.141754564515580E+004  0.412403483990643E+001  0.618875708610201E+002 -0.279609478832132E+000  0.299780361487473E+000 -0.566910278626391E-001 -0.144425179360197E+002 -0.709970540485607E+003
  0.213127104916870E-001  0.143270506771004E+004 -0.202648869389250E+001  0.647469141629904E+002 -0.732958015953939E+000  0.395489675313311E+001  0.919697941222854E+001 -0.144425179360197E+002 -0.719020860290083E+003
  0.213127104916870E-001  0.143426766070737E+004  0.127794402762754E+002  0.780892349945022E+002 -0.609410090297932E+000  0.321843017345690E+001  0.663966078336078E+001 -0.144425179360197E+002 -0.719802156788748E+003
  0.213127104916870E-001  0.142433374726235E+004 -0.170923497266732E+002  0.712401246207306E+002 -0.381212147135517E+000  0.223653120384525E+000  0.599206558759029E-001 -0.144425179360197E+002 -0.714000988532510E+003
  0.213127104916870E-001  0.141771540766089E+004  0.870559958717546E+001  0.598307100139640E+002 -0.247072318329513E+000  0.325013542848859E+000 -0.237984870617236E-001 -0.144425179360197E+002 -0.710055421738154E+003
  0.213127104916870E-001  0.142444778392857E+004  0.704813731340685E+001  0.602687190127540E+002 -0.108944513938923E+000  0.290343096933894E+000 -0.942253620387941E+000 -0.144425179360197E+002 -0.714058006865623E+003
  0.213127104916870E-001  0.141782974854091E+004  0.507562512256093E+001  0.638945026118659E+002 -0.302758236995370E+000  0.322578990238679E+000 -0.751689487978364E-001 -0.144425179360197E+002 -0.710112592178162E+003
  0.213127104916870E-001  0.141902495462973E+004 -0.652055233064463E+001  0.622566850804009E+002 -0.133008796055839E+000  0.312465754413118E+000 -0.698012601334613E+000 -0.144425179360197E+002 -0.711346592216204E+003
  0.213127104916870E-001  0.143070264218313E+004  0.176183133250603E+002  0.742990186440505E+002 -0.776124790075765E+000  0.359666799988589E+001  0.660931603168759E+001 -0.144425179360197E+002 -0.718019647526631E+003
  0.213127104916870E-001  0.141675281935335E+004  0.332554301152420E+001  0.559849880245865E+002 -0.207155104444070E+000  0.354985084160692E+000 -0.112339136385579E+000 -0.144425179360197E+002 -0.710210524578009E+003
  0.213127104916870E-001  0.142155534339232E+004  0.260691974599566E+001  0.634067971652035E+002 -0.309803466842174E+000  0.283801409553218E+000 -0.118612460440858E+000 -0.144425179360197E+002 -0.712611786597496E+003
  0.213127104916870E-001  0.143080210826901E+004  0.102538361449472E+002  0.760248008826053E+002 -0.529594053935509E+000  0.258244636145859E+001  0.794237878749246E+001 -0.144425179360197E+002 -0.718069380569570E+003
  0.213127104916870E-001  0.141679877306041E+004 -0.142275691246304E+002  0.626903266268130E+002 -0.177390881186788E+000  0.306908308420226E+000 -0.375355359463159E+000 -0.144425179360197E+002 -0.710233501431543E+003
  0.213127104916870E-001  0.141683426175652E+004 -0.126461422786014E+002  0.551202792225703E+002 -0.243221260976899E+000  0.331456354418513E+000 -0.503088775765725E-001 -0.144425179360197E+002 -0.710251245779594E+003
  0.213127104916870E-001  0.142495574684120E+004 -0.775483095716097E+001  0.586075052584464E+002 -0.109028093599712E+000  0.320460527086615E+000 -0.141195049820058E+001 -0.144425179360197E+002 -0.714311988321938E+003
  0.213127104916870E-001  0.141109646792187E+004  0.244675824496890E+001  0.583921425142841E+002 -0.213402161417035E+000  0.342497970568047E+000 -0.986565617249031E-001 -0.144425179360197E+002 -0.706625596931128E+003
  0.213127104916870E-001  0.142511301185047E+004  0.175863008117845E+001  0.713303209406874E+002 -0.216721327190152E+000  0.117736563997466E+000 -0.293578326331714E+000 -0.144425179360197E+002 -0.714390620826574E+003
  0.213127104916870E-001  0.143088005617565E+004  0.141981614887900E+000  0.645350333322041E+002 -0.166718920233425E+000 -0.126753968632718E-001 -0.101588803212269E+001 -0.144425179360197E+002 -0.718108354522892E+003
  0.213127104916870E-001  0.141904186470376E+004 -0.182875202514361E+002  0.727201520116200E+002 -0.321044032614123E+000  0.261363042291515E+000  0.326464338548469E-001 -0.144425179360197E+002 -0.711355047253218E+003
  0.213127104916870E-001  0.143343256272063E+004  0.112765040745916E+002  0.751599716381153E+002 -0.720836955617993E+000  0.391669580401599E+001  0.589000197299784E+001 -0.144425179360197E+002 -0.719384607795379E+003
  0.213127104916870E-001  0.141341208700968E+004  0.943182831334500E+001  0.561962131290205E+002 -0.208516996540771E+000  0.362443571212067E+000 -0.138630698517927E+000 -0.144425179360197E+002 -0.707783406475034E+003
  0.213127104916870E-001  0.141714826686305E+004 -0.751001273310971E+001  0.687900860566864E+002 -0.254848646197070E+000  0.217845541111395E+000 -0.955800734455519E-001 -0.144425179360197E+002 -0.710408248332862E+003
  0.213127104916870E-001  0.143093681949718E+004  0.789939974075063E+001  0.696888040256147E+002 -0.817450351298847E+000  0.408744135157980E+001  0.875435856305739E+001 -0.144425179360197E+002 -0.718136736183657E+003
  0.213127104916870E-001  0.141718082968447E+004 -0.174739423305893E+002  0.678046963941672E+002 -0.222824877597271E+000  0.271635898564650E+000 -0.292786048258368E+000 -0.144425179360197E+002 -0.710424529743573E+003
  0.213127104916870E-001  0.142556996279510E+004 -0.315140209801260E+000  0.561710182877504E+002 -0.130597762936818E+000  0.316519309084907E+000 -0.606112690614786E+000 -0.144425179360197E+002 -0.714619096298888E+003
  0.213127104916870E-001  0.141722296895763E+004 -0.124330951382323E+002  0.659584165712518E+002 -0.345576554497693E+000  0.300290340165502E+000  0.663061961569671E-001 -0.144425179360197E+002 -0.710445599380153E+003
  0.213127104916870E-001  0.143224021520994E+004 -0.141599904280760E+002  0.753106044921176E+002 -0.828127245221595E+000  0.392552236981332E+001  0.757260235732483E+001 -0.144425179360197E+002 -0.718788434040037E+003
  0.213127104916870E-001  0.142560199445709E+004  0.406755696466952E+001  0.649253654537572E+002 -0.231459725651078E+000  0.339963706994193E+000 -0.648742738335679E+000 -0.144425179360197E+002 -0.714635112129884E+003
  0.213127104916870E-001  0.142163877810094E+004  0.156457466043651E+001  0.722185763393186E+002 -0.315245839050433E+000  0.178680383934870E+000 -0.131213615877002E-002 -0.144425179360197E+002 -0.712653503951806E+003
  0.213127104916870E-001  0.142569796706219E+004 -0.422182907141906E+001  0.587301998238974E+002 -0.161020055208175E+000  0.250050897132081E+000 -0.383467078075578E+000 -0.144425179360197E+002 -0.714683098432431E+003
  0.213127104916870E-001  0.141731015530052E+004 -0.177254113939743E+002  0.635842022971413E+002 -0.245502006048706E+000  0.262835086647293E+000 -0.350899824014260E+000 -0.144425179360197E+002 -0.710489192551599E+003
  0.213127104916870E-001  0.142572107367526E+004 -0.108591257094736E+002  0.748408591009298E+002 -0.392080460144676E+000  0.225506303185384E+000  0.750573902451439E-001 -0.144425179360197E+002 -0.714694651738969E+003
  0.213127104916870E-001  0.142576427111489E+004  0.972824520812888E+001  0.673525909075394E+002 -0.199777708649910E+000  0.934253862158982E-001 -0.569018256523318E+000 -0.144425179360197E+002 -0.714716250458784E+003
  0.213127104916870E-001  0.141739746885120E+004  0.115828816315269E+002  0.590847451139698E+002 -0.208916786821572E+000  0.306190472922613E+000 -0.542571054798447E+000 -0.144425179360197E+002 -0.710532849326935E+003
  0.213127104916870E-001  0.141740534458724E+004 -0.166762406393778E+002  0.647614697744167E+002 -0.292046742126609E+000  0.263538474609372E+000 -0.105048199933131E+000 -0.144425179360197E+002 -0.710536787194957E+003
  0.213127104916870E-001  0.142585394286042E+004 -0.144844679954947E+002  0.684694893510771E+002 -0.349226386900657E+000  0.219762652546472E+000 -0.646184355659294E-001 -0.144425179360197E+002 -0.714761086331548E+003
  0.213127104916870E-001  0.141741006788177E+004  0.786613710276135E+001  0.657268002888513E+002 -0.285098791712558E+000  0.281608408317640E+000 -0.161002692879018E+000 -0.144425179360197E+002 -0.710539148842224E+003
  0.213127104916870E-001  0.143145243506796E+004 -0.528172110044964E+001  0.762713789281070E+002 -0.544991256392737E+000  0.270416289684721E+001  0.704223357617703E+001 -0.144425179360197E+002 -0.718394543969044E+003
  0.213127104916870E-001  0.141116932750325E+004  0.705240718893522E+001  0.620392640908535E+002 -0.345380306522167E+000  0.362878172074364E+000 -0.822664488295999E-002 -0.144425179360197E+002 -0.706662026721820E+003
  0.213127104916870E-001  0.143149503572884E+004 -0.131387092243064E+002  0.766353197879513E+002 -0.475427913733029E+000  0.188905308606532E+001  0.624946744015147E+001 -0.144425179360197E+002 -0.718415844299485E+003
  0.213127104916870E-001  0.142605400679429E+004 -0.190458142516675E+002  0.623178608734966E+002 -0.196620471003428E+000  0.372147323824469E+000 -0.919847150214126E+000 -0.144425179360197E+002 -0.714861118298481E+003
  0.213127104916870E-001  0.142653904517433E+004  0.513872240519543E+001  0.768390779305140E+002 -0.279569685692497E+000  0.344589720148818E+000 -0.531229422294146E-001 -0.144425179360197E+002 -0.715103637488501E+003
  0.213127104916870E-001  0.143170990836357E+004  0.144107891367808E+002  0.678830144448124E+002 -0.739877633126876E+000  0.370836803399128E+001  0.628563233886785E+001 -0.144425179360197E+002 -0.718523280616849E+003
  0.213127104916870E-001  0.143167178988609E+004  0.660161353838592E+001  0.715034530335486E+002 -0.759265740209775E+000  0.406926959134059E+001  0.624014458123800E+001 -0.144425179360197E+002 -0.718504221378111E+003
  0.213127104916870E-001  0.141749330100783E+004 -0.121958835054261E+002  0.623846812576652E+002 -0.238553566401396E+000  0.241296462996575E+000 -0.230828900320173E+000 -0.144425179360197E+002 -0.710580765405252E+003
  0.213127104916870E-001  0.141906767166511E+004 -0.129093086948895E+002  0.575016514779744E+002 -0.180368882491959E+000  0.329955115409040E+000 -0.436602232877719E+000 -0.144425179360197E+002 -0.711367950733890E+003
  0.213127104916870E-001  0.141751524338723E+004  0.744631138527122E+001  0.538159128843023E+002 -0.192394912720603E+000  0.342383174157376E+000 -0.114191639508027E+000 -0.144425179360197E+002 -0.710591736594950E+003
  0.213127104916870E-001  0.141934553497784E+004 -0.127048897492943E+002  0.633152574153858E+002 -0.203076432537787E+000  0.340352512050828E+000 -0.321128231081527E+000 -0.144425179360197E+002 -0.711506882390258E+003
  0.213127104916870E-001  0.141751588472343E+004  0.810704346097238E+001  0.671796216161929E+002 -0.274941269817681E+000  0.227384810964509E+000 -0.579421951028660E-001 -0.144425179360197E+002 -0.710592057263054E+003
  0.213127104916870E-001  0.142706349221341E+004 -0.179857789664571E+002  0.667579561042148E+002 -0.150071956467174E+000  0.122759329397808E+000 -0.615087816904266E+000 -0.144425179360197E+002 -0.715365861008044E+003
  0.213127104916870E-001  0.142163993074483E+004 -0.167940065759567E+002  0.611046919290538E+002 -0.278754107404801E+000  0.331253416808257E+000 -0.153503107454609E+000 -0.144425179360197E+002 -0.712654080273752E+003
  0.213127104916870E-001  0.141755723970496E+004 -0.409540686373272E+001  0.623626624159048E+002 -0.223452369789906E+000  0.335602285747334E+000 -0.549557286647158E-001 -0.144425179360197E+002 -0.710612734753815E+003
  0.213127104916870E-001  0.141120614560765E+004  0.109921781599240E+002  0.595350057291539E+002 -0.239559148472084E+000  0.370023422530046E+000 -0.136910160213105E+000 -0.144425179360197E+002 -0.706680435774018E+003
  0.213127104916870E-001  0.141945671781608E+004  0.927352224443801E+001  0.645136425800127E+002 -0.202303776255708E+000  0.247787904326557E+000 -0.548640672997154E+000 -0.144425179360197E+002 -0.711562473809377E+003
  0.213127104916870E-001  0.141765557179797E+004  0.497768799662209E+001  0.692693405674581E+002 -0.265492152735833E+000  0.221728931751411E+000 -0.707252609232931E-001 -0.144425179360197E+002 -0.710661900800321E+003
  0.213127104916870E-001  0.142350163016342E+004 -0.111052231068452E+002  0.704460449165236E+002 -0.208044771155794E+000  0.163235980718907E+000 -0.415425381775739E+000 -0.144425179360197E+002 -0.713584929983046E+003
  0.213127104916870E-001  0.141765693361089E+004  0.100355254712792E+001  0.667278691676537E+002 -0.270291124206211E+000  0.248632169090628E+000 -0.273278067149050E+000 -0.144425179360197E+002 -0.710662581706783E+003
  0.213127104916870E-001  0.141373176151399E+004  0.106265215273469E+002  0.548397409320225E+002 -0.189804305134488E+000  0.367369677368542E+000 -0.164447224768580E+000 -0.144425179360197E+002 -0.707943243727187E+003
  0.213127104916870E-001  0.141953519847703E+004 -0.142427744080412E+002  0.633982617892130E+002 -0.177998149475643E+000  0.267375767820587E+000 -0.397902073206232E+000 -0.144425179360197E+002 -0.711601714139854E+003
  0.213127104916870E-001  0.141765958231539E+004 -0.593070297499405E+001  0.596696908135958E+002 -0.196576579955397E+000  0.252740047624014E+000 -0.418552950609071E+000 -0.144425179360197E+002 -0.710663906059034E+003
  0.213127104916870E-001  0.141768209945706E+004  0.242453914609293E+000  0.667338087066690E+002 -0.216353084706107E+000  0.274828535257833E+000 -0.423474203283000E+000 -0.144425179360197E+002 -0.710675164629869E+003
  0.213127104916870E-001  0.142174107311968E+004  0.805131965898661E+001  0.602089674361222E+002 -0.133998295307965E+000  0.299326145114352E+000 -0.965466241632884E+000 -0.144425179360197E+002 -0.712704651461175E+003
  0.213127104916870E-001  0.141770761751304E+004  0.353785794078183E+001  0.544322155020679E+002 -0.196123789871020E+000  0.335359872239678E+000 -0.941256818941252E-001 -0.144425179360197E+002 -0.710687923657859E+003
  0.213127104916870E-001  0.142318783488649E+004  0.109657370722828E+001  0.707527170417118E+002 -0.230403894121930E+000  0.152462736739698E+000 -0.346017114205932E+000 -0.144425179360197E+002 -0.713428032344583E+003
  0.213127104916870E-001  0.141953900130655E+004 -0.119743200937398E+002  0.740657987284035E+002 -0.319065258013698E+000  0.266080968346271E+000 -0.159386405430499E-001 -0.144425179360197E+002 -0.711603615554612E+003
  0.213127104916870E-001  0.142305429079512E+004 -0.543871452207284E+001  0.580297174859284E+002 -0.150412224100564E+000  0.370262826848629E+000 -0.109848342694251E+001 -0.144425179360197E+002 -0.713361260298897E+003
  0.213127104916870E-001  0.141389762714076E+004  0.611926679533628E+001  0.590326406954474E+002 -0.241113340887233E+000  0.333922026554045E+000 -0.706317465046418E-001 -0.144425179360197E+002 -0.708026176540572E+003
  0.213127104916870E-001  0.142295584871948E+004  0.741174066452349E+001  0.572019758693228E+002 -0.215034720217504E+000  0.331207880007626E+000 -0.245590590869494E+000 -0.144425179360197E+002 -0.713312039261079E+003
  0.213127104916870E-001  0.142028277655695E+004  0.533258038041769E+000  0.571766917611393E+002 -0.155204468847821E+000  0.328038423112663E+000 -0.523972034386285E+000 -0.144425179360197E+002 -0.711975503179810E+003
  0.213127104916870E-001  0.142290539985390E+004  0.110722513434816E+002  0.666671583795813E+002 -0.289080718582534E+000  0.285861363747742E+000 -0.317659909755863E+000 -0.144425179360197E+002 -0.713286814828287E+003
  0.213127104916870E-001  0.142177727863623E+004  0.951492277908460E+001  0.608513254705009E+002 -0.133989797826244E+000  0.291316159870567E+000 -0.854386806665410E+000 -0.144425179360197E+002 -0.712722754219452E+003
  0.213127104916870E-001  0.141964060308359E+004  0.411305105275084E+001  0.708556173309173E+002 -0.216480248930730E+000  0.247164182254041E+000 -0.201888359462409E+000 -0.144425179360197E+002 -0.711654416443132E+003
  0.213127104916870E-001  0.142281349557226E+004 -0.902245401536492E+001  0.586350555648183E+002 -0.161704230615172E+000  0.255817904326047E+000 -0.834846930119671E+000 -0.144425179360197E+002 -0.713240862687467E+003
  0.213127104916870E-001  0.142012183772314E+004  0.996189688130509E+001  0.602126222401128E+002 -0.172406100673469E+000  0.342690744306363E+000 -0.556643108312967E+000 -0.144425179360197E+002 -0.711895033762906E+003
  0.213127104916870E-001  0.142273555704611E+004 -0.188314410774142E+001  0.572169268833153E+002 -0.124040954132772E+000  0.372895364390972E+000 -0.108498735690212E+001 -0.144425179360197E+002 -0.713201893424393E+003
  0.213127104916870E-001  0.142273427825297E+004 -0.159685915714541E+002  0.645920248559236E+002 -0.199930424466626E+000  0.261627819182591E+000 -0.788235443589727E+000 -0.144425179360197E+002 -0.713201254027824E+003
  0.213127104916870E-001  0.142273120865566E+004  0.760154020104856E+001  0.713996921138607E+002 -0.330864313828424E+000  0.217683576570707E+000 -0.900244733727611E-001 -0.144425179360197E+002 -0.713199719229168E+003
  0.213127104916870E-001  0.141124868494652E+004  0.138641102560537E+002  0.604883880751211E+002 -0.238404484622430E+000  0.345837268287401E+000 -0.804461599455522E-001 -0.144425179360197E+002 -0.706701705443453E+003
  0.213127104916870E-001  0.141151307061028E+004  0.366011579750028E+001  0.578619607215597E+002 -0.303704747841182E+000  0.343541867093631E+000 -0.251219696332967E-001 -0.144425179360197E+002 -0.706833898275332E+003
  0.213127104916870E-001  0.141810478918428E+004 -0.116589843812479E+002  0.701214364867411E+002 -0.274884765785526E+000  0.266152784663774E+000 -0.549635874130097E-001 -0.144425179360197E+002 -0.710886509493479E+003
  0.213127104916870E-001  0.141819595846098E+004 -0.348635871987933E+001  0.686419592929882E+002 -0.235790074333535E+000  0.259877424187173E+000 -0.168401446558160E+000 -0.144425179360197E+002 -0.710932094131825E+003
  0.213127104916870E-001  0.142264300882915E+004  0.957120288748931E+001  0.679605528394539E+002 -0.169201918891815E+000  0.250010976998770E+000 -0.432540926604375E+000 -0.144425179360197E+002 -0.713155619315911E+003
  0.213127104916870E-001  0.141155187200720E+004  0.926505281891944E+001  0.599952262502215E+002 -0.312399863358672E+000  0.355321768316104E+000 -0.284675755651538E-001 -0.144425179360197E+002 -0.706853298973794E+003
  0.213127104916870E-001  0.142218396018455E+004 -0.535926387942091E+001  0.732836723297809E+002 -0.254577956973409E+000  0.278258600837424E+000 -0.210612101634222E+000 -0.144425179360197E+002 -0.712926094993614E+003
  0.213127104916870E-001  0.142122129989886E+004  0.447787639581804E+000  0.664957377965820E+002 -0.244444133667541E+000  0.272340431268494E+000 -0.353726723536429E+000 -0.144425179360197E+002 -0.712444764850765E+003
  0.213127104916870E-001  0.142120875335378E+004  0.408127235021609E+001  0.677685586309312E+002 -0.296555195382617E+000  0.299622156873891E+000 -0.196798199843560E+000 -0.144425179360197E+002 -0.712438491578226E+003
  0.213127104916870E-001  0.141823295819253E+004 -0.914544267538378E+000  0.647336576363437E+002 -0.273663950381922E+000  0.294012174448113E+000 -0.161813932266774E-002 -0.144425179360197E+002 -0.710950593997601E+003
  0.213127104916870E-001  0.142038160814555E+004 -0.359439048866633E+001  0.609044488162470E+002 -0.198478896204369E+000  0.274449768183981E+000 -0.558627171353919E+000 -0.144425179360197E+002 -0.712024918974113E+003
  0.213127104916870E-001  0.141841400741281E+004 -0.863815741741414E+001  0.709940213030058E+002 -0.268675260703209E+000  0.275689855313349E+000 -0.359319145780432E-001 -0.144425179360197E+002 -0.711041118607743E+003
  0.213127104916870E-001  0.142116298496878E+004 -0.132571363757963E+002  0.699843394206925E+002 -0.383325327595443E+000  0.262740756654310E+000  0.917252203189847E-001 -0.144425179360197E+002 -0.712415607385728E+003
  0.213127104916870E-001  0.141849793451685E+004  0.302877264349737E+001  0.573933931267123E+002 -0.215489739119919E+000  0.335841728890895E+000 -0.105420374980723E+000 -0.144425179360197E+002 -0.711083082159761E+003
  0.213127104916870E-001  0.142038590921063E+004 -0.308411094641128E+001  0.657806120236430E+002 -0.168973502223961E+000  0.297267386597055E+000 -0.472038900963378E+000 -0.144425179360197E+002 -0.712027069506652E+003
  0.213127104916870E-001  0.142108054055333E+004  0.757893957780406E+001  0.633491167030901E+002 -0.156512517451844E+000  0.308647077521458E+000 -0.830566296778203E+000 -0.144425179360197E+002 -0.712374385178003E+003
  0.213127104916870E-001  0.141988921450278E+004 -0.435353929664089E+001  0.639201838544337E+002 -0.186274383860854E+000  0.331007869690289E+000 -0.481967940566619E+000 -0.144425179360197E+002 -0.711778722152726E+003
  0.213127104916870E-001  0.142099053263209E+004 -0.140728912205339E+002  0.635982854145215E+002 -0.212368864740399E+000  0.196211975188484E+000 -0.437011936724719E+000 -0.144425179360197E+002 -0.712329381217384E+003
  0.213127104916870E-001  0.142098313186007E+004 -0.369904169433151E+001  0.565008031762536E+002 -0.205139993357182E+000  0.330139453788338E+000 -0.410523506196972E+000 -0.144425179360197E+002 -0.712325680831373E+003
  0.213127104916870E-001  0.141859362698627E+004 -0.308045199107304E+001  0.691871774978047E+002 -0.255848998485485E+000  0.278205680044334E+000 -0.183234295740949E+000 -0.144425179360197E+002 -0.711130928394471E+003
  0.213127104916870E-001  0.142086669717027E+004 -0.192717435789099E+001  0.675142761624882E+002 -0.199429035277643E+000  0.209749422800353E+000 -0.468568523972028E+000 -0.144425179360197E+002 -0.712267463486471E+003
  0.213127104916870E-001  0.142055088901011E+004 -0.157416714203406E+002  0.643731727977797E+002 -0.293959381747526E+000  0.294701490081356E+000 -0.191125067112544E+000 -0.144425179360197E+002 -0.712109559406391E+003
  0.213127104916870E-001  0.142082756282675E+004 -0.100578557377962E+002  0.725204143081798E+002 -0.310852477195124E+000  0.203817123468113E+000 -0.106949527939808E+000 -0.144425179360197E+002 -0.712247896314711E+003
  0.213127104916870E-001  0.141998215690039E+004 -0.144276275999221E+002  0.599794943945633E+002 -0.162328343543396E+000  0.310864474927664E+000 -0.312470834758550E+000 -0.144425179360197E+002 -0.711825193351532E+003
  0.213127104916870E-001  0.142080731780155E+004  0.106206059735549E+002  0.670057044840853E+002 -0.178608897601883E+000  0.322466981864270E+000 -0.449078087422512E+000 -0.144425179360197E+002 -0.712237773802113E+003
  0.213127104916870E-001  0.141980426397722E+004 -0.141939836320329E+002  0.672198851319780E+002 -0.221978123501591E+000  0.238873593931413E+000 -0.419835328577017E+000 -0.144425179360197E+002 -0.711736246889947E+003
  0.213127104916870E-001  0.141998282099150E+004  0.481953722093233E+001  0.674447530800331E+002 -0.234049755373338E+000  0.229188234034885E+000 -0.323925892771843E+000 -0.144425179360197E+002 -0.711825525397087E+003
  0.213127104916870E-001  0.142067431674034E+004 -0.703464147321698E+001  0.687547942580756E+002 -0.215251676076344E+000  0.200800372649982E+000 -0.265818180577700E+000 -0.144425179360197E+002 -0.712171273271509E+003
  0.213127104916870E-001  0.142061371178563E+004 -0.189320700801434E+002  0.628804774180818E+002 -0.187874534900724E+000  0.271437323763696E+000 -0.533749245806616E+000 -0.144425179360197E+002 -0.712140970794154E+003
  0.213127104916870E-001  0.140962469345522E+004  0.383585548044923E+001  0.607173576187241E+002 -0.210258673056472E+000  0.360290596020791E+000 -0.136509622858625E+000 -0.144425179360197E+002 -0.705889709697801E+003
  0.213127104916870E-001  0.140948419070287E+004  0.515869586713746E+001  0.599725484138474E+002 -0.226887480651425E+000  0.349405153045767E+000 -0.100580125343066E+000 -0.144425179360197E+002 -0.705819458321628E+003
  0.213127104916870E-001  0.140947041322671E+004  0.129753636671268E+002  0.592089934716285E+002 -0.229719015922348E+000  0.355938350713676E+000 -0.110961572206147E+000 -0.144425179360197E+002 -0.705812569583546E+003
  0.213127104916870E-001  0.140912043502618E+004  0.322224319393892E+001  0.620393007374344E+002 -0.258944695070960E+000  0.336918174410000E+000 -0.573653553023341E-001 -0.144425179360197E+002 -0.705637580483282E+003
  0.213127104916870E-001  0.140877564534909E+004  0.823348716801020E+001  0.583792415066071E+002 -0.251521181851671E+000  0.351888822314425E+000 -0.899085476825761E-001 -0.144425179360197E+002 -0.705465185644738E+003
  0.213127104916870E-001  0.140870351355924E+004  0.412171106862449E+001  0.621592576221835E+002 -0.291737434051419E+000  0.359103379558356E+000 -0.595648797043768E-001 -0.144425179360197E+002 -0.705429119749812E+003
  0.213127104916870E-001  0.140862661161994E+004  0.373229051200915E+001  0.678004965413387E+002 -0.272412461472327E+000  0.350285165718125E+000 -0.644655025229621E-001 -0.144425179360197E+002 -0.705390668780165E+003
  0.213127104916870E-001  0.140846245757500E+004  0.105296755683334E+002  0.592672848517049E+002 -0.288407910873576E+000  0.341276161161945E+000 -0.341962456735754E-001 -0.144425179360197E+002 -0.705308591757694E+003
  0.213127104916870E-001  0.140809979520567E+004  0.952069273994844E+001  0.660242890682682E+002 -0.298648160136952E+000  0.347004539860930E+000 -0.377774031211011E-001 -0.144425179360197E+002 -0.705127260573030E+003
  0.213127104916870E-001  0.140780273839005E+004  0.778518547381058E+001  0.620933069982843E+002 -0.298863133715162E+000  0.336978447842501E+000 -0.192264266155959E-001 -0.144425179360197E+002 -0.704978732165220E+003
  0.213127104916870E-001  0.140741761429059E+004  0.884965473247682E+001  0.609571051199740E+002 -0.249130507517793E+000  0.344090447649876E+000 -0.767111408081185E-001 -0.144425179360197E+002 -0.704786170115487E+003
  0.213127104916870E-001  0.140723655029953E+004  0.751522808410525E+001  0.693416323235012E+002 -0.309775040575983E+000  0.349736795358355E+000 -0.283119474318596E-001 -0.144425179360197E+002 -0.704695638119957E+003
  0.213127104916870E-001  0.140717070561146E+004  0.926894236971631E+001  0.663709094399587E+002 -0.334326043508366E+000  0.348087660297177E+000  0.302045424503561E-002 -0.144425179360197E+002 -0.704662715775923E+003
  0.213127104916870E-001  0.140706630636447E+004  0.361434291210554E+001  0.647516393611735E+002 -0.320523869710672E+000  0.356448919836387E+000 -0.266310230326869E-001 -0.144425179360197E+002 -0.704610516152427E+003
  0.213127104916870E-001  0.140726354808650E+004  0.227025843780656E+001  0.614256413777096E+002 -0.287325433167822E+000  0.338831598178073E+000 -0.304698320115282E-001 -0.144425179360197E+002 -0.704496361080106E+003
  0.213127104916870E-001  0.140661702079680E+004  0.425139043095042E+001  0.605914071177378E+002 -0.268271545464125E+000  0.342654700727483E+000 -0.561987640136188E-001 -0.144425179360197E+002 -0.704173097435256E+003
  0.213127104916870E-001  0.140649038994362E+004  0.324561012973754E+001  0.622845479698377E+002 -0.288587519403975E+000  0.354693276047350E+000 -0.579027755703603E-001 -0.144425179360197E+002 -0.704109782008668E+003
  0.213127104916870E-001  0.140647229998044E+004  0.603265628243509E+001  0.632705154335611E+002 -0.269857035602699E+000  0.351877088787246E+000 -0.697274942240398E-001 -0.144425179360197E+002 -0.704100737027073E+003
  0.213127104916870E-001  0.140604081281234E+004  0.663963311075602E+001  0.617762146227647E+002 -0.290242808420238E+000  0.354206895623320E+000 -0.558140473238424E-001 -0.144425179360197E+002 -0.703884993443025E+003
