  0.100000000000000E+001  0.148486276665832E+004 -0.192877989805244E+002  0.721884338134309E+002 -0.432610844902156E+000  0.896826807386509E+000 -0.114467856624657E+002 -0.742431383329159E+003
  0.100000000000000E+001  0.147919890575225E+004 -0.192280114502309E+002  0.747720242082104E+002 -0.608012281700098E+000  0.198343484046774E+001 -0.114467856624657E+002 -0.739599452876124E+003
  0.100000000000000E+001  0.147935765304543E+004 -0.192471669921350E+002  0.737780522932035E+002 -0.636645616492032E+000  0.301338118842301E+001 -0.114467856624657E+002 -0.739678826522717E+003
  0.100000000000000E+001  0.147938766151598E+004 -0.193132325897611E+002  0.709674743378312E+002 -0.582444467286305E+000  0.252573830215434E+001 -0.114467856624657E+002 -0.739693830757991E+003
  0.100000000000000E+001  0.147968816415965E+004 -0.192314150991965E+002  0.735363168157906E+002 -0.568764132524070E+000  0.265221631663285E+001 -0.114467856624657E+002 -0.739844082079825E+003
  0.100000000000000E+001  0.147555287441559E+004 -0.192325188060832E+002  0.735913343713177E+002 -0.561714736855096E+000  0.242460461921608E+001 -0.114467856624657E+002 -0.737776437207796E+003
  0.100000000000000E+001  0.148466652995472E+004 -0.193020843774828E+002  0.718670922461261E+002 -0.621028430041989E+000  0.201509727983531E+001 -0.114467856624657E+002 -0.742333264977362E+003
  0.100000000000000E+001  0.148067376374926E+004 -0.192773644466495E+002  0.716718021295963E+002 -0.334099862899749E+000  0.599809137674577E+000 -0.114467856624657E+002 -0.740336881874630E+003
  0.100000000000000E+001  0.148082650830720E+004 -0.191860529017984E+002  0.756592683645318E+002 -0.488404557598974E+000  0.157548180119648E+001 -0.114467856624657E+002 -0.740413254153602E+003
  0.100000000000000E+001  0.148357504848714E+004 -0.193493473772651E+002  0.701110558990393E+002 -0.582119782147503E+000  0.259478621906172E+001 -0.114467856624657E+002 -0.741787524243568E+003
  0.100000000000000E+001  0.147563900086649E+004 -0.192757696417426E+002  0.732722278220325E+002 -0.726472733204621E+000  0.298270208613984E+001 -0.114467856624657E+002 -0.737819500433244E+003
  0.100000000000000E+001  0.148086012828793E+004 -0.192528645578595E+002  0.736616526496547E+002 -0.740928278920953E+000  0.315513098056709E+001 -0.114467856624657E+002 -0.740430064143965E+003
  0.100000000000000E+001  0.148087148288167E+004 -0.192862519343312E+002  0.714087858611718E+002 -0.362959557837035E+000  0.113899326792539E+001 -0.114467856624657E+002 -0.740435741440837E+003
  0.100000000000000E+001  0.148246333303239E+004 -0.191842402834638E+002  0.750370576466775E+002 -0.398376943938389E+000  0.137165102172945E+001 -0.114467856624657E+002 -0.741231666516197E+003
  0.100000000000000E+001  0.148220446934730E+004 -0.192802829599121E+002  0.729416677224705E+002 -0.778420557659439E+000  0.336704416405700E+001 -0.114467856624657E+002 -0.741102234673649E+003
  0.100000000000000E+001  0.148130150690517E+004 -0.192983783265806E+002  0.714076736508641E+002 -0.404122139096770E+000  0.126290041360117E+001 -0.114467856624657E+002 -0.740650753452587E+003
  0.100000000000000E+001  0.148195575002265E+004 -0.193102030169889E+002  0.716104936918482E+002 -0.674779070286831E+000  0.332243987852367E+001 -0.114467856624657E+002 -0.740977875011323E+003
  0.100000000000000E+001  0.148168181707124E+004 -0.193403113284763E+002  0.704985626554028E+002 -0.601544502797661E+000  0.219841810723292E+001 -0.114467856624657E+002 -0.740840908535620E+003
  0.100000000000000E+001  0.147564264102623E+004 -0.192457201723140E+002  0.734669636356041E+002 -0.647837374192249E+000  0.295734673168799E+001 -0.114467856624657E+002 -0.737821320513117E+003
  0.100000000000000E+001  0.147884900141238E+004 -0.193186938198197E+002  0.707210862911907E+002 -0.452353455935440E+000  0.157924968873490E+001 -0.114467856624657E+002 -0.739424500706189E+003
  0.100000000000000E+001  0.147876349546267E+004 -0.192826435307961E+002  0.720492328316745E+002 -0.614452035987214E+000  0.261512354936588E+001 -0.114467856624657E+002 -0.739381747731334E+003
  0.100000000000000E+001  0.147867106445846E+004 -0.192373570012205E+002  0.731374967324756E+002 -0.367489794259080E+000  0.679504820816367E+000 -0.114467856624657E+002 -0.739335532229229E+003
  0.100000000000000E+001  0.147861625156894E+004 -0.192836564588586E+002  0.729106980002335E+002 -0.762456310190595E+000  0.323661170504453E+001 -0.114467856624657E+002 -0.739308125784472E+003
  0.100000000000000E+001  0.147857134273823E+004 -0.192722395413673E+002  0.727891937253245E+002 -0.517950311511829E+000  0.135402250374448E+001 -0.114467856624657E+002 -0.739285671369116E+003
  0.100000000000000E+001  0.147850680784623E+004 -0.192036560054060E+002  0.755831536719877E+002 -0.671460967568029E+000  0.243967637256677E+001 -0.114467856624657E+002 -0.739253403923117E+003
  0.100000000000000E+001  0.147843647568762E+004 -0.192229703205026E+002  0.737381020128991E+002 -0.358291530250874E+000  0.651873842890696E+000 -0.114467856624657E+002 -0.739218237843809E+003
  0.100000000000000E+001  0.147842102730702E+004 -0.192249102597577E+002  0.748629699766865E+002 -0.608361670457770E+000  0.215713763989529E+001 -0.114467856624657E+002 -0.739210513653508E+003
  0.100000000000000E+001  0.147837557781555E+004 -0.193198861167271E+002  0.711840615449977E+002 -0.581412137670732E+000  0.251552201693485E+001 -0.114467856624657E+002 -0.739187788907774E+003
  0.100000000000000E+001  0.147569631840281E+004 -0.192653671435414E+002  0.726146677698675E+002 -0.596477036147219E+000  0.279411397434155E+001 -0.114467856624657E+002 -0.737848159201403E+003
  0.100000000000000E+001  0.147832953043235E+004 -0.192749918902423E+002  0.729439275805070E+002 -0.742580256296565E+000  0.328988727375895E+001 -0.114467856624657E+002 -0.739164765216174E+003
  0.100000000000000E+001  0.147831881074199E+004 -0.192762784161165E+002  0.729147829007418E+002 -0.563559708924306E+000  0.205567469736406E+001 -0.114467856624657E+002 -0.739159405370996E+003
  0.100000000000000E+001  0.147829402158257E+004 -0.192615285981408E+002  0.721967911047802E+002 -0.393196171197040E+000  0.138880517620447E+001 -0.114467856624657E+002 -0.739147010791286E+003
  0.100000000000000E+001  0.147828104687904E+004 -0.192151020448157E+002  0.738755479959705E+002 -0.466031138440986E+000  0.187151971687737E+001 -0.114467856624657E+002 -0.739140523439522E+003
  0.100000000000000E+001  0.147823191223307E+004 -0.192062261874818E+002  0.745890126600425E+002 -0.581756384919144E+000  0.237166364298299E+001 -0.114467856624657E+002 -0.739115956116533E+003
  0.100000000000000E+001  0.147820205528485E+004 -0.192781952573970E+002  0.720070749819558E+002 -0.569674907208531E+000  0.264143966694792E+001 -0.114467856624657E+002 -0.739101027642427E+003
  0.100000000000000E+001  0.147810701039357E+004 -0.192810393707154E+002  0.717374357944488E+002 -0.407379922818244E+000  0.146812314200038E+001 -0.114467856624657E+002 -0.739053505196783E+003
  0.100000000000000E+001  0.147808368068239E+004 -0.193115458049614E+002  0.719662422029694E+002 -0.713831027275597E+000  0.311875324130859E+001 -0.114467856624657E+002 -0.739041840341193E+003
  0.100000000000000E+001  0.147808103219806E+004 -0.192980050520685E+002  0.721552642034547E+002 -0.704858497627832E+000  0.333707442769809E+001 -0.114467856624657E+002 -0.739040516099031E+003
  0.100000000000000E+001  0.147790188949394E+004 -0.192039149793134E+002  0.746766579486174E+002 -0.506763387409686E+000  0.155253199461352E+001 -0.114467856624657E+002 -0.738950944746970E+003
  0.100000000000000E+001  0.147788495990360E+004 -0.193120019266697E+002  0.714945923107322E+002 -0.559045004138429E+000  0.179022602334456E+001 -0.114467856624657E+002 -0.738942479951800E+003
  0.100000000000000E+001  0.147787653185953E+004 -0.191879583438204E+002  0.757026374417537E+002 -0.623155815593468E+000  0.231167651071639E+001 -0.114467856624657E+002 -0.738938265929766E+003
  0.100000000000000E+001  0.147571350822578E+004 -0.192587289048147E+002  0.728109329254223E+002 -0.448538783372615E+000  0.110752970022411E+001 -0.114467856624657E+002 -0.737856754112892E+003
  0.100000000000000E+001  0.147768468727533E+004 -0.192405276970239E+002  0.736519432578144E+002 -0.464518815532295E+000  0.158818984384507E+001 -0.114467856624657E+002 -0.738842343637666E+003
  0.100000000000000E+001  0.147761233515567E+004 -0.192826327328609E+002  0.725835163116598E+002 -0.724223844108627E+000  0.331593723129096E+001 -0.114467856624657E+002 -0.738806167577833E+003
  0.100000000000000E+001  0.147753030327930E+004 -0.191842033553641E+002  0.760210676354431E+002 -0.614702379352639E+000  0.241395072210172E+001 -0.114467856624657E+002 -0.738765151639651E+003
  0.100000000000000E+001  0.147752488396729E+004 -0.192844723404944E+002  0.725646485065470E+002 -0.696618006124401E+000  0.332707582651605E+001 -0.114467856624657E+002 -0.738762441983645E+003
  0.100000000000000E+001  0.147752471682798E+004 -0.192302441261499E+002  0.734035653364751E+002 -0.474184559145266E+000  0.171917526094748E+001 -0.114467856624657E+002 -0.738762358413991E+003
  0.100000000000000E+001  0.147746641961579E+004 -0.192457724745441E+002  0.730623673604244E+002 -0.533479019500545E+000  0.251101825537119E+001 -0.114467856624657E+002 -0.738733209807895E+003
  0.100000000000000E+001  0.147579619838596E+004 -0.192300615413119E+002  0.740674565723161E+002 -0.508060365597264E+000  0.139208143349199E+001 -0.114467856624657E+002 -0.737898099192981E+003
  0.100000000000000E+001  0.147582203304716E+004 -0.192773750399668E+002  0.729875393147080E+002 -0.610100278075904E+000  0.230071771512417E+001 -0.114467856624657E+002 -0.737911016523581E+003
  0.100000000000000E+001  0.147738875543971E+004 -0.192438069625907E+002  0.742557602917299E+002 -0.655958829149500E+000  0.225860769366709E+001 -0.114467856624657E+002 -0.738694377719855E+003
  0.100000000000000E+001  0.147727510173480E+004 -0.193216800994064E+002  0.708225520116349E+002 -0.522288731663072E+000  0.211225096478968E+001 -0.114467856624657E+002 -0.738637550867402E+003
  0.100000000000000E+001  0.147727099983099E+004 -0.192185089863581E+002  0.741137762234437E+002 -0.433334252893771E+000  0.151314394488559E+001 -0.114467856624657E+002 -0.738635499915496E+003
  0.100000000000000E+001  0.147721210883120E+004 -0.193052081534807E+002  0.718697004495514E+002 -0.569267749814871E+000  0.189290375528284E+001 -0.114467856624657E+002 -0.738606054415600E+003
  0.100000000000000E+001  0.147716933541972E+004 -0.192875584716051E+002  0.728416577630679E+002 -0.697720863456455E+000  0.296185067586146E+001 -0.114467856624657E+002 -0.738584667709861E+003
  0.100000000000000E+001  0.147714452885684E+004 -0.192325165132314E+002  0.745132615870059E+002 -0.588520533976626E+000  0.196400697950073E+001 -0.114467856624657E+002 -0.738572264428420E+003
  0.100000000000000E+001  0.147714002672041E+004 -0.192777169087783E+002  0.731552471871989E+002 -0.658305335863769E+000  0.259322003029493E+001 -0.114467856624657E+002 -0.738570013360206E+003
  0.100000000000000E+001  0.147586021564856E+004 -0.191976768014659E+002  0.747920198522127E+002 -0.457676331384987E+000  0.140017374918292E+001 -0.114467856624657E+002 -0.737930107824280E+003
  0.100000000000000E+001  0.147690980323094E+004 -0.192180692979876E+002  0.738256374169250E+002 -0.417657553919464E+000  0.119932844929522E+001 -0.114467856624657E+002 -0.738454901615472E+003
  0.100000000000000E+001  0.147689183581951E+004 -0.192108638715728E+002  0.743326510770777E+002 -0.450546632408260E+000  0.170229053956988E+001 -0.114467856624657E+002 -0.738445917909757E+003
  0.100000000000000E+001  0.147687752833074E+004 -0.192686941337366E+002  0.731688857049084E+002 -0.623725686360775E+000  0.271982785713997E+001 -0.114467856624657E+002 -0.738438764165368E+003
  0.100000000000000E+001  0.147686495801488E+004 -0.192955891275722E+002  0.720144718824332E+002 -0.598447506377044E+000  0.270298585455706E+001 -0.114467856624657E+002 -0.738432479007442E+003
  0.100000000000000E+001  0.147685425803615E+004 -0.192627087244134E+002  0.729414564344631E+002 -0.547061184287472E+000  0.165296959873931E+001 -0.114467856624657E+002 -0.738427129018076E+003
  0.100000000000000E+001  0.147676989327319E+004 -0.192408966826605E+002  0.741619550575272E+002 -0.570987628083409E+000  0.185202582734026E+001 -0.114467856624657E+002 -0.738384946636597E+003
  0.100000000000000E+001  0.147664252197923E+004 -0.192849525844587E+002  0.726089556915169E+002 -0.670500827392754E+000  0.309965133668622E+001 -0.114467856624657E+002 -0.738321260989613E+003
  0.100000000000000E+001  0.147658022726804E+004 -0.192920078907542E+002  0.722942803610157E+002 -0.656195982697305E+000  0.244272478670585E+001 -0.114467856624657E+002 -0.738290113634022E+003
  0.100000000000000E+001  0.147654451838003E+004 -0.193154969596034E+002  0.715268050137526E+002 -0.605870568115013E+000  0.244699135900139E+001 -0.114467856624657E+002 -0.738272259190016E+003
  0.100000000000000E+001  0.147651844031223E+004 -0.192699705333256E+002  0.730922350136172E+002 -0.626398158222827E+000  0.210705090912534E+001 -0.114467856624657E+002 -0.738259220156113E+003
  0.100000000000000E+001  0.147597204079241E+004 -0.192530497629161E+002  0.726841559118790E+002 -0.455198608604855E+000  0.187888525898905E+001 -0.114467856624657E+002 -0.737986020396205E+003
  0.100000000000000E+001  0.147647445450209E+004 -0.193105260622836E+002  0.711302021228744E+002 -0.497400373093069E+000  0.162974578467325E+001 -0.114467856624657E+002 -0.738237227251045E+003
  0.100000000000000E+001  0.147641727849375E+004 -0.192301613304600E+002  0.745781587579970E+002 -0.639521706535864E+000  0.269838741996094E+001 -0.114467856624657E+002 -0.738208639246873E+003
  0.100000000000000E+001  0.147640656278219E+004 -0.192395001866740E+002  0.744072675348206E+002 -0.678417880217910E+000  0.287360251260912E+001 -0.114467856624657E+002 -0.738203281391097E+003
  0.100000000000000E+001  0.147631962494449E+004 -0.192870250947039E+002  0.728454740278152E+002 -0.672590054375435E+000  0.260342983368454E+001 -0.114467856624657E+002 -0.738159812472247E+003
  0.100000000000000E+001  0.147598518782300E+004 -0.192484217524212E+002  0.740158243130317E+002 -0.662885786495324E+000  0.235033327150283E+001 -0.114467856624657E+002 -0.737992593911501E+003
  0.100000000000000E+001  0.147631019219492E+004 -0.192843804343517E+002  0.718556328142664E+002 -0.563202127073103E+000  0.239430198349096E+001 -0.114467856624657E+002 -0.738155096097460E+003
  0.100000000000000E+001  0.147630710517294E+004 -0.192579192036395E+002  0.734037559813705E+002 -0.713894204905552E+000  0.331081641475068E+001 -0.114467856624657E+002 -0.738153552586469E+003
  0.100000000000000E+001  0.147624265629537E+004 -0.192386001978453E+002  0.731918393948458E+002 -0.409801716121386E+000  0.143337128467948E+001 -0.114467856624657E+002 -0.738121328147685E+003
  0.100000000000000E+001  0.147599931109677E+004 -0.192835061993453E+002  0.729721664028652E+002 -0.696712630801404E+000  0.289838004981897E+001 -0.114467856624657E+002 -0.737999655548385E+003
  0.100000000000000E+001  0.147613801789961E+004 -0.192329706174185E+002  0.744242849624727E+002 -0.700131774234424E+000  0.276271763440876E+001 -0.114467856624657E+002 -0.738069008949806E+003
  0.100000000000000E+001  0.147613213652414E+004 -0.192705424749882E+002  0.728035406521518E+002 -0.557557002532776E+000  0.239256305731798E+001 -0.114467856624657E+002 -0.738066068262070E+003
  0.100000000000000E+001  0.147612315351634E+004 -0.192831902905340E+002  0.720247854759318E+002 -0.470461776252523E+000  0.128549092265469E+001 -0.114467856624657E+002 -0.738061576758168E+003
  0.100000000000000E+001  0.147612079868445E+004 -0.192255954311915E+002  0.744276213622239E+002 -0.631321298916970E+000  0.227219393924208E+001 -0.114467856624657E+002 -0.738060399342226E+003
  0.100000000000000E+001  0.147604616247034E+004 -0.192143729994478E+002  0.742804435951070E+002 -0.536004564517787E+000  0.191929820038769E+001 -0.114467856624657E+002 -0.738023081235172E+003
  0.100000000000000E+001  0.147555094336106E+004 -0.192721674273300E+002  0.727690557846110E+002 -0.684620279661162E+000  0.305980698151168E+001 -0.114467856624657E+002 -0.737775471680528E+003
  0.100000000000000E+001  0.147553737771689E+004 -0.192248637416246E+002  0.744192256962752E+002 -0.520406810101913E+000  0.152091159417851E+001 -0.114467856624657E+002 -0.737768688858444E+003
  0.100000000000000E+001  0.147552313431880E+004 -0.192644798273590E+002  0.735660049867328E+002 -0.740483152825517E+000  0.311061851424830E+001 -0.114467856624657E+002 -0.737761567159398E+003
  0.100000000000000E+001  0.147552291430316E+004 -0.193076020568816E+002  0.714436153683321E+002 -0.571653673215424E+000  0.249786228614884E+001 -0.114467856624657E+002 -0.737761457151580E+003
  0.100000000000000E+001  0.147549553228117E+004 -0.192420768524090E+002  0.743273481910821E+002 -0.736646489230680E+000  0.313408181119019E+001 -0.114467856624657E+002 -0.737747766140587E+003
  0.100000000000000E+001  0.147548447081527E+004 -0.192555939111458E+002  0.726421671932069E+002 -0.493051562365254E+000  0.212656416711405E+001 -0.114467856624657E+002 -0.737742235407636E+003
  0.100000000000000E+001  0.147544200940494E+004 -0.193036712849313E+002  0.717228640827306E+002 -0.663247878540554E+000  0.298436551765986E+001 -0.114467856624657E+002 -0.737721004702470E+003
  0.100000000000000E+001  0.147524884695252E+004 -0.192937860748645E+002  0.719043758849575E+002 -0.635347577772839E+000  0.293772848164085E+001 -0.114467856624657E+002 -0.737624423476262E+003
  0.100000000000000E+001  0.147521679064141E+004 -0.192000002965305E+002  0.754626916624473E+002 -0.597591120918175E+000  0.215047352307782E+001 -0.114467856624657E+002 -0.737608395320707E+003
  0.100000000000000E+001  0.147518315740507E+004 -0.192869491916812E+002  0.724241260264259E+002 -0.676222461495772E+000  0.272285599141384E+001 -0.114467856624657E+002 -0.737591578702533E+003
  0.100000000000000E+001  0.147517078431173E+004 -0.192372082417397E+002  0.740851085256633E+002 -0.676376105287337E+000  0.271108197235099E+001 -0.114467856624657E+002 -0.737585392155864E+003
  0.100000000000000E+001  0.147505004196281E+004 -0.192595576842854E+002  0.728659845352326E+002 -0.438740811592233E+000  0.125083650806158E+001 -0.114467856624657E+002 -0.737525020981405E+003
  0.100000000000000E+001  0.147500254018381E+004 -0.192347087994128E+002  0.734687419849184E+002 -0.416439283613790E+000  0.104906124967212E+001 -0.114467856624657E+002 -0.737501270091906E+003
  0.100000000000000E+001  0.147499417499033E+004 -0.192310859106566E+002  0.736910705340253E+002 -0.527755197490086E+000  0.185646812685438E+001 -0.114467856624657E+002 -0.737497087495164E+003
  0.100000000000000E+001  0.147495714844024E+004 -0.192349202417279E+002  0.739677735032696E+002 -0.539667546170413E+000  0.161013115786907E+001 -0.114467856624657E+002 -0.737478574220120E+003
  0.100000000000000E+001  0.147495236111253E+004 -0.193094684018477E+002  0.716115814919629E+002 -0.654943858959646E+000  0.271448801249120E+001 -0.114467856624657E+002 -0.737476180556263E+003
  0.100000000000000E+001  0.147492593345315E+004 -0.192939686761610E+002  0.719102175527476E+002 -0.602883739493805E+000  0.228648132207709E+001 -0.114467856624657E+002 -0.737462966726573E+003
  0.100000000000000E+001  0.147489041576156E+004 -0.192095952036455E+002  0.751797601657208E+002 -0.632760216856309E+000  0.261307054570726E+001 -0.114467856624657E+002 -0.737445207880781E+003
  0.100000000000000E+001  0.147488710080200E+004 -0.192147623968788E+002  0.748081815528088E+002 -0.669951857246810E+000  0.295881016329330E+001 -0.114467856624657E+002 -0.737443550401000E+003
  0.100000000000000E+001  0.147486699339996E+004 -0.192109445495587E+002  0.752213597780452E+002 -0.628748605327089E+000  0.234847495050578E+001 -0.114467856624657E+002 -0.737433496699981E+003
  0.100000000000000E+001  0.147484476249106E+004 -0.193024553248102E+002  0.716408171921788E+002 -0.560609109022912E+000  0.237425232452101E+001 -0.114467856624657E+002 -0.737422381245532E+003
  0.100000000000000E+001  0.147476496308701E+004 -0.192446128359159E+002  0.741070550605017E+002 -0.618896085376391E+000  0.214494741601296E+001 -0.114467856624657E+002 -0.737382481543503E+003
  0.100000000000000E+001  0.147475024699085E+004 -0.193023526375151E+002  0.718656443656918E+002 -0.580735187557819E+000  0.201366051792721E+001 -0.114467856624657E+002 -0.737375123495425E+003
  0.100000000000000E+001  0.147472898489814E+004 -0.193036095899343E+002  0.715125380087212E+002 -0.506651881255377E+000  0.180882240708119E+001 -0.114467856624657E+002 -0.737364492449068E+003
  0.100000000000000E+001  0.147471024242161E+004 -0.192702987004557E+002  0.730945276480593E+002 -0.705626130589587E+000  0.323511932661876E+001 -0.114467856624657E+002 -0.737355121210804E+003
  0.100000000000000E+001  0.147469123988634E+004 -0.192373241372553E+002  0.736021672829942E+002 -0.492375883154650E+000  0.141326809520450E+001 -0.114467856624657E+002 -0.737345619943172E+003
  0.100000000000000E+001  0.147465869258815E+004 -0.192386522878313E+002  0.737748462036928E+002 -0.575672574357338E+000  0.194713667238957E+001 -0.114467856624657E+002 -0.737329346294074E+003
  0.100000000000000E+001  0.147452656309638E+004 -0.192306068403623E+002  0.740515169341570E+002 -0.488921212578181E+000  0.161841644715458E+001 -0.114467856624657E+002 -0.737263281548191E+003
  0.100000000000000E+001  0.147451819213540E+004 -0.192827524902296E+002  0.729040152724046E+002 -0.717861191938572E+000  0.301231813386973E+001 -0.114467856624657E+002 -0.737259096067699E+003
  0.100000000000000E+001  0.147450130418736E+004 -0.192749063896760E+002  0.728041368309837E+002 -0.551598145742477E+000  0.201505824440509E+001 -0.114467856624657E+002 -0.737250652093682E+003
  0.100000000000000E+001  0.147448913175956E+004 -0.192310099911237E+002  0.739582552845138E+002 -0.512842873774552E+000  0.150022138197625E+001 -0.114467856624657E+002 -0.737244565879778E+003
  0.100000000000000E+001  0.147448141867604E+004 -0.192673394236023E+002  0.727329545887530E+002 -0.615122371239272E+000  0.288963092647215E+001 -0.114467856624657E+002 -0.737240709338020E+003
  0.100000000000000E+001  0.147448009323469E+004 -0.192078474996605E+002  0.745150427028952E+002 -0.544140131627258E+000  0.219491532598738E+001 -0.114467856624657E+002 -0.737240046617347E+003
  0.100000000000000E+001  0.147447991483781E+004 -0.192226520500908E+002  0.747352723735597E+002 -0.610560221585696E+000  0.243158732188804E+001 -0.114467856624657E+002 -0.737239957418904E+003
  0.100000000000000E+001  0.147445479823229E+004 -0.192798746515790E+002  0.727997309046575E+002 -0.705121039943197E+000  0.318884838168478E+001 -0.114467856624657E+002 -0.737227399116145E+003
  0.100000000000000E+001  0.147439975514814E+004 -0.192255423137531E+002  0.740845724460857E+002 -0.557080735036897E+000  0.248086732565920E+001 -0.114467856624657E+002 -0.737199877574068E+003
  0.100000000000000E+001  0.147439586224196E+004 -0.192742495415103E+002  0.725767480069344E+002 -0.651034445018909E+000  0.287637598446175E+001 -0.114467856624657E+002 -0.737197931120980E+003
  0.100000000000000E+001  0.147439049119023E+004 -0.192352175604066E+002  0.735437037016535E+002 -0.425062534326357E+000  0.121490579870514E+001 -0.114467856624657E+002 -0.737195245595113E+003
  0.100000000000000E+001  0.147436171873802E+004 -0.192716424054261E+002  0.730239739272200E+002 -0.578657400705827E+000  0.191546254721330E+001 -0.114467856624657E+002 -0.737180859369009E+003
  0.100000000000000E+001  0.147434167362803E+004 -0.192478505049626E+002  0.728890384383599E+002 -0.478062144982122E+000  0.188572787500625E+001 -0.114467856624657E+002 -0.737170836814015E+003
  0.100000000000000E+001  0.147431169634175E+004 -0.192988500094858E+002  0.718413373902646E+002 -0.560516748519120E+000  0.190359317003792E+001 -0.114467856624657E+002 -0.737155848170873E+003
  0.100000000000000E+001  0.147425391197217E+004 -0.192625553056295E+002  0.732737569648482E+002 -0.635463551653946E+000  0.284671557856375E+001 -0.114467856624657E+002 -0.737126955986086E+003
  0.100000000000000E+001  0.147421024126357E+004 -0.192812342161412E+002  0.726699967898642E+002 -0.595754127710878E+000  0.201549449635977E+001 -0.114467856624657E+002 -0.737105120631787E+003
  0.100000000000000E+001  0.147411473584019E+004 -0.192772266950192E+002  0.728728403709717E+002 -0.628163311056120E+000  0.265622886541922E+001 -0.114467856624657E+002 -0.737057367920095E+003
  0.100000000000000E+001  0.147411330047901E+004 -0.192108973159742E+002  0.742852520211381E+002 -0.487179065997172E+000  0.179722405186155E+001 -0.114467856624657E+002 -0.737056650239504E+003
  0.100000000000000E+001  0.147411291207283E+004 -0.192720789657270E+002  0.732365086409660E+002 -0.654288385712343E+000  0.259871348627439E+001 -0.114467856624657E+002 -0.737056456036414E+003
  0.100000000000000E+001  0.147411106197161E+004 -0.192311676730061E+002  0.742564889961806E+002 -0.578890790203952E+000  0.188045577949978E+001 -0.114467856624657E+002 -0.737055530985806E+003
  0.100000000000000E+001  0.147410356655096E+004 -0.193112757103513E+002  0.716303754960903E+002 -0.637865890340809E+000  0.262833392365118E+001 -0.114467856624657E+002 -0.737051783275481E+003
  0.100000000000000E+001  0.147409983430835E+004 -0.192234882772661E+002  0.742643868210367E+002 -0.612671047551649E+000  0.278164187675499E+001 -0.114467856624657E+002 -0.737049917154177E+003
  0.100000000000000E+001  0.147409838153142E+004 -0.192476593597776E+002  0.739953271111247E+002 -0.621843021267868E+000  0.237241625477889E+001 -0.114467856624657E+002 -0.737049190765708E+003
  0.100000000000000E+001  0.147409720954597E+004 -0.192964937500615E+002  0.717375857410042E+002 -0.598268988759612E+000  0.267721871307783E+001 -0.114467856624657E+002 -0.737048604772984E+003
  0.100000000000000E+001  0.147407698691340E+004 -0.193008092495273E+002  0.721601133312002E+002 -0.677628041771587E+000  0.280431207564290E+001 -0.114467856624657E+002 -0.737038493456702E+003
  0.100000000000000E+001  0.147406873588109E+004 -0.192957023251410E+002  0.718977705026878E+002 -0.521672384453781E+000  0.175230905852092E+001 -0.114467856624657E+002 -0.737034367940547E+003
  0.100000000000000E+001  0.147400742629925E+004 -0.193026182562228E+002  0.716517709043122E+002 -0.619461603450174E+000  0.273838276604533E+001 -0.114467856624657E+002 -0.737003713149623E+003
  0.100000000000000E+001  0.147398734647942E+004 -0.192224504296561E+002  0.748434132300997E+002 -0.650086744559411E+000  0.242351061581518E+001 -0.114467856624657E+002 -0.736993673239708E+003
  0.100000000000000E+001  0.147391855899219E+004 -0.191977356551825E+002  0.753944746737172E+002 -0.592467293866307E+000  0.222442454950611E+001 -0.114467856624657E+002 -0.736959279496096E+003
  0.100000000000000E+001  0.147388225612270E+004 -0.192441776983167E+002  0.731327483555501E+002 -0.422049612957216E+000  0.127532527662729E+001 -0.114467856624657E+002 -0.736941128061350E+003
  0.100000000000000E+001  0.147386751350153E+004 -0.192521009097829E+002  0.729934884434712E+002 -0.432746833624304E+000  0.120262256920280E+001 -0.114467856624657E+002 -0.736933756750766E+003
  0.100000000000000E+001  0.147386434248025E+004 -0.192322962396753E+002  0.734815945468063E+002 -0.431696913272811E+000  0.141869033260171E+001 -0.114467856624657E+002 -0.736932171240124E+003
  0.100000000000000E+001  0.147385411208246E+004 -0.192374444371361E+002  0.737550852116098E+002 -0.532349246809753E+000  0.222224259190652E+001 -0.114467856624657E+002 -0.736927056041229E+003
  0.100000000000000E+001  0.147383967324785E+004 -0.192171784894487E+002  0.746615645694509E+002 -0.532166601290468E+000  0.178765484148333E+001 -0.114467856624657E+002 -0.736919836623923E+003
  0.100000000000000E+001  0.147376695667686E+004 -0.192757882734628E+002  0.730850038833196E+002 -0.678227993243936E+000  0.286609465827921E+001 -0.114467856624657E+002 -0.736883478338431E+003
  0.100000000000000E+001  0.147375830261865E+004 -0.192895562818622E+002  0.725791259703768E+002 -0.675425893353067E+000  0.284165603656147E+001 -0.114467856624657E+002 -0.736879151309324E+003
  0.100000000000000E+001  0.147373255840196E+004 -0.192491310427829E+002  0.731327590065288E+002 -0.485272485058055E+000  0.144872944873185E+001 -0.114467856624657E+002 -0.736866279200982E+003
  0.100000000000000E+001  0.147370908467313E+004 -0.192249103851162E+002  0.737658313557424E+002 -0.441205954050883E+000  0.144648271141914E+001 -0.114467856624657E+002 -0.736854542336565E+003
  0.100000000000000E+001  0.147370780704621E+004 -0.192921678398229E+002  0.721547275448195E+002 -0.614893157357755E+000  0.227338759829736E+001 -0.114467856624657E+002 -0.736853903523103E+003
  0.100000000000000E+001  0.147369966889943E+004 -0.192636755724027E+002  0.724812633941333E+002 -0.460392541376174E+000  0.144772425665410E+001 -0.114467856624657E+002 -0.736849834449714E+003
  0.100000000000000E+001  0.147363225010920E+004 -0.192267094586377E+002  0.747418879422803E+002 -0.658079438248694E+000  0.255664649541924E+001 -0.114467856624657E+002 -0.736816125054599E+003
  0.100000000000000E+001  0.147358996417361E+004 -0.192562398234744E+002  0.730554997147821E+002 -0.495646864874795E+000  0.143528113487844E+001 -0.114467856624657E+002 -0.736794982086806E+003
  0.100000000000000E+001  0.147358019556239E+004 -0.192267747024821E+002  0.741415000117045E+002 -0.534135803871800E+000  0.218153346361630E+001 -0.114467856624657E+002 -0.736790097781195E+003
  0.100000000000000E+001  0.147357082953333E+004 -0.192266762407408E+002  0.737358291510562E+002 -0.507350027943653E+000  0.203200160560240E+001 -0.114467856624657E+002 -0.736785414766665E+003
  0.100000000000000E+001  0.147355610046554E+004 -0.192219703840466E+002  0.744614893284825E+002 -0.584930967380957E+000  0.201694097998627E+001 -0.114467856624657E+002 -0.736778050232769E+003
  0.100000000000000E+001  0.147354723295141E+004 -0.192102298016294E+002  0.745849647546545E+002 -0.483976529370252E+000  0.157271265360052E+001 -0.114467856624657E+002 -0.736773616475706E+003
  0.100000000000000E+001  0.147353415370904E+004 -0.192886311314541E+002  0.718751658228560E+002 -0.490476585680246E+000  0.158469964770688E+001 -0.114467856624657E+002 -0.736767076854518E+003
  0.100000000000000E+001  0.147351433852597E+004 -0.192497411900383E+002  0.736960493282042E+002 -0.688781090261062E+000  0.310552969089209E+001 -0.114467856624657E+002 -0.736757169262986E+003
  0.100000000000000E+001  0.147351212374549E+004 -0.192741463414849E+002  0.727506920918751E+002 -0.584630738287980E+000  0.248536951973028E+001 -0.114467856624657E+002 -0.736756061872743E+003
  0.100000000000000E+001  0.147351193431467E+004 -0.192206170520531E+002  0.740411803647291E+002 -0.458543106280715E+000  0.139149236737907E+001 -0.114467856624657E+002 -0.736755967157335E+003
  0.100000000000000E+001  0.147345726894242E+004 -0.192844632483668E+002  0.719038796404474E+002 -0.509204704630106E+000  0.209858805102367E+001 -0.114467856624657E+002 -0.736728634471212E+003
  0.100000000000000E+001  0.147344901640696E+004 -0.192093688220065E+002  0.746898986344733E+002 -0.582306431817087E+000  0.226831202830171E+001 -0.114467856624657E+002 -0.736724508203480E+003
  0.100000000000000E+001  0.147341746699656E+004 -0.192441191193199E+002  0.731532841898369E+002 -0.431406223949871E+000  0.134943659278090E+001 -0.114467856624657E+002 -0.736708733498282E+003
  0.100000000000000E+001  0.147339677143961E+004 -0.192552094359420E+002  0.730027993637184E+002 -0.461869072354636E+000  0.129828623991735E+001 -0.114467856624657E+002 -0.736698385719806E+003
  0.100000000000000E+001  0.147339616350989E+004 -0.192985566700777E+002  0.719432025981259E+002 -0.597015060122921E+000  0.218127096414905E+001 -0.114467856624657E+002 -0.736698081754944E+003
  0.100000000000000E+001  0.147338922462916E+004 -0.192428450435950E+002  0.739256908961171E+002 -0.681596332451755E+000  0.306784046550587E+001 -0.114467856624657E+002 -0.736694612314578E+003
  0.100000000000000E+001  0.147335345089065E+004 -0.192062664175782E+002  0.751597083840966E+002 -0.593514918095723E+000  0.220245623181842E+001 -0.114467856624657E+002 -0.736676725445326E+003
  0.100000000000000E+001  0.147334517786441E+004 -0.192242705508219E+002  0.741185788344949E+002 -0.481263203635785E+000  0.142033620248739E+001 -0.114467856624657E+002 -0.736672588932207E+003
  0.100000000000000E+001  0.147334327422228E+004 -0.192210040114775E+002  0.746562034161444E+002 -0.575426785179601E+000  0.216755091449537E+001 -0.114467856624657E+002 -0.736671637111139E+003
  0.100000000000000E+001  0.147329137285270E+004 -0.192489199167463E+002  0.734076905246166E+002 -0.634952939092947E+000  0.269905214954324E+001 -0.114467856624657E+002 -0.736645686426348E+003
  0.100000000000000E+001  0.147328958649549E+004 -0.192501064092761E+002  0.729968170142470E+002 -0.480464567523373E+000  0.192794889561190E+001 -0.114467856624657E+002 -0.736644793247747E+003
  0.100000000000000E+001  0.147326940360883E+004 -0.192493043805760E+002  0.733931309931855E+002 -0.633113657888189E+000  0.267064614351013E+001 -0.114467856624657E+002 -0.736634701804413E+003
  0.100000000000000E+001  0.147325648337803E+004 -0.192644685618812E+002  0.728787287220223E+002 -0.626804122029602E+000  0.258299122570521E+001 -0.114467856624657E+002 -0.736628241689013E+003
  0.100000000000000E+001  0.147325452106446E+004 -0.192911901526064E+002  0.720195477418722E+002 -0.615434808448285E+000  0.248289636938840E+001 -0.114467856624657E+002 -0.736627260532232E+003
  0.100000000000000E+001  0.147323372382928E+004 -0.192077073308783E+002  0.745777630277331E+002 -0.513581729590470E+000  0.182180876923038E+001 -0.114467856624657E+002 -0.736616861914640E+003
  0.100000000000000E+001  0.147322844933681E+004 -0.192070960739209E+002  0.748094600703389E+002 -0.524938314023607E+000  0.174798215158584E+001 -0.114467856624657E+002 -0.736614224668405E+003
  0.100000000000000E+001  0.147321786221205E+004 -0.192155269285547E+002  0.746669838764802E+002 -0.535376340616500E+000  0.191890588574950E+001 -0.114467856624657E+002 -0.736608931106026E+003
  0.100000000000000E+001  0.147320665469326E+004 -0.192593685275427E+002  0.728626584416365E+002 -0.521289834990119E+000  0.170847486271657E+001 -0.114467856624657E+002 -0.736603327346631E+003
  0.100000000000000E+001  0.147320293781381E+004 -0.192546206330146E+002  0.737182282297478E+002 -0.622588714322406E+000  0.241818168750959E+001 -0.114467856624657E+002 -0.736601468906906E+003
  0.100000000000000E+001  0.147320237085904E+004 -0.192800967708659E+002  0.727336895955696E+002 -0.591913664204373E+000  0.221637696495451E+001 -0.114467856624657E+002 -0.736601185429520E+003
  0.100000000000000E+001  0.147319025801405E+004 -0.192442209460334E+002  0.731067714276209E+002 -0.461612729296121E+000  0.174210410949327E+001 -0.114467856624657E+002 -0.736595129007025E+003
  0.100000000000000E+001  0.147317401580693E+004 -0.192264470716884E+002  0.744133747378023E+002 -0.611180780093578E+000  0.218591378286312E+001 -0.114467856624657E+002 -0.736587007903464E+003
  0.100000000000000E+001  0.147309421117688E+004 -0.192441980756558E+002  0.738663387410147E+002 -0.603504976087776E+000  0.253986122397200E+001 -0.114467856624657E+002 -0.736547105588439E+003
  0.100000000000000E+001  0.147305228844334E+004 -0.192730728821825E+002  0.729159074574842E+002 -0.644483036353044E+000  0.242579268406678E+001 -0.114467856624657E+002 -0.736526144221672E+003
  0.100000000000000E+001  0.147302295786771E+004 -0.192667065391049E+002  0.732008232749349E+002 -0.646390830287507E+000  0.281701682781071E+001 -0.114467856624657E+002 -0.736511478933855E+003
  0.100000000000000E+001  0.147298391611621E+004 -0.192230810895932E+002  0.738834055758514E+002 -0.484388006678804E+000  0.182882489563826E+001 -0.114467856624657E+002 -0.736491958058106E+003
  0.100000000000000E+001  0.147297086767352E+004 -0.192468836773489E+002  0.733860088131795E+002 -0.474779974658049E+000  0.149810674974165E+001 -0.114467856624657E+002 -0.736485433836758E+003
  0.100000000000000E+001  0.147296575225044E+004 -0.192234705752377E+002  0.743724246710948E+002 -0.530064102712208E+000  0.192733818712257E+001 -0.114467856624657E+002 -0.736482876125220E+003
  0.100000000000000E+001  0.147293613357143E+004 -0.192894171403261E+002  0.723534595077399E+002 -0.609588957252778E+000  0.251182336356916E+001 -0.114467856624657E+002 -0.736468066785715E+003
  0.100000000000000E+001  0.147290237050629E+004 -0.192714787864611E+002  0.725675477353722E+002 -0.614458215167104E+000  0.271378990268276E+001 -0.114467856624657E+002 -0.736451185253145E+003
  0.100000000000000E+001  0.147289229388145E+004 -0.192051869378051E+002  0.748646810623295E+002 -0.537751992177380E+000  0.205113607041908E+001 -0.114467856624657E+002 -0.736446146940727E+003
  0.100000000000000E+001  0.147287704606156E+004 -0.192488021842899E+002  0.730261532985995E+002 -0.485638221268140E+000  0.194935879090462E+001 -0.114467856624657E+002 -0.736438523030782E+003
  0.100000000000000E+001  0.147281659100498E+004 -0.192604492241786E+002  0.729922920006110E+002 -0.507987405033925E+000  0.153749241179046E+001 -0.114467856624657E+002 -0.736408295502492E+003
  0.100000000000000E+001  0.147280597951917E+004 -0.192306251904654E+002  0.740457668461185E+002 -0.545074516517595E+000  0.223167660177479E+001 -0.114467856624657E+002 -0.736402989759584E+003
  0.100000000000000E+001  0.147280171023143E+004 -0.192372150089601E+002  0.735724837444229E+002 -0.460688735379211E+000  0.151197036768661E+001 -0.114467856624657E+002 -0.736400855115716E+003
  0.100000000000000E+001  0.147277027620852E+004 -0.192626947022045E+002  0.727819746365537E+002 -0.490556172375797E+000  0.184503122735598E+001 -0.114467856624657E+002 -0.736385138104259E+003
  0.100000000000000E+001  0.147277005079742E+004 -0.192491626962737E+002  0.733704467026691E+002 -0.600154928071809E+000  0.230961019968849E+001 -0.114467856624657E+002 -0.736385025398708E+003
  0.100000000000000E+001  0.147274608753144E+004 -0.192736657055048E+002  0.730122598246592E+002 -0.646792381332415E+000  0.241721232119418E+001 -0.114467856624657E+002 -0.736373043765718E+003
  0.100000000000000E+001  0.147274259256954E+004 -0.192258273818315E+002  0.739256768799139E+002 -0.537210157958757E+000  0.202348437420787E+001 -0.114467856624657E+002 -0.736371296284772E+003
  0.100000000000000E+001  0.147273278427177E+004 -0.193032659183386E+002  0.717935233242392E+002 -0.606457434304098E+000  0.243409795057319E+001 -0.114467856624657E+002 -0.736366392135883E+003
  0.100000000000000E+001  0.147273275973946E+004 -0.192290466674139E+002  0.742842751124441E+002 -0.617938478094227E+000  0.228718796289585E+001 -0.114467856624657E+002 -0.736366379869728E+003
  0.100000000000000E+001  0.147272702880254E+004 -0.192177907406368E+002  0.742654204305964E+002 -0.538653909632207E+000  0.223585026144491E+001 -0.114467856624657E+002 -0.736363514401272E+003
  0.100000000000000E+001  0.147272504210932E+004 -0.192920133588446E+002  0.718775908595757E+002 -0.590787473914055E+000  0.249468817181109E+001 -0.114467856624657E+002 -0.736362521054660E+003
  0.100000000000000E+001  0.147269349435615E+004 -0.192301816005813E+002  0.739148903267821E+002 -0.481805745969489E+000  0.146005522472832E+001 -0.114467856624657E+002 -0.736346747178073E+003
  0.100000000000000E+001  0.147268835354841E+004 -0.192358359800934E+002  0.734294289137186E+002 -0.485089470553773E+000  0.187963601852961E+001 -0.114467856624657E+002 -0.736344176774204E+003
  0.100000000000000E+001  0.147267928916631E+004 -0.192292062111196E+002  0.742494560150933E+002 -0.536938206100416E+000  0.183699809550572E+001 -0.114467856624657E+002 -0.736339644583153E+003
  0.100000000000000E+001  0.147265569215658E+004 -0.192576950409134E+002  0.728337492943493E+002 -0.536862841966117E+000  0.233295828672629E+001 -0.114467856624657E+002 -0.736327846078292E+003
  0.100000000000000E+001  0.147263516610992E+004 -0.192725248929901E+002  0.724899456996189E+002 -0.498387547045927E+000  0.186063596345855E+001 -0.114467856624657E+002 -0.736317583054958E+003
  0.100000000000000E+001  0.147263289215090E+004 -0.192643869771997E+002  0.724717354413557E+002 -0.483168280535411E+000  0.186941590758254E+001 -0.114467856624657E+002 -0.736316446075452E+003
  0.100000000000000E+001  0.147261837595856E+004 -0.192327510123592E+002  0.737099012700109E+002 -0.530230284295753E+000  0.189431200290537E+001 -0.114467856624657E+002 -0.736309187979279E+003
  0.100000000000000E+001  0.147259337653411E+004 -0.192617542950371E+002  0.725658687544630E+002 -0.485328878795189E+000  0.172547917738729E+001 -0.114467856624657E+002 -0.736296688267054E+003
  0.100000000000000E+001  0.147258614598220E+004 -0.192937704297056E+002  0.723040833754648E+002 -0.649549301518341E+000  0.265565392261940E+001 -0.114467856624657E+002 -0.736293072991102E+003
  0.100000000000000E+001  0.147258099650252E+004 -0.192297768249072E+002  0.738591435764368E+002 -0.564797240016723E+000  0.222523446614598E+001 -0.114467856624657E+002 -0.736290498251260E+003
  0.100000000000000E+001  0.147257853916112E+004 -0.192354455167263E+002  0.735126409318969E+002 -0.526812173226555E+000  0.215394717890250E+001 -0.114467856624657E+002 -0.736289269580562E+003
  0.100000000000000E+001  0.147252189302860E+004 -0.192838695646267E+002  0.725799609187557E+002 -0.597570236206427E+000  0.219656556634965E+001 -0.114467856624657E+002 -0.736260946514298E+003
  0.100000000000000E+001  0.147250325381649E+004 -0.192609358811068E+002  0.727386573921738E+002 -0.492805437935976E+000  0.194549876771129E+001 -0.114467856624657E+002 -0.736251626908247E+003
  0.100000000000000E+001  0.147250307893991E+004 -0.192836448833852E+002  0.722854452288801E+002 -0.557602432421803E+000  0.229460897004330E+001 -0.114467856624657E+002 -0.736251539469956E+003
  0.100000000000000E+001  0.147248403332947E+004 -0.192290626314907E+002  0.745045734368992E+002 -0.619489484767013E+000  0.243085893299295E+001 -0.114467856624657E+002 -0.736242016664734E+003
  0.100000000000000E+001  0.147246861590021E+004 -0.192419144250644E+002  0.735303392581942E+002 -0.571710142396056E+000  0.253651224311170E+001 -0.114467856624657E+002 -0.736234307950107E+003
  0.100000000000000E+001  0.147245367449431E+004 -0.192596472071524E+002  0.729726444376990E+002 -0.597460755495276E+000  0.236653919642588E+001 -0.114467856624657E+002 -0.736226837247155E+003
  0.100000000000000E+001  0.147241250896586E+004 -0.192470592102500E+002  0.738151850489563E+002 -0.629853935846953E+000  0.269853302298504E+001 -0.114467856624657E+002 -0.736206254482929E+003
  0.100000000000000E+001  0.147240888875999E+004 -0.192363102958696E+002  0.736231110540993E+002 -0.470393379686255E+000  0.158924566022820E+001 -0.114467856624657E+002 -0.736204444379995E+003
  0.100000000000000E+001  0.147239059644134E+004 -0.192616257886225E+002  0.726918410187330E+002 -0.475262326946717E+000  0.149623257372059E+001 -0.114467856624657E+002 -0.736195298220669E+003
  0.100000000000000E+001  0.147236626254172E+004 -0.192621902551487E+002  0.726220160800218E+002 -0.498998970134698E+000  0.201614787629863E+001 -0.114467856624657E+002 -0.736183131270858E+003
  0.100000000000000E+001  0.147235048794652E+004 -0.192583556276315E+002  0.730081333988860E+002 -0.489337065751550E+000  0.167660830252922E+001 -0.114467856624657E+002 -0.736175243973259E+003
  0.100000000000000E+001  0.147231671272890E+004 -0.192631928806266E+002  0.729676007812942E+002 -0.546915394283931E+000  0.179140713111288E+001 -0.114467856624657E+002 -0.736158356364451E+003
  0.100000000000000E+001  0.147229665940808E+004 -0.192561595456138E+002  0.735328270528591E+002 -0.639632233969469E+000  0.275377965069129E+001 -0.114467856624657E+002 -0.736148329704038E+003
  0.100000000000000E+001  0.147229416063503E+004 -0.192753326058471E+002  0.722295164775235E+002 -0.514264009258536E+000  0.187251948310568E+001 -0.114467856624657E+002 -0.736147080317515E+003
  0.100000000000000E+001  0.147229102538277E+004 -0.192255397425348E+002  0.741868860908485E+002 -0.513818642236088E+000  0.164269721028309E+001 -0.114467856624657E+002 -0.736145512691387E+003
  0.100000000000000E+001  0.147227298765346E+004 -0.192848488885538E+002  0.723883691820642E+002 -0.615930098762852E+000  0.233271406535151E+001 -0.114467856624657E+002 -0.736136493826732E+003
  0.100000000000000E+001  0.147226924366636E+004 -0.192597243251962E+002  0.730637680678274E+002 -0.504714050434129E+000  0.164839651220454E+001 -0.114467856624657E+002 -0.736134621833181E+003
  0.100000000000000E+001  0.147226442869309E+004 -0.192481128341871E+002  0.730432095587768E+002 -0.465909383887000E+000  0.168421025252991E+001 -0.114467856624657E+002 -0.736132214346547E+003
  0.100000000000000E+001  0.147225730908901E+004 -0.192586089982131E+002  0.729158470203321E+002 -0.527081566563288E+000  0.177648161144993E+001 -0.114467856624657E+002 -0.736128654544506E+003
  0.100000000000000E+001  0.147224309336377E+004 -0.192734433894124E+002  0.727229695525654E+002 -0.651594328946641E+000  0.286721529800638E+001 -0.114467856624657E+002 -0.736121546681883E+003
  0.100000000000000E+001  0.147222923913556E+004 -0.192402141807346E+002  0.739521786272424E+002 -0.612460037941425E+000  0.220663101810645E+001 -0.114467856624657E+002 -0.736114619567781E+003
  0.100000000000000E+001  0.147222301520363E+004 -0.192835144577436E+002  0.725177695714401E+002 -0.636734687852837E+000  0.276691987532148E+001 -0.114467856624657E+002 -0.736111507601817E+003
  0.100000000000000E+001  0.147222039915220E+004 -0.192266343705873E+002  0.739136275440602E+002 -0.491273623139878E+000  0.184308204608067E+001 -0.114467856624657E+002 -0.736110199576100E+003
  0.100000000000000E+001  0.147219953689494E+004 -0.192921332779528E+002  0.722804041832133E+002 -0.630409252050008E+000  0.245540479229129E+001 -0.114467856624657E+002 -0.736099768447472E+003
  0.100000000000000E+001  0.147219126041942E+004 -0.192769882518128E+002  0.728528946203632E+002 -0.645757381598720E+000  0.246565166116978E+001 -0.114467856624657E+002 -0.736095630209710E+003
  0.100000000000000E+001  0.147218324454228E+004 -0.192821044462812E+002  0.725289182370444E+002 -0.580565839359205E+000  0.227450046197539E+001 -0.114467856624657E+002 -0.736091622271142E+003
  0.100000000000000E+001  0.147217081864616E+004 -0.192673969701295E+002  0.733102927240735E+002 -0.667149485129974E+000  0.273975031106044E+001 -0.114467856624657E+002 -0.736085409323080E+003
  0.100000000000000E+001  0.147214689676805E+004 -0.192687562914269E+002  0.732527703073586E+002 -0.654313588481162E+000  0.254131586538831E+001 -0.114467856624657E+002 -0.736073448384023E+003
  0.100000000000000E+001  0.147214641294256E+004 -0.192452814037674E+002  0.738830740509163E+002 -0.590786114700510E+000  0.206339172559216E+001 -0.114467856624657E+002 -0.736073206471282E+003
  0.100000000000000E+001  0.147211231013856E+004 -0.192862486741619E+002  0.719301280707266E+002 -0.520425765526846E+000  0.202432171415584E+001 -0.114467856624657E+002 -0.736056155069281E+003
  0.100000000000000E+001  0.147211177338370E+004 -0.192966053782532E+002  0.718774216732228E+002 -0.571373862288155E+000  0.215548074748401E+001 -0.114467856624657E+002 -0.736055886691851E+003
  0.100000000000000E+001  0.147210631487534E+004 -0.192737007981342E+002  0.727245676715734E+002 -0.635359611296478E+000  0.254051406293702E+001 -0.114467856624657E+002 -0.736053157437671E+003
  0.100000000000000E+001  0.147209958727587E+004 -0.192600447544755E+002  0.735509202953493E+002 -0.661463629401260E+000  0.256578353463637E+001 -0.114467856624657E+002 -0.736049793637937E+003
  0.100000000000000E+001  0.147209425884060E+004 -0.192409431188263E+002  0.736529479132183E+002 -0.522326067859621E+000  0.201895722669022E+001 -0.114467856624657E+002 -0.736047129420301E+003
  0.100000000000000E+001  0.147206122290874E+004 -0.192635276103447E+002  0.731990730411072E+002 -0.673283714595638E+000  0.286065949361848E+001 -0.114467856624657E+002 -0.736030611454371E+003
  0.100000000000000E+001  0.147205946384236E+004 -0.192685383792902E+002  0.730725090612977E+002 -0.640797799953159E+000  0.243051613045542E+001 -0.114467856624657E+002 -0.736029731921182E+003
  0.100000000000000E+001  0.147203693500419E+004 -0.192588304408635E+002  0.732957645153275E+002 -0.595674679782667E+000  0.250866153389951E+001 -0.114467856624657E+002 -0.736018467502096E+003
  0.100000000000000E+001  0.147203374648626E+004 -0.192854494265769E+002  0.720615104755081E+002 -0.570340643452969E+000  0.226672830683775E+001 -0.114467856624657E+002 -0.736016873243132E+003
  0.100000000000000E+001  0.147202053002451E+004 -0.192413849567315E+002  0.737088882476750E+002 -0.562881265171181E+000  0.191791342918766E+001 -0.114467856624657E+002 -0.736010265012256E+003
  0.100000000000000E+001  0.147193572153321E+004 -0.192942672714069E+002  0.718438896109364E+002 -0.549474085197688E+000  0.210251575900640E+001 -0.114467856624657E+002 -0.735967860766607E+003
  0.100000000000000E+001  0.147190382137527E+004 -0.192486815178500E+002  0.734363842350946E+002 -0.564586467950628E+000  0.195033398604927E+001 -0.114467856624657E+002 -0.735951910687636E+003
  0.100000000000000E+001  0.147189975300644E+004 -0.192687276358839E+002  0.729011210888253E+002 -0.642351562281106E+000  0.261575315725905E+001 -0.114467856624657E+002 -0.735949876503218E+003
  0.100000000000000E+001  0.147189138107138E+004 -0.192444167339182E+002  0.740392638254871E+002 -0.649768003116938E+000  0.248878534119892E+001 -0.114467856624657E+002 -0.735945690535689E+003
  0.100000000000000E+001  0.147187568242499E+004 -0.192646624404008E+002  0.731909445260895E+002 -0.585223692428569E+000  0.222215137704836E+001 -0.114467856624657E+002 -0.735937841212494E+003
  0.100000000000000E+001  0.147184816465165E+004 -0.192419396486528E+002  0.735883483103723E+002 -0.571673077872565E+000  0.209415392713015E+001 -0.114467856624657E+002 -0.735924082325825E+003
  0.100000000000000E+001  0.147183844715273E+004 -0.192242008436254E+002  0.739764075742128E+002 -0.510255179283877E+000  0.196351366018691E+001 -0.114467856624657E+002 -0.735919223576366E+003
  0.100000000000000E+001  0.147180263497571E+004 -0.192923525760068E+002  0.720009009376829E+002 -0.603519284158265E+000  0.250847420965762E+001 -0.114467856624657E+002 -0.735901317487857E+003
  0.100000000000000E+001  0.147178590148736E+004 -0.192207626063874E+002  0.744539685723354E+002 -0.542464446091548E+000  0.187990580861607E+001 -0.114467856624657E+002 -0.735892950743678E+003
  0.100000000000000E+001  0.147178528793232E+004 -0.192905559319629E+002  0.719447956424620E+002 -0.556793980744419E+000  0.211760107189654E+001 -0.114467856624657E+002 -0.735892643966158E+003
  0.100000000000000E+001  0.147178469883525E+004 -0.192192151730539E+002  0.746684197423449E+002 -0.589216113645282E+000  0.216873889402895E+001 -0.114467856624657E+002 -0.735892349417624E+003
  0.100000000000000E+001  0.147177619516994E+004 -0.192397355445966E+002  0.734169279584192E+002 -0.471615223590524E+000  0.156881976679212E+001 -0.114467856624657E+002 -0.735888097584968E+003
  0.100000000000000E+001  0.147174998341002E+004 -0.192555917999170E+002  0.735469596729353E+002 -0.593953805477381E+000  0.216369092578507E+001 -0.114467856624657E+002 -0.735874991705010E+003
  0.100000000000000E+001  0.147172628850499E+004 -0.192398612318435E+002  0.734442204848588E+002 -0.526874621924247E+000  0.195035405838572E+001 -0.114467856624657E+002 -0.735863144252494E+003
  0.100000000000000E+001  0.147171650066686E+004 -0.192423670936640E+002  0.738323814714684E+002 -0.617993644579328E+000  0.268516201521559E+001 -0.114467856624657E+002 -0.735858250333429E+003
  0.100000000000000E+001  0.147166042228065E+004 -0.192636523718736E+002  0.726189643559890E+002 -0.503340168650039E+000  0.178022990089046E+001 -0.114467856624657E+002 -0.735830211140327E+003
  0.100000000000000E+001  0.147165179027487E+004 -0.192878871575864E+002  0.724289887640220E+002 -0.626738378276608E+000  0.249326674501176E+001 -0.114467856624657E+002 -0.735825895137436E+003
  0.100000000000000E+001  0.147165138307865E+004 -0.192668948460255E+002  0.728319296654348E+002 -0.616788528281479E+000  0.273375930792007E+001 -0.114467856624657E+002 -0.735825691539326E+003
  0.100000000000000E+001  0.147164938074846E+004 -0.192498451633199E+002  0.734289601636694E+002 -0.541074410879517E+000  0.212039125538237E+001 -0.114467856624657E+002 -0.735824690374232E+003
  0.100000000000000E+001  0.147164536530235E+004 -0.192735436203227E+002  0.727628888365254E+002 -0.565195988174113E+000  0.196052081618050E+001 -0.114467856624657E+002 -0.735822682651174E+003
  0.100000000000000E+001  0.147157921501503E+004 -0.192393084537074E+002  0.737571837746508E+002 -0.525710572383448E+000  0.170850726530949E+001 -0.114467856624657E+002 -0.735789607507515E+003
  0.100000000000000E+001  0.147156562241914E+004 -0.192422299136356E+002  0.736781823589743E+002 -0.607818772271569E+000  0.237603604330656E+001 -0.114467856624657E+002 -0.735782811209570E+003
  0.100000000000000E+001  0.147155697834011E+004 -0.192593567595886E+002  0.731403206134912E+002 -0.563565590549407E+000  0.192653163193851E+001 -0.114467856624657E+002 -0.735778489170055E+003
  0.100000000000000E+001  0.147152464413035E+004 -0.192860288291406E+002  0.721057411371156E+002 -0.560407918733105E+000  0.230491248096360E+001 -0.114467856624657E+002 -0.735762322065177E+003
  0.100000000000000E+001  0.147144385316522E+004 -0.192418502361049E+002  0.734728595300021E+002 -0.541096390144235E+000  0.226785559582280E+001 -0.114467856624657E+002 -0.735721926582612E+003
  0.100000000000000E+001  0.147141229654727E+004 -0.192253228675895E+002  0.743320365016602E+002 -0.558709549300443E+000  0.195144336881065E+001 -0.114467856624657E+002 -0.735706148273635E+003
  0.100000000000000E+001  0.147141187088483E+004 -0.192665506704407E+002  0.726202090534909E+002 -0.500161299777823E+000  0.168459366743265E+001 -0.114467856624657E+002 -0.735705935442414E+003
  0.100000000000000E+001  0.147141130817855E+004 -0.192776131196984E+002  0.726204542758054E+002 -0.563210057400081E+000  0.205877549372731E+001 -0.114467856624657E+002 -0.735705654089277E+003
  0.100000000000000E+001  0.147138460701644E+004 -0.192564063935277E+002  0.730623711226626E+002 -0.577327897702206E+000  0.251707635671738E+001 -0.114467856624657E+002 -0.735692303508219E+003
  0.100000000000000E+001  0.147135071734557E+004 -0.192690600566180E+002  0.731435131162723E+002 -0.629399850078592E+000  0.246879514163751E+001 -0.114467856624657E+002 -0.735675358672786E+003
  0.100000000000000E+001  0.147134215116521E+004 -0.192752123354832E+002  0.725292537101104E+002 -0.560026108793024E+000  0.231141576911132E+001 -0.114467856624657E+002 -0.735671075582603E+003
  0.100000000000000E+001  0.147132977570929E+004 -0.192482855238289E+002  0.737336679001463E+002 -0.652866825958476E+000  0.282478893386300E+001 -0.114467856624657E+002 -0.735664887854644E+003
  0.100000000000000E+001  0.147131956570282E+004 -0.192315811840201E+002  0.739908209657859E+002 -0.602287683523837E+000  0.254560380333865E+001 -0.114467856624657E+002 -0.735659782851409E+003
  0.100000000000000E+001  0.147131589936916E+004 -0.192711679191330E+002  0.729093277442816E+002 -0.640303357335036E+000  0.253589511691053E+001 -0.114467856624657E+002 -0.735657949684578E+003
  0.100000000000000E+001  0.147130869728418E+004 -0.192573094149599E+002  0.729915815219562E+002 -0.582548689483609E+000  0.248334489368998E+001 -0.114467856624657E+002 -0.735654348642091E+003
  0.100000000000000E+001  0.147129735394384E+004 -0.192874372509146E+002  0.721319782856564E+002 -0.552856796136024E+000  0.209996480771256E+001 -0.114467856624657E+002 -0.735648676971922E+003
  0.100000000000000E+001  0.147127804065472E+004 -0.192560541384343E+002  0.731021406509581E+002 -0.526001361904242E+000  0.206129658170047E+001 -0.114467856624657E+002 -0.735639020327359E+003
  0.100000000000000E+001  0.147127370124839E+004 -0.192653224120387E+002  0.727139055381237E+002 -0.497131625951915E+000  0.170973688005136E+001 -0.114467856624657E+002 -0.735636850624194E+003
  0.100000000000000E+001  0.147125091735282E+004 -0.192299540374384E+002  0.743421342878081E+002 -0.597371057785781E+000  0.220476325580379E+001 -0.114467856624657E+002 -0.735625458676412E+003
  0.100000000000000E+001  0.147123620966095E+004 -0.192443359173093E+002  0.736374542211705E+002 -0.537307990640241E+000  0.178990532836539E+001 -0.114467856624657E+002 -0.735618104830474E+003
  0.100000000000000E+001  0.147122442554111E+004 -0.192570668760980E+002  0.733247399525910E+002 -0.642899178210107E+000  0.281645010528248E+001 -0.114467856624657E+002 -0.735612212770554E+003
  0.100000000000000E+001  0.147122190670843E+004 -0.192304800506720E+002  0.739384964587767E+002 -0.517471202147803E+000  0.193613401939262E+001 -0.114467856624657E+002 -0.735610953354215E+003
  0.100000000000000E+001  0.147116086339258E+004 -0.192698797910269E+002  0.728844499809390E+002 -0.621337420514029E+000  0.240402806544507E+001 -0.114467856624657E+002 -0.735580431696290E+003
  0.100000000000000E+001  0.147113141486800E+004 -0.192297029714573E+002  0.739827676706045E+002 -0.575099864652675E+000  0.226571935440960E+001 -0.114467856624657E+002 -0.735565707434000E+003
  0.100000000000000E+001  0.147112137952058E+004 -0.192809746485688E+002  0.722271749324793E+002 -0.544710001217991E+000  0.217468049982723E+001 -0.114467856624657E+002 -0.735560689760291E+003
  0.100000000000000E+001  0.147106403817331E+004 -0.192416256192291E+002  0.738714442055662E+002 -0.595631467827057E+000  0.214878265732438E+001 -0.114467856624657E+002 -0.735532019086657E+003
  0.100000000000000E+001  0.147102769949587E+004 -0.192730118165384E+002  0.729634955038062E+002 -0.638994182070905E+000  0.261447450234788E+001 -0.114467856624657E+002 -0.735513849747937E+003
  0.100000000000000E+001  0.147097096815056E+004 -0.192374441680198E+002  0.736434165042037E+002 -0.548884609292048E+000  0.206430104922736E+001 -0.114467856624657E+002 -0.735485484075279E+003
  0.100000000000000E+001  0.147094007724292E+004 -0.192380278177327E+002  0.741309345794392E+002 -0.642542699583100E+000  0.255364528521667E+001 -0.114467856624657E+002 -0.735470038621458E+003
  0.100000000000000E+001  0.147093209694785E+004 -0.192464973721872E+002  0.738510871440404E+002 -0.644577398665070E+000  0.252918261616044E+001 -0.114467856624657E+002 -0.735466048473923E+003
  0.100000000000000E+001  0.147092101000218E+004 -0.192377495024161E+002  0.740479554393676E+002 -0.639390492402022E+000  0.256891054174003E+001 -0.114467856624657E+002 -0.735460505001089E+003
  0.100000000000000E+001  0.147089255295773E+004 -0.192449911249610E+002  0.739105981266669E+002 -0.618446240771010E+000  0.240298625417284E+001 -0.114467856624657E+002 -0.735446276478863E+003
  0.100000000000000E+001  0.147086184155447E+004 -0.192509441939290E+002  0.733893623331837E+002 -0.619178462411492E+000  0.260297538970104E+001 -0.114467856624657E+002 -0.735430920777236E+003
  0.100000000000000E+001  0.147078195475297E+004 -0.192641952137205E+002  0.732221894942106E+002 -0.651470956782116E+000  0.274135550002276E+001 -0.114467856624657E+002 -0.735390977376483E+003
  0.100000000000000E+001  0.147076556391522E+004 -0.192813262811329E+002  0.725186273463471E+002 -0.621853520191435E+000  0.251890891072047E+001 -0.114467856624657E+002 -0.735382781957612E+003
  0.100000000000000E+001  0.147075479349512E+004 -0.192679219845970E+002  0.730495659485578E+002 -0.595174441557993E+000  0.225350562079479E+001 -0.114467856624657E+002 -0.735377396747560E+003
  0.100000000000000E+001  0.147073850041018E+004 -0.192453969329980E+002  0.736532336317530E+002 -0.591758979421948E+000  0.217752213414605E+001 -0.114467856624657E+002 -0.735369250205092E+003
  0.100000000000000E+001  0.147072388999776E+004 -0.192742892649227E+002  0.726163527965150E+002 -0.574842859150688E+000  0.212359801870443E+001 -0.114467856624657E+002 -0.735361944998880E+003
  0.100000000000000E+001  0.147072131491909E+004 -0.192758833022252E+002  0.724316042653801E+002 -0.549390527584425E+000  0.219701661684835E+001 -0.114467856624657E+002 -0.735360657459544E+003
  0.100000000000000E+001  0.147071217415528E+004 -0.192482350120865E+002  0.732535818719448E+002 -0.555362243027325E+000  0.227126680815666E+001 -0.114467856624657E+002 -0.735356087077639E+003
  0.100000000000000E+001  0.147065479363788E+004 -0.192641597260915E+002  0.731579801963824E+002 -0.589027226811033E+000  0.222004848787078E+001 -0.114467856624657E+002 -0.735327396818939E+003
  0.100000000000000E+001  0.147060420497151E+004 -0.192693101183287E+002  0.728713590997467E+002 -0.619667970680454E+000  0.264593868710410E+001 -0.114467856624657E+002 -0.735302102485755E+003
  0.100000000000000E+001  0.147058076921457E+004 -0.192678203497496E+002  0.731005169689143E+002 -0.624502658890728E+000  0.250278667666214E+001 -0.114467856624657E+002 -0.735290384607285E+003
  0.100000000000000E+001  0.147057229333150E+004 -0.192442050045074E+002  0.738446090166503E+002 -0.634216777441798E+000  0.250687779831414E+001 -0.114467856624657E+002 -0.735286146665750E+003
  0.100000000000000E+001  0.147057183986454E+004 -0.192555022041590E+002  0.730601904766733E+002 -0.537933331823508E+000  0.217059429040789E+001 -0.114467856624657E+002 -0.735285919932269E+003
  0.100000000000000E+001  0.147055961786707E+004 -0.192702209604827E+002  0.728586432471182E+002 -0.625918300192571E+000  0.265795810504569E+001 -0.114467856624657E+002 -0.735279808933537E+003
  0.100000000000000E+001  0.147049023547807E+004 -0.192669857860490E+002  0.730421206393118E+002 -0.595108366452638E+000  0.221799869964396E+001 -0.114467856624657E+002 -0.735245117739035E+003
  0.100000000000000E+001  0.147039431878458E+004 -0.192684789608963E+002  0.730220567606493E+002 -0.634920604593857E+000  0.256491318543602E+001 -0.114467856624657E+002 -0.735197159392290E+003
  0.100000000000000E+001  0.147039177798230E+004 -0.192618369688191E+002  0.731278019443864E+002 -0.597335433390899E+000  0.223762336418887E+001 -0.114467856624657E+002 -0.735195888991151E+003
  0.100000000000000E+001  0.147092899083125E+004 -0.192565344811426E+002  0.729632740193026E+002 -0.521266683647124E+000  0.183969230518111E+001 -0.114467856624657E+002 -0.735464495415627E+003
  0.100000000000000E+001  0.147092753228558E+004 -0.192540275136655E+002  0.733666451052769E+002 -0.545905975870604E+000  0.194962922656518E+001 -0.114467856624657E+002 -0.735463766142791E+003
  0.100000000000000E+001  0.147092228279054E+004 -0.192367847673873E+002  0.736896394269535E+002 -0.504500652487744E+000  0.174741739031086E+001 -0.114467856624657E+002 -0.735461141395270E+003
  0.100000000000000E+001  0.147086026201503E+004 -0.192364152612313E+002  0.738099454506642E+002 -0.529474473245022E+000  0.198557261294105E+001 -0.114467856624657E+002 -0.735430131007515E+003
  0.100000000000000E+001  0.147084705340225E+004 -0.192762066616437E+002  0.724497180656096E+002 -0.533307632157088E+000  0.198565406773620E+001 -0.114467856624657E+002 -0.735423526701127E+003
  0.100000000000000E+001  0.147069949412327E+004 -0.192284266853522E+002  0.740227906515048E+002 -0.531906535189960E+000  0.199940686271389E+001 -0.114467856624657E+002 -0.735349747061633E+003
  0.100000000000000E+001  0.147058516615391E+004 -0.192352207519681E+002  0.736969012126690E+002 -0.530789066002602E+000  0.199462538931643E+001 -0.114467856624657E+002 -0.735292583076956E+003
  0.100000000000000E+001  0.147056088955402E+004 -0.192714618734691E+002  0.725589775677822E+002 -0.529828404410791E+000  0.199211585161272E+001 -0.114467856624657E+002 -0.735280444777008E+003
  0.100000000000000E+001  0.147044229829647E+004 -0.192592154424981E+002  0.730497384153365E+002 -0.528823724851904E+000  0.187322873814260E+001 -0.114467856624657E+002 -0.735221149148236E+003
  0.100000000000000E+001  0.147032924127211E+004 -0.192421801139539E+002  0.735859536754355E+002 -0.530039879920205E+000  0.198013333194265E+001 -0.114467856624657E+002 -0.735164620636057E+003
  0.100000000000000E+001  0.147027997465139E+004 -0.192593935990043E+002  0.729480332557704E+002 -0.535546343735092E+000  0.194197191560259E+001 -0.114467856624657E+002 -0.735139987325697E+003
  0.100000000000000E+001  0.147036671442062E+004 -0.192587556984751E+002  0.729151836383928E+002 -0.541924327495543E+000  0.217091218233310E+001 -0.114467856624657E+002 -0.735183357210310E+003
  0.100000000000000E+001  0.147034621182139E+004 -0.192626245228685E+002  0.732689608537346E+002 -0.630315940645794E+000  0.249183335557234E+001 -0.114467856624657E+002 -0.735173105910696E+003
  0.100000000000000E+001  0.147030829025490E+004 -0.192613842962040E+002  0.732674009702040E+002 -0.617529000959339E+000  0.237225657532829E+001 -0.114467856624657E+002 -0.735154145127452E+003
  0.100000000000000E+001  0.147028704899103E+004 -0.192498722312218E+002  0.736405156217996E+002 -0.611077589467277E+000  0.247278296339327E+001 -0.114467856624657E+002 -0.735143524495516E+003
  0.100000000000000E+001  0.147027402779765E+004 -0.192592055068243E+002  0.731502923191440E+002 -0.559927697147497E+000  0.217064428954834E+001 -0.114467856624657E+002 -0.735137013898826E+003
  0.100000000000000E+001  0.147022218495088E+004 -0.192373865294951E+002  0.738143129230054E+002 -0.558287035328956E+000  0.220277344595439E+001 -0.114467856624657E+002 -0.735111092475439E+003
  0.100000000000000E+001  0.147021022003699E+004 -0.192364831224781E+002  0.737688795625994E+002 -0.561725336128398E+000  0.225125542150715E+001 -0.114467856624657E+002 -0.735105110018493E+003
  0.100000000000000E+001  0.147019188155678E+004 -0.192715645449209E+002  0.726865975955599E+002 -0.579959115081276E+000  0.236898132800321E+001 -0.114467856624657E+002 -0.735095940778391E+003
  0.100000000000000E+001  0.147007270985958E+004 -0.192387994474662E+002  0.738832132452740E+002 -0.582220844126824E+000  0.230452910700723E+001 -0.114467856624657E+002 -0.735036354929788E+003
  0.100000000000000E+001  0.147006382852943E+004 -0.192529138256738E+002  0.734200256836715E+002 -0.597544981172666E+000  0.226655404550501E+001 -0.114467856624657E+002 -0.735031914264715E+003
  0.100000000000000E+001  0.147004872926236E+004 -0.192697567149049E+002  0.728336574026893E+002 -0.589710480641324E+000  0.225937647677208E+001 -0.114467856624657E+002 -0.735024364631179E+003
  0.100000000000000E+001  0.147003608987497E+004 -0.192422371071917E+002  0.737622619690785E+002 -0.603346244196313E+000  0.236594451317558E+001 -0.114467856624657E+002 -0.735018044937484E+003
  0.100000000000000E+001  0.147002684291273E+004 -0.192432242739411E+002  0.737992671352260E+002 -0.605462229159132E+000  0.233443013530143E+001 -0.114467856624657E+002 -0.735013421456365E+003
  0.100000000000000E+001  0.147007934369649E+004 -0.192572853650888E+002  0.730119876444734E+002 -0.542623348593328E+000  0.203377784346281E+001 -0.114467856624657E+002 -0.735039671848245E+003
  0.100000000000000E+001  0.147000294592209E+004 -0.192445338368566E+002  0.735343023516105E+002 -0.560967934395460E+000  0.225348488467250E+001 -0.114467856624657E+002 -0.735001472961046E+003
  0.100000000000000E+001  0.146997721940016E+004 -0.192697704295166E+002  0.727346724535157E+002 -0.584007020220753E+000  0.233475987717665E+001 -0.114467856624657E+002 -0.734988609700078E+003
  0.100000000000000E+001  0.146997545165805E+004 -0.192702589506412E+002  0.727521811192462E+002 -0.589850832422306E+000  0.234473773441008E+001 -0.114467856624657E+002 -0.734987725829026E+003
  0.100000000000000E+001  0.146995550031619E+004 -0.192373342401611E+002  0.739337322247978E+002 -0.587678245527150E+000  0.231743272638865E+001 -0.114467856624657E+002 -0.734977750158096E+003
  0.100000000000000E+001  0.146992059651236E+004 -0.192447858267614E+002  0.734795361824215E+002 -0.539043670718115E+000  0.203372910849168E+001 -0.114467856624657E+002 -0.734960298256178E+003
  0.100000000000000E+001  0.146980802831864E+004 -0.192532918212006E+002  0.731801640908550E+002 -0.544485860428843E+000  0.207238685285962E+001 -0.114467856624657E+002 -0.734904014159321E+003
  0.100000000000000E+001  0.146984857465004E+004 -0.192598298342424E+002  0.731561888297382E+002 -0.599606665837719E+000  0.247012679669202E+001 -0.114467856624657E+002 -0.734924287325022E+003
  0.100000000000000E+001  0.146980986649712E+004 -0.192629142381758E+002  0.731304844714918E+002 -0.600402986846389E+000  0.235078019223624E+001 -0.114467856624657E+002 -0.734904933248561E+003
  0.100000000000000E+001  0.146980713983953E+004 -0.192570308847930E+002  0.733056003920496E+002 -0.585185182060842E+000  0.222647355354617E+001 -0.114467856624657E+002 -0.734903569919764E+003
  0.100000000000000E+001  0.146980541180456E+004 -0.192629430710479E+002  0.730816039492522E+002 -0.589952940798443E+000  0.226030862255022E+001 -0.114467856624657E+002 -0.734902705902281E+003
  0.100000000000000E+001  0.146979536459483E+004 -0.192667185176739E+002  0.729145257868782E+002 -0.580643848146515E+000  0.225382054854397E+001 -0.114467856624657E+002 -0.734897682297415E+003
  0.100000000000000E+001  0.146971103168430E+004 -0.192440735610307E+002  0.736692221353657E+002 -0.578619517999655E+000  0.226842525439168E+001 -0.114467856624657E+002 -0.734855515842152E+003
